34 128
34 0.11302951 -0.12280116 -0.1491784 -0.00050974445 0.031905342 0.03396491 0.075226 -0.1261786 0.052195434 -0.034880117 -0.14980237 -0.08818299 0.014366252 -0.1452471 0.041520953 -0.0972273 -0.10742088 0.0033873527 0.044756517 0.13847962 -0.049357947 0.10124377 0.12135651 -0.21827817 0.054320402 -0.2121371 -0.027795626 0.1821707 0.05073139 0.06799748 -0.09041565 0.049046032 0.0031309593 0.045882564 0.035768304 -0.04757411 -0.14244094 0.09661742 -0.25559682 0.06836135 0.116871044 -0.035687786 -0.09263532 -0.041064933 -0.07218579 -0.086899005 0.12249853 -0.2286251 0.067963 -0.18137324 0.09260125 -0.07614814 0.12424613 -0.11032437 -0.041160487 0.01864674 -0.050867286 -0.11915253 0.023649396 -0.12671585 -0.0032960854 -0.07594833 0.05228826 -0.077607274 0.15873459 -0.027995398 0.026240034 -0.050431635 0.013754833 -0.018080829 -0.018786658 0.06891954 0.070364565 0.045519125 0.0822222 0.1496404 0.03337926 -0.0889855 0.23285091 -0.0516974 -0.0887414 0.024718154 0.067416556 -0.025703443 0.16034134 -0.02161227 0.042304724 0.07020634 0.019429397 0.18052687 0.08263207 -0.031279333 -0.09747965 -0.11829875 0.043236695 0.05716057 0.2553424 -0.03484323 0.19359908 0.03155218 -0.19875292 0.030606033 0.08406009 -0.063182 -0.10988997 0.16578251 0.06737299 0.11445059 -0.059433702 -0.09992996 -0.019914743 -0.11801738 0.01127356 -0.07061918 0.078684025 0.19419745 0.17078371 -0.2271552 -0.12069913 0.046874687 -0.116017595 -0.13555749 -0.072691426 0.056826267 0.16768464 0.016329275 0.029882785 -0.08066161
1 0.12046775 -0.13184951 -0.16374049 -0.004015647 0.032705005 0.022142693 0.074052244 -0.13355573 0.05321959 -0.0398912 -0.1516648 -0.08467739 0.014040017 -0.14856678 0.04167997 -0.089296125 -0.10807939 -0.0077172257 0.046405006 0.13028955 -0.04839311 0.10453691 0.11731372 -0.23066916 0.04767082 -0.21007599 -0.030068122 0.18578482 0.0546082 0.06905847 -0.097558185 0.054989945 -0.007839844 0.038702793 0.026688246 -0.04675834 -0.13638073 0.10245333 -0.26288775 0.060238708 0.12907994 -0.03574594 -0.095620126 -0.051699363 -0.078034855 -0.08264507 0.12374509 -0.22958218 0.070098184 -0.18573134 0.08153898 -0.073670246 0.12464407 -0.12449087 -0.04547836 0.03399882 -0.05290905 -0.12714997 0.030743556 -0.12538625 -0.002728088 -0.07732081 0.05559652 -0.07438348 0.1535599 -0.034967326 0.015167661 -0.05772491 0.018777015 -0.01060348 -0.017318826 0.07479648 0.074639864 0.048781414 0.090265125 0.16400562 0.044158425 -0.08766267 0.23384249 -0.051886167 -0.09708995 0.015150164 0.073529504 -0.029661432 0.15538667 -0.022762448 0.038622085 0.06565972 0.02169598 0.18546073 0.08962947 -0.030523863 -0.10672819 -0.114574194 0.0371375 0.0577032 0.26475823 -0.039310675 0.18859075 0.0371884 -0.19961469 0.027369741 0.09395632 -0.05757886 -0.12246412 0.16972303 0.07305094 0.10907245 -0.061801154 -0.10666495 -0.027012805 -0.10958586 0.009542597 -0.07303957 0.08770831 0.19424178 0.17326848 -0.23472144 -0.119924724 0.048926912 -0.11635392 -0.1340082 -0.08328878 0.06488533 0.17342916 0.009490667 0.028036207 -0.0698438
33 0.11001594 -0.12214138 -0.14719044 -0.0057533304 0.03852919 0.035858847 0.07936089 -0.13047068 0.054520976 -0.02948977 -0.15551479 -0.086121686 0.012975961 -0.15758404 0.03804373 -0.10461305 -0.110555835 0.004788161 0.048294924 0.13816458 -0.047194876 0.09871512 0.11967236 -0.22785337 0.05801282 -0.21652776 -0.03074848 0.18537223 0.047474205 0.07262503 -0.09209137 0.048996538 -0.0001706628 0.043436434 0.039208166 -0.05232926 -0.1454814 0.0984604 -0.26373667 0.0676088 0.12327512 -0.038820934 -0.09604312 -0.04288583 -0.07296598 -0.08741254 0.12542121 -0.23329794 0.07058226 -0.1909551 0.095617406 -0.07669839 0.12271271 -0.11200207 -0.044046097 0.020861965 -0.05412623 -0.121478334 0.02943353 -0.13013892 -0.0047384957 -0.072486155 0.05113058 -0.07691187 0.16438007 -0.025846366 0.028853545 -0.055131946 0.010699265 -0.014594355 -0.021062508 0.07466236 0.07265864 0.04632109 0.09028271 0.15546526 0.03121566 -0.09281108 0.2362247 -0.049181234 -0.08828461 0.026448466 0.074085385 -0.025386745 0.16434403 -0.018103668 0.038001858 0.0699922 0.013386668 0.18710208 0.084823005 -0.029121729 -0.105015635 -0.12451356 0.046854492 0.06091982 0.2636499 -0.035477873 0.20055301 0.038724307 -0.20499945 0.03717398 0.092672534 -0.062079784 -0.11305896 0.17064273 0.06627691 0.117721796 -0.059275664 -0.103266284 -0.013966516 -0.11841417 0.016208112 -0.068062 0.08083405 0.20259883 0.17530952 -0.23359096 -0.12938733 0.05015241 -0.117885344 -0.13379225 -0.08067743 0.05448324 0.17465848 0.014854096 0.031730868 -0.0818628
3 0.11463298 -0.119235635 -0.15265349 -0.009146913 0.029824523 0.025744958 0.06922054 -0.12210315 0.051759344 -0.031649824 -0.14106692 -0.081119604 0.0123514235 -0.14855587 0.037543498 -0.095691755 -0.10122321 0.0011565383 0.04326063 0.13406971 -0.04943384 0.103602886 0.114481986 -0.22226459 0.049157526 -0.20618923 -0.024862593 0.18185282 0.050382268 0.07000854 -0.09097363 0.052017983 -0.0015779708 0.037904326 0.033186033 -0.05043484 -0.13636559 0.09750354 -0.24903187 0.06444148 0.12197121 -0.03505184 -0.09424091 -0.042519007 -0.07158609 -0.08259727 0.12314299 -0.22454599 0.066033095 -0.17870319 0.08712934 -0.07652213 0.12619546 -0.111908935 -0.04017591 0.02525961 -0.04577559 -0.118257016 0.02146765 -0.12569875 -0.0050376114 -0.07656359 0.049498644 -0.0733988 0.15078343 -0.02959103 0.018938107 -0.05028571 0.015577492 -0.011501935 -0.01713195 0.069511816 0.06919169 0.04503479 0.087323174 0.1529021 0.030703757 -0.08682239 0.22435953 -0.051994696 -0.09164791 0.018437814 0.07283895 -0.02620804 0.15199208 -0.01753633 0.040834505 0.06294953 0.019454045 0.17817505 0.07977103 -0.029262224 -0.10278604 -0.11480439 0.042951908 0.05516262 0.24962576 -0.036744043 0.19013539 0.037806887 -0.19611889 0.031594694 0.085690446 -0.055381835 -0.114104964 0.16293542 0.07134505 0.104764424 -0.057512373 -0.10495588 -0.015525237 -0.10958685 0.009255676 -0.07349436 0.07846698 0.19180621 0.16910379 -0.22781067 -0.11356425 0.047443274 -0.11089066 -0.12792182 -0.07572561 0.059331577 0.16975531 0.011826864 0.02467558 -0.07740828
2 0.11437377 -0.12035058 -0.15342823 -0.003823208 0.03459053 0.026574714 0.0744544 -0.13065536 0.04781485 -0.033615563 -0.14174776 -0.07975304 0.011828666 -0.14580387 0.043227788 -0.09506028 -0.10241736 -0.0019216537 0.041980743 0.13064846 -0.044651154 0.10342248 0.11680834 -0.22189246 0.0480329 -0.20828746 -0.029219814 0.18050952 0.049619462 0.065402485 -0.09660288 0.051533993 -0.0068120086 0.038042277 0.02734813 -0.04864118 -0.13851935 0.10056063 -0.2584575 0.06254745 0.12182869 -0.03486222 -0.09434566 -0.044950813 -0.07465942 -0.0847062 0.1237278 -0.22252077 0.06695982 -0.18258677 0.08445656 -0.07591413 0.12694187 -0.11754927 -0.04402211 0.02495366 -0.05184009 -0.11886997 0.026606187 -0.12198241 -0.0074686003 -0.07771585 0.052793 -0.07546823 0.15861854 -0.035461795 0.01853891 -0.057494428 0.021194201 -0.008469846 -0.01756618 0.07465058 0.06696891 0.04507097 0.08854553 0.1553787 0.04035847 -0.08354429 0.2313801 -0.04696886 -0.08958834 0.018777335 0.06979145 -0.022846032 0.15686464 -0.017800963 0.043268103 0.063051954 0.02393084 0.18195659 0.0862152 -0.03179081 -0.10435338 -0.115050904 0.039392296 0.060072877 0.25600472 -0.0386496 0.18525782 0.032981824 -0.1991084 0.034512892 0.08635729 -0.056113876 -0.112711266 0.16391295 0.06962434 0.10920458 -0.055143137 -0.10265994 -0.01932222 -0.11288669 0.009773668 -0.06795819 0.08492904 0.19607194 0.16951892 -0.23101294 -0.11739461 0.04465109 -0.11624467 -0.12669316 -0.080775164 0.059400838 0.17162046 0.016493373 0.029968714 -0.074026234
32 0.11740851 -0.12251687 -0.1552638 -0.0073844614 0.034594398 0.0310994 0.07927553 -0.13467674 0.059877668 -0.036854703 -0.15241207 -0.0866416 0.010919056 -0.1582938 0.0443137 -0.1031337 -0.11337348 0.0026394143 0.044426717 0.1378719 -0.054066036 0.10721349 0.12586777 -0.23568563 0.056681115 -0.22163196 -0.028407233 0.18695588 0.052529767 0.07006593 -0.09335855 0.05283161 -0.002712341 0.04793014 0.036229644 -0.048881013 -0.14848967 0.10188141 -0.26375496 0.06835905 0.12226696 -0.033935897 -0.1014915 -0.049545646 -0.07892891 -0.091048576 0.13126005 -0.2338409 0.07165407 -0.19250435 0.09548722 -0.0773251 0.13155915 -0.11214949 -0.039427016 0.022393914 -0.051886283 -0.1202184 0.026605433 -0.12896141 -0.0032586812 -0.07616401 0.05128794 -0.08309001 0.16154441 -0.03169832 0.027659938 -0.053518247 0.017422015 -0.012417704 -0.016560813 0.076316364 0.07272365 0.042376086 0.09096294 0.1538766 0.037335813 -0.0914382 0.24059062 -0.055547815 -0.096383564 0.026056759 0.071784556 -0.02635403 0.16691495 -0.024882808 0.03989782 0.06503647 0.019699909 0.18885098 0.09002455 -0.036262516 -0.105445735 -0.1245534 0.041782998 0.059923597 0.2645014 -0.037987478 0.20061748 0.038833816 -0.20412192 0.035652786 0.08931523 -0.060199816 -0.118073784 0.17419428 0.069716886 0.11716003 -0.059496086 -0.102738865 -0.013976981 -0.11702453 0.007668957 -0.07151125 0.08601791 0.20563991 0.18001862 -0.23879871 -0.12930787 0.05088334 -0.11702384 -0.13798316 -0.0809047 0.061366472 0.17803743 0.012903021 0.026568823 -0.07630149
4 0.11483707 -0.12314293 -0.16202177 -0.008359858 0.033648428 0.02590582 0.073842905 -0.1332484 0.050731596 -0.037842475 -0.14872915 -0.08334881 0.01567138 -0.14802371 0.039177846 -0.08982666 -0.10661105 -0.0031520631 0.047584876 0.13404654 -0.05281333 0.10828992 0.11682282 -0.22913888 0.052683372 -0.20799667 -0.022836644 0.1886244 0.050547652 0.06801546 -0.091602884 0.05492879 -0.0025420627 0.039793365 0.02708904 -0.05035146 -0.14259966 0.09950802 -0.2624769 0.06424616 0.12362226 -0.0327615 -0.0946761 -0.04898439 -0.07468096 -0.08254819 0.123703815 -0.23162581 0.067732744 -0.18628195 0.083754234 -0.0791896 0.12883966 -0.12141478 -0.044482052 0.025511373 -0.05463814 -0.12559369 0.024788396 -0.12645745 -0.009568096 -0.07627396 0.049837742 -0.07749247 0.15950553 -0.03603611 0.018388303 -0.058454756 0.014929925 -0.014266802 -0.017964957 0.07432747 0.073171094 0.04269298 0.08632782 0.16148776 0.034390204 -0.084832765 0.23517011 -0.050873946 -0.09494999 0.018870495 0.06877983 -0.02956851 0.15525655 -0.022907222 0.04022883 0.06258722 0.024718115 0.18103215 0.089333974 -0.03239699 -0.10308042 -0.120717846 0.039911672 0.0568803 0.25676456 -0.03485208 0.19109805 0.035124894 -0.2010069 0.031133223 0.08821165 -0.05779038 -0.115191236 0.1740769 0.07557534 0.11434976 -0.05423088 -0.109217584 -0.023910385 -0.1170234 0.0053544994 -0.07339976 0.08278173 0.19403656 0.17885463 -0.23302601 -0.11786547 0.047059994 -0.11821612 -0.13534865 -0.07893791 0.0626204 0.17135157 0.014505329 0.028648062 -0.07826685
24 0.110627 -0.12521598 -0.14852954 -0.007865834 0.036777038 0.031886406 0.07510811 -0.12428711 0.05782433 -0.030929405 -0.15024327 -0.0828975 0.015719397 -0.1487297 0.042257182 -0.0999 -0.11299307 0.003130767 0.04374403 0.13655855 -0.053069893 0.0985854 0.12097267 -0.22586384 0.05659755 -0.21450038 -0.026117746 0.17965075 0.048713893 0.06932266 -0.093401745 0.046027716 -0.0026009213 0.042171746 0.03356242 -0.045585882 -0.14448757 0.09617764 -0.25777546 0.06985925 0.12208094 -0.036198135 -0.095726036 -0.040534355 -0.07647166 -0.088345766 0.12529828 -0.2259657 0.069147274 -0.18277277 0.09692643 -0.077856295 0.120328516 -0.11289512 -0.041084412 0.02101432 -0.04862356 -0.119030654 0.028511247 -0.12955505 -0.0066903075 -0.07607403 0.05148042 -0.08069863 0.15698332 -0.028611207 0.026777728 -0.052166868 0.015212744 -0.01693505 -0.015103619 0.076075226 0.067223705 0.041644175 0.089570105 0.14930615 0.03069085 -0.08513519 0.2339627 -0.04735206 -0.08684475 0.02404847 0.071908034 -0.019040873 0.16135818 -0.023329668 0.036208227 0.06939563 0.013932598 0.18439536 0.08426622 -0.030678378 -0.10614173 -0.122027665 0.04245183 0.05613482 0.25410977 -0.03692914 0.1914828 0.03378997 -0.1980847 0.034303304 0.08608725 -0.061583254 -0.11597197 0.16343522 0.06744328 0.10933811 -0.062261697 -0.10107761 -0.0134006115 -0.11303283 0.011872896 -0.07412837 0.07993671 0.19613212 0.17445205 -0.22899868 -0.120807104 0.05296751 -0.113966726 -0.13515365 -0.08158448 0.056254823 0.17506067 0.013925908 0.029432746 -0.08087572
14 0.12715903 -0.13456027 -0.16668099 -0.0081134 0.040180854 0.030162895 0.08278589 -0.1376909 0.05674426 -0.037827317 -0.16103718 -0.093139075 0.012028172 -0.16372272 0.04395583 -0.09720608 -0.118720256 0.0009342202 0.050831743 0.14422178 -0.056292932 0.110235885 0.12576811 -0.23908037 0.05877628 -0.22584681 -0.026239626 0.20007432 0.05432486 0.07675477 -0.1035714 0.057630852 -0.0027936783 0.045257665 0.037560865 -0.049199134 -0.15090282 0.10642128 -0.27801713 0.0728175 0.1325687 -0.034601122 -0.10150807 -0.049605127 -0.0823163 -0.09016612 0.13074784 -0.24487652 0.0688793 -0.198207 0.09712125 -0.08296599 0.1358071 -0.12817034 -0.048334263 0.02961397 -0.051078875 -0.13294558 0.029439846 -0.13606836 -0.0061488473 -0.0846441 0.058490105 -0.08352629 0.171327 -0.032937415 0.021306165 -0.0562113 0.020890523 -0.009885662 -0.016235236 0.07998165 0.07235783 0.048112053 0.0948197 0.16982943 0.04231698 -0.08881969 0.2467172 -0.05599683 -0.100349486 0.023018094 0.07290032 -0.027658876 0.16788787 -0.020180559 0.042679742 0.069721594 0.024610208 0.19559057 0.09300513 -0.030498551 -0.11449669 -0.12719192 0.04717602 0.0640639 0.27919316 -0.04170768 0.2057131 0.038326446 -0.21694167 0.03641582 0.09939968 -0.06231568 -0.12489077 0.17943664 0.07661281 0.11583758 -0.060014565 -0.10918091 -0.021299932 -0.120836005 0.006457285 -0.07875117 0.08709675 0.21363701 0.1853831 -0.251011 -0.12705258 0.05116152 -0.1220072 -0.14023599 -0.08512081 0.06488814 0.18479723 0.011366038 0.028966827 -0.07984242
30 0.108542465 -0.12529843 -0.14774244 -0.006512753 0.039287433 0.03510358 0.07591719 -0.128606 0.057132147 -0.03609195 -0.1530115 -0.09137844 0.01218601 -0.15513572 0.03960575 -0.101365216 -0.11322721 0.0017804219 0.048400678 0.14120863 -0.053641025 0.099601045 0.12411638 -0.22521853 0.059371676 -0.21471098 -0.02266494 0.18697195 0.049279958 0.071781635 -0.09404085 0.050336063 0.0013422098 0.04195515 0.031155005 -0.048501167 -0.14469074 0.094990745 -0.26302513 0.070840925 0.124837376 -0.03458208 -0.098874055 -0.04816105 -0.07320348 -0.08967825 0.1264857 -0.23158841 0.067905724 -0.18377082 0.09564395 -0.07235166 0.12588911 -0.11284878 -0.040408704 0.019495402 -0.053748835 -0.12271974 0.023486232 -0.12644647 -0.00957195 -0.07220338 0.05159069 -0.07633926 0.16281107 -0.024334723 0.026773086 -0.05673525 0.012005578 -0.014377752 -0.016846023 0.07101549 0.06579233 0.044931784 0.08907342 0.15261808 0.03181759 -0.08479818 0.2349807 -0.054768205 -0.09403289 0.021535227 0.072722636 -0.018708479 0.15975678 -0.021528132 0.040714182 0.06530533 0.01833921 0.18091457 0.08535961 -0.032632314 -0.0999665 -0.12319617 0.04559663 0.06273428 0.259917 -0.035478745 0.19535892 0.038740184 -0.19712111 0.03260748 0.09206381 -0.05843045 -0.11667557 0.16866782 0.06656707 0.11007627 -0.060211327 -0.10127794 -0.0173693 -0.1123447 0.0064222566 -0.07384459 0.084213674 0.19678032 0.17703389 -0.2347816 -0.120663814 0.051483423 -0.117963865 -0.13861448 -0.07525163 0.05354986 0.17304783 0.014220494 0.028173978 -0.08036536
7 0.12574278 -0.13824336 -0.16596876 -0.007564249 0.033765227 0.01916152 0.08011358 -0.14099897 0.050834075 -0.041732702 -0.15001206 -0.086307004 0.013644525 -0.1527451 0.03924789 -0.0939205 -0.10982817 -0.0052216286 0.044318736 0.13394247 -0.05309825 0.104071066 0.117592566 -0.2325666 0.05236176 -0.21983251 -0.029053332 0.19372007 0.05275746 0.06956791 -0.09630561 0.05914943 -0.011427077 0.039093543 0.035563458 -0.052131098 -0.14183141 0.10739648 -0.26988906 0.061317652 0.13222797 -0.030848121 -0.099960156 -0.05588598 -0.08032491 -0.08692849 0.13063519 -0.2329118 0.069051 -0.19771671 0.08862838 -0.0761132 0.13021319 -0.13008505 -0.048183527 0.037651837 -0.05089045 -0.13668557 0.028034719 -0.13396534 -0.007127298 -0.083405174 0.060936105 -0.08076056 0.16230494 -0.04003563 0.012779175 -0.056910846 0.025090335 -0.0060822545 -0.014024792 0.08022748 0.071492046 0.051979274 0.0893367 0.17132516 0.042386606 -0.08545178 0.24166867 -0.048568975 -0.098969 0.017528102 0.0733674 -0.033127606 0.1549054 -0.025978956 0.04330107 0.067654274 0.026063 0.18615046 0.09351872 -0.02930699 -0.11223261 -0.12666439 0.039531097 0.060925424 0.274424 -0.03556418 0.19401462 0.033427976 -0.21076624 0.028005837 0.0980347 -0.05825364 -0.13029067 0.17848474 0.073128834 0.11171443 -0.062131293 -0.11090277 -0.024727318 -0.11309104 0.0073206197 -0.08077829 0.09268109 0.20572777 0.18035725 -0.24167271 -0.12439461 0.046838287 -0.1167044 -0.13336357 -0.09115416 0.07057776 0.17810792 0.008324077 0.030493516 -0.071498476
6 0.12967648 -0.1409062 -0.16985625 -0.009940757 0.03653577 0.021758115 0.08308974 -0.14454806 0.053532153 -0.04516027 -0.15785222 -0.091420904 0.010957624 -0.16313255 0.03990822 -0.09558868 -0.11881041 -0.0018667392 0.04191983 0.1451132 -0.051355686 0.10619203 0.12121108 -0.24527952 0.052647952 -0.22978407 -0.02746136 0.19889757 0.052124936 0.075368695 -0.104349874 0.06013047 -0.008298224 0.0378364 0.031289924 -0.04709999 -0.14434287 0.10946616 -0.27989548 0.06553077 0.13942172 -0.034556836 -0.10633285 -0.057006724 -0.08265965 -0.08942033 0.12963238 -0.24356972 0.07268087 -0.20320834 0.088398844 -0.07852126 0.1354936 -0.13352348 -0.04587811 0.036520466 -0.05154621 -0.13880442 0.031514443 -0.13557495 -0.0075080134 -0.087341264 0.06386091 -0.08020476 0.16693512 -0.04122336 0.015774861 -0.059335418 0.02399979 -0.014330643 -0.019939467 0.078224644 0.077225015 0.049243465 0.09901814 0.17495127 0.04526639 -0.09134444 0.24465269 -0.054624386 -0.10349045 0.02127746 0.075256646 -0.030034708 0.16442905 -0.02203853 0.04548706 0.06640513 0.024758892 0.19348128 0.095915 -0.034782648 -0.11219647 -0.12886973 0.043466788 0.057961006 0.27749872 -0.043833397 0.19873679 0.034578253 -0.2175736 0.03633679 0.103406385 -0.06258618 -0.13279477 0.18611476 0.07364976 0.11238298 -0.06168716 -0.11630698 -0.023050245 -0.117148064 0.011148472 -0.07950914 0.09487394 0.20962422 0.18464027 -0.2552806 -0.12527049 0.04653987 -0.11665509 -0.13702214 -0.09560414 0.067825474 0.18042685 0.014931815 0.0276327 -0.078308076
28 0.11640532 -0.12512146 -0.14944735 -0.006491583 0.03877791 0.030309448 0.07717608 -0.13099746 0.0582266 -0.03680834 -0.15110546 -0.08478439 0.016820405 -0.15152948 0.042590097 -0.09744003 -0.110921465 -0.0014811094 0.042166624 0.13398707 -0.04793434 0.09837124 0.11693829 -0.22699119 0.05191565 -0.20797184 -0.026429355 0.18107793 0.047531355 0.06458141 -0.09588549 0.046688814 -0.0033378594 0.04347741 0.0290339 -0.048805516 -0.14113103 0.096827425 -0.25595677 0.0640895 0.12312007 -0.031984817 -0.09854591 -0.045235045 -0.075659014 -0.081415676 0.11945276 -0.22426878 0.06687442 -0.18405111 0.09170718 -0.075465366 0.12480136 -0.11544726 -0.045015257 0.023420082 -0.051942214 -0.11583525 0.02459861 -0.12184927 -0.008778641 -0.0747275 0.05465195 -0.07400203 0.15202379 -0.029975599 0.023308929 -0.05381985 0.015095773 -0.012325525 -0.016811972 0.071148604 0.07172544 0.041789707 0.09052747 0.15575738 0.032215513 -0.089236364 0.2277208 -0.046996053 -0.09190693 0.023651294 0.06663681 -0.023159448 0.16059385 -0.0251755 0.03563072 0.066124454 0.021523478 0.1814127 0.08533902 -0.028194675 -0.097933896 -0.12115844 0.038982928 0.0578832 0.25100023 -0.03221532 0.191308 0.037565015 -0.1963819 0.030665046 0.08921646 -0.06272566 -0.11491073 0.16778244 0.071007185 0.10746175 -0.056493126 -0.104159325 -0.01771525 -0.11242389 0.013241136 -0.068460375 0.07981637 0.19172965 0.17497043 -0.23109907 -0.11921886 0.05100422 -0.11545698 -0.12781571 -0.07811882 0.062020935 0.17074688 0.01735165 0.02416376 -0.07131849
9 0.11680886 -0.12635598 -0.15067734 -0.003055867 0.035951212 0.028782886 0.07025006 -0.12930453 0.057812653 -0.03833964 -0.14571461 -0.08455668 0.010839172 -0.15330447 0.037712194 -0.09602118 -0.10554225 -0.0005640723 0.047768142 0.13773146 -0.050115876 0.10181426 0.114278436 -0.22664648 0.054620057 -0.21322714 -0.027768606 0.18206397 0.05238596 0.067150295 -0.09663066 0.052219186 -0.006324408 0.040742226 0.036177456 -0.046795793 -0.14335439 0.10122172 -0.254606 0.06234069 0.12010433 -0.03575367 -0.09632898 -0.04877231 -0.07775963 -0.0836152 0.12754463 -0.22812277 0.06994239 -0.18539238 0.08973734 -0.07399897 0.12726359 -0.11496813 -0.03843413 0.023339352 -0.05195626 -0.11931281 0.02954479 -0.12281837 -0.004662236 -0.07679375 0.053756855 -0.07720542 0.1596251 -0.031993933 0.024813153 -0.056973524 0.014513634 -0.01335157 -0.018015886 0.0746094 0.068439 0.041438647 0.090387024 0.15765576 0.03721952 -0.084215865 0.23448138 -0.04957781 -0.08766543 0.01904348 0.07366553 -0.022826152 0.15659854 -0.024309045 0.04068691 0.0684186 0.015879795 0.18210392 0.08943519 -0.03522213 -0.10514982 -0.11798405 0.0431539 0.058120012 0.25541285 -0.038157176 0.19332482 0.036479287 -0.20114371 0.031152759 0.08980159 -0.06148644 -0.11843902 0.17156993 0.06544468 0.11264685 -0.0621407 -0.10542117 -0.019694733 -0.11727932 0.008251791 -0.06776064 0.08291633 0.20053054 0.1771567 -0.23405531 -0.12431224 0.049756948 -0.11270632 -0.12910481 -0.08437948 0.060956728 0.17319104 0.016234081 0.02578049 -0.07650468
8 0.11699785 -0.12408013 -0.15978675 -0.0070615844 0.03104949 0.031714097 0.0745458 -0.12912756 0.051863585 -0.040091276 -0.1528338 -0.08252264 0.016727468 -0.15053135 0.03724675 -0.09189153 -0.11176384 0.00024276972 0.046418764 0.13240448 -0.046506375 0.100843854 0.11718122 -0.22715646 0.05194536 -0.20950116 -0.024937466 0.18214001 0.050385226 0.073394 -0.09210815 0.05538568 -0.0024212743 0.039004862 0.030270224 -0.050544653 -0.13933063 0.09988661 -0.2574623 0.062353328 0.12626584 -0.0324867 -0.098542266 -0.044110168 -0.07708969 -0.08372733 0.12635 -0.23343956 0.06902957 -0.18792993 0.086542666 -0.07344479 0.13050005 -0.11447319 -0.042994805 0.028103018 -0.048294526 -0.123040564 0.024664033 -0.12698008 -0.008540572 -0.07776753 0.05578873 -0.07898451 0.15854067 -0.027670216 0.01762981 -0.05242324 0.0187146 -0.011533489 -0.01873005 0.07121259 0.07068704 0.04355271 0.09054269 0.1606894 0.036364198 -0.086359575 0.2364491 -0.053171054 -0.09678914 0.018414367 0.07130432 -0.028541263 0.1603099 -0.017341096 0.043462735 0.07003667 0.021514311 0.18553254 0.086535044 -0.028964425 -0.10501847 -0.122885406 0.04060805 0.059731785 0.26458374 -0.039191667 0.1926326 0.03548112 -0.20212913 0.03284467 0.09268462 -0.054716744 -0.119886875 0.17181365 0.073265724 0.111429274 -0.05667618 -0.1062006 -0.017751612 -0.11440029 0.007317515 -0.07271416 0.082721114 0.20073438 0.17179753 -0.23481011 -0.12438857 0.048814245 -0.11545764 -0.13662972 -0.085599035 0.062768444 0.1766221 0.010703892 0.02685314 -0.07835019
5 0.13309932 -0.14345281 -0.17460403 -0.011545495 0.039193474 0.026618712 0.077252336 -0.14375527 0.061443638 -0.04661563 -0.1632807 -0.08975254 0.012506485 -0.1625721 0.043321755 -0.10128502 -0.12166156 -0.004771346 0.042527333 0.14201207 -0.054511096 0.11360955 0.12882419 -0.25286722 0.053444825 -0.23513904 -0.031997323 0.2040796 0.055746872 0.079837844 -0.108726546 0.053459603 -0.010286467 0.046188105 0.034694433 -0.055964377 -0.14859253 0.10712785 -0.2832306 0.07023923 0.14015904 -0.036186624 -0.10782318 -0.05597288 -0.09040265 -0.09695281 0.13960734 -0.24636991 0.08020478 -0.20235677 0.09023014 -0.08468394 0.14110103 -0.13437678 -0.049334724 0.03435236 -0.05034458 -0.13941754 0.030278606 -0.13637356 -0.0026685065 -0.08334953 0.0643728 -0.08096889 0.16899055 -0.04050071 0.01763349 -0.061938662 0.026268726 -0.009062139 -0.014257273 0.08394786 0.079851896 0.053485435 0.09902342 0.18018302 0.04741659 -0.093631916 0.25124225 -0.05163744 -0.09968109 0.018762548 0.076141216 -0.033842627 0.17039607 -0.028347626 0.041838996 0.07605347 0.01902449 0.20433308 0.10250013 -0.038495537 -0.11377031 -0.12905279 0.04565959 0.06097821 0.28766435 -0.04223712 0.20355485 0.03699611 -0.22091725 0.029873347 0.10370423 -0.063433446 -0.13876244 0.1867455 0.077910215 0.116432235 -0.06628043 -0.1121157 -0.026621317 -0.12032054 0.0066371425 -0.08147273 0.0978906 0.22042906 0.18942824 -0.26077092 -0.12880896 0.04865351 -0.1250727 -0.14433147 -0.09731336 0.07397415 0.18599653 0.009249968 0.02635555 -0.08203166
26 0.10897343 -0.12495284 -0.14628148 -0.0087276045 0.03493732 0.026294434 0.07356654 -0.12409991 0.056185495 -0.031882197 -0.14919768 -0.08580348 0.017317688 -0.15224488 0.039246984 -0.09857181 -0.10722236 0.0019976164 0.047392637 0.13079347 -0.05324873 0.09975297 0.11919094 -0.22747153 0.055032976 -0.21225467 -0.024321191 0.18197228 0.051237945 0.06532258 -0.088171914 0.048349414 -0.0066145845 0.041918263 0.032754395 -0.043613475 -0.14260557 0.094441034 -0.25349915 0.0636902 0.12384782 -0.033767227 -0.093676776 -0.048989523 -0.078642085 -0.08830974 0.12423889 -0.22442436 0.06994691 -0.1849226 0.09013584 -0.07435003 0.12239942 -0.109070115 -0.04284384 0.022456264 -0.048427787 -0.11799859 0.025584457 -0.12753132 -0.0051886626 -0.07021916 0.052167088 -0.08007514 0.15809597 -0.02988746 0.023379883 -0.05665989 0.01846507 -0.013320948 -0.017052969 0.07364933 0.0682161 0.04542315 0.08375969 0.15547906 0.031863082 -0.086747155 0.23223072 -0.048803646 -0.088027716 0.020855648 0.06697411 -0.02033797 0.15882505 -0.022305323 0.038543016 0.06674189 0.019034976 0.17647135 0.08375463 -0.034322843 -0.10288673 -0.1156221 0.037073296 0.060895137 0.25780264 -0.03394712 0.1919933 0.034508526 -0.19776581 0.034865886 0.08524526 -0.059044175 -0.1146851 0.1689097 0.064722165 0.1128961 -0.061256353 -0.105103195 -0.015795171 -0.11151864 0.011261251 -0.070398636 0.08601848 0.19428174 0.17225723 -0.23205397 -0.12357815 0.045795493 -0.10916905 -0.1322382 -0.08039008 0.056155793 0.17397271 0.011200225 0.025995087 -0.078985125
31 0.10976478 -0.11648329 -0.14400034 -0.008430964 0.033404816 0.0312993 0.07352112 -0.11990921 0.053244814 -0.031342633 -0.141716 -0.08259706 0.009728196 -0.14759535 0.034291945 -0.09413243 -0.103794254 -0.00026461444 0.04153788 0.13043557 -0.05024324 0.10056924 0.11320684 -0.21521561 0.05442481 -0.20410764 -0.027945125 0.17696714 0.04815195 0.064370774 -0.08617809 0.049575463 -0.0026751352 0.04235303 0.03554091 -0.044177335 -0.13576263 0.09374857 -0.24768147 0.06584644 0.11811083 -0.037140116 -0.090285525 -0.043728452 -0.07317899 -0.08179638 0.12087083 -0.22262171 0.06431278 -0.17782156 0.08701262 -0.07630348 0.1217192 -0.10606411 -0.03655994 0.024137689 -0.04856506 -0.11347867 0.02516328 -0.12527068 -0.009203479 -0.06760482 0.051493116 -0.075484745 0.1518989 -0.029991835 0.023086946 -0.0498816 0.0149584925 -0.011546023 -0.018566182 0.068699546 0.06685195 0.04190234 0.08850684 0.14595513 0.029642276 -0.08129289 0.22300933 -0.05049939 -0.08633476 0.0180081 0.070677795 -0.019087525 0.1530319 -0.021747338 0.04075988 0.065610126 0.01711244 0.17755485 0.0843195 -0.028897092 -0.10342278 -0.11631619 0.04345872 0.056484416 0.24448058 -0.035951056 0.18980193 0.036289092 -0.18875228 0.03480435 0.0853479 -0.054575652 -0.111189455 0.16328707 0.07009234 0.110661194 -0.054926656 -0.102173984 -0.014236454 -0.11317482 0.007368911 -0.06967293 0.08260504 0.19225173 0.17129715 -0.22665189 -0.12245121 0.04728498 -0.11030578 -0.12787688 -0.077940404 0.051674277 0.16603196 0.012319951 0.030502018 -0.07496943
20 0.114563696 -0.116219886 -0.15083821 -0.003527026 0.03255557 0.026034852 0.073894866 -0.12572974 0.053493086 -0.038410526 -0.14387669 -0.08179087 0.014849886 -0.1435338 0.038929146 -0.09205668 -0.10135655 -0.0022191587 0.04194953 0.13209626 -0.046361715 0.101264566 0.11684439 -0.2193211 0.047472112 -0.2057317 -0.0255176 0.178926 0.05143742 0.068340436 -0.09315877 0.052537862 -0.007079398 0.040813055 0.026269944 -0.04181297 -0.13317099 0.0968203 -0.25120312 0.06445528 0.11910796 -0.035536636 -0.09329171 -0.045273222 -0.069945894 -0.08293449 0.11764382 -0.22198473 0.06566049 -0.17544563 0.08318018 -0.06835021 0.12128276 -0.11052752 -0.037587363 0.021521432 -0.051231835 -0.1166675 0.024623914 -0.12055 -0.0071066446 -0.073535606 0.053612083 -0.07207619 0.15454201 -0.028685072 0.020681769 -0.054866444 0.020385744 -0.011536169 -0.016137956 0.07279254 0.065772966 0.040574785 0.08490131 0.14569058 0.0364344 -0.082166605 0.22087353 -0.048218437 -0.08799578 0.02026361 0.07133431 -0.024497198 0.15191334 -0.016939117 0.037014622 0.06326024 0.021170096 0.17482685 0.08430342 -0.02894797 -0.100579746 -0.111528315 0.043496992 0.05409158 0.24506101 -0.031526726 0.18227912 0.029562943 -0.19116968 0.0310689 0.08819467 -0.058709566 -0.11550994 0.16550878 0.06748912 0.10426339 -0.05166177 -0.097167686 -0.022757953 -0.11144316 0.006768471 -0.073020056 0.08344566 0.18684107 0.17065008 -0.22596994 -0.11139342 0.049304966 -0.105658084 -0.12484518 -0.07946467 0.053696655 0.167613 0.0087098805 0.026977096 -0.0739736
25 0.1135091 -0.12619837 -0.14471501 -0.00517159 0.03595484 0.031989463 0.0722744 -0.1277891 0.05205603 -0.03609608 -0.14676623 -0.08364862 0.01313393 -0.15113328 0.036042165 -0.09944927 -0.11113183 -0.00053548504 0.043908663 0.13227421 -0.04614515 0.09987808 0.12005116 -0.22336367 0.051026713 -0.21172167 -0.026216747 0.18030037 0.04506263 0.06586927 -0.08967765 0.051302783 -0.0059418012 0.040110398 0.03120174 -0.04478647 -0.1387189 0.09358531 -0.25779867 0.06167732 0.11709092 -0.037387755 -0.09512028 -0.042418502 -0.078168906 -0.086943574 0.121333666 -0.22246304 0.07027833 -0.18366943 0.09291733 -0.0717451 0.12538593 -0.1094187 -0.040334854 0.021327477 -0.050014578 -0.12181234 0.022544792 -0.12104686 -0.00608607 -0.07508571 0.054751344 -0.079487376 0.1541546 -0.025826415 0.022970175 -0.048184276 0.01713524 -0.01255128 -0.014192401 0.07001061 0.07163306 0.040800076 0.088014744 0.14905396 0.03210947 -0.0885983 0.23115647 -0.04737461 -0.08533627 0.02655263 0.06699733 -0.019811094 0.16002245 -0.01943539 0.037275955 0.06976738 0.018837474 0.17775303 0.08686682 -0.032379534 -0.103919856 -0.11776046 0.036256332 0.06059206 0.25207943 -0.03211995 0.18646328 0.032973483 -0.19861227 0.034844898 0.09033179 -0.061071184 -0.11375095 0.16312724 0.065520555 0.108387545 -0.055405796 -0.09758183 -0.0144095095 -0.11536547 0.0078377165 -0.07283336 0.08353816 0.19602929 0.17386715 -0.22873132 -0.123523444 0.051689006 -0.10999247 -0.1324722 -0.07762575 0.053549632 0.16756362 0.017477622 0.029546048 -0.074423335
29 0.11026577 -0.121191025 -0.1475531 -0.008945086 0.037734926 0.030131873 0.07302796 -0.12750281 0.054916147 -0.035501327 -0.15045306 -0.0811882 0.011810853 -0.15110831 0.03712488 -0.09571265 -0.1109065 0.003353451 0.04149575 0.13617662 -0.048158687 0.10208535 0.12011545 -0.22700192 0.05334782 -0.21300887 -0.027285777 0.17832367 0.0529886 0.07044362 -0.093723506 0.049889036 -0.005486061 0.0439211 0.030361336 -0.046127412 -0.1408891 0.09537609 -0.25845838 0.06562164 0.12529866 -0.036745638 -0.09279969 -0.04262468 -0.074940465 -0.08715475 0.1236605 -0.22369055 0.066465445 -0.18631315 0.0888674 -0.07370551 0.122753985 -0.11605106 -0.039632108 0.021938678 -0.050504792 -0.12348934 0.027417108 -0.1222839 -0.007961389 -0.07090981 0.054717254 -0.078018725 0.15806521 -0.026029915 0.026073335 -0.056398436 0.019060962 -0.016312946 -0.014712431 0.07192137 0.06858278 0.04500351 0.08812641 0.15780728 0.035225578 -0.08728922 0.23178536 -0.047812115 -0.08848873 0.020591026 0.07306401 -0.024637796 0.15368961 -0.02248556 0.03781469 0.06581846 0.016589986 0.1799598 0.08225514 -0.027908325 -0.09937655 -0.11942783 0.041545406 0.058816537 0.26012784 -0.0364644 0.18941608 0.032198913 -0.20022781 0.033167835 0.091723606 -0.056913298 -0.11454537 0.16815223 0.0718305 0.10960145 -0.05902816 -0.105368316 -0.016269187 -0.11344829 0.00990579 -0.07340917 0.07961206 0.19638585 0.17063065 -0.23062794 -0.11865246 0.044527326 -0.116402395 -0.1347456 -0.082886 0.054911256 0.1728373 0.014328209 0.030428788 -0.07858974
11 0.12696908 -0.14104728 -0.16726817 -0.009973015 0.037412062 0.019774579 0.07487987 -0.14220482 0.05810344 -0.046028968 -0.15558293 -0.08678122 0.017567035 -0.16291429 0.044121962 -0.093037985 -0.11291079 -0.0077398103 0.0410033 0.1403587 -0.050501317 0.112635866 0.1258202 -0.23952042 0.051177576 -0.22415863 -0.03164589 0.19980846 0.05705244 0.07443667 -0.10149517 0.053696964 -0.011881647 0.041519873 0.036671843 -0.047210198 -0.14565577 0.11008558 -0.27704042 0.06318369 0.14046395 -0.033121526 -0.10726816 -0.055096142 -0.08792566 -0.0883803 0.13102275 -0.23708762 0.07248135 -0.19996968 0.08982455 -0.07534847 0.1394987 -0.12947153 -0.050847124 0.038713142 -0.04788759 -0.13415837 0.03164382 -0.1389591 -0.009086543 -0.08245708 0.06001263 -0.085560076 0.16294813 -0.03920698 0.01235466 -0.061546292 0.023968503 -0.007615321 -0.012153853 0.08171867 0.07567441 0.048165634 0.09219265 0.1750283 0.048978396 -0.08864737 0.25066736 -0.049875338 -0.10338493 0.021836357 0.08028811 -0.030182658 0.16512336 -0.02336588 0.040412035 0.0709648 0.021896198 0.1974442 0.100571446 -0.03475712 -0.1132122 -0.12823352 0.04072899 0.05672849 0.282766 -0.040962063 0.20341262 0.036075722 -0.2139916 0.031441703 0.105151325 -0.057081513 -0.1360446 0.18676738 0.07498543 0.113801405 -0.066133186 -0.11113726 -0.026502226 -0.116402104 0.004425786 -0.07798817 0.09136002 0.21528243 0.18468273 -0.25212172 -0.128737 0.050084885 -0.11659904 -0.1399938 -0.09664571 0.07318767 0.17958166 0.015745241 0.02446109 -0.07438058
27 0.11522862 -0.12652642 -0.15067719 -0.00764845 0.03226581 0.027190503 0.07754448 -0.12728493 0.056527954 -0.036934435 -0.14900587 -0.08806594 0.013914386 -0.15261348 0.04369483 -0.096270174 -0.1115461 0.0016884254 0.048979703 0.13298102 -0.046297666 0.09952246 0.119402766 -0.22770861 0.05181312 -0.21329653 -0.02975324 0.18494038 0.045833427 0.068121664 -0.08946325 0.052364178 -0.0014060601 0.042192575 0.03276744 -0.0454929 -0.14360781 0.09782237 -0.25881213 0.063951075 0.11846773 -0.033542473 -0.09078898 -0.0465075 -0.077821046 -0.0829348 0.12397678 -0.2246869 0.06775198 -0.18645918 0.091790944 -0.07953234 0.121921964 -0.11048293 -0.03758789 0.024696803 -0.04843936 -0.12050237 0.025526986 -0.12592795 -0.002476497 -0.07737066 0.05402188 -0.076917894 0.15481365 -0.027279949 0.026685089 -0.05140828 0.016613662 -0.01725969 -0.014790175 0.07404774 0.065141305 0.03997993 0.0892527 0.15416038 0.034645386 -0.08502113 0.22933538 -0.046624817 -0.08920669 0.022135254 0.07147647 -0.024131276 0.16222547 -0.022529604 0.041502997 0.063053116 0.018375836 0.17766823 0.08867642 -0.034239415 -0.09952787 -0.115315475 0.04479423 0.06033912 0.2585876 -0.03851113 0.18855211 0.037361648 -0.19366865 0.02968495 0.090546295 -0.056816652 -0.11440351 0.16673586 0.06521551 0.109038875 -0.05963001 -0.10601889 -0.013025008 -0.111516014 0.0074226465 -0.07283593 0.081257544 0.19837902 0.17370538 -0.22723874 -0.12208091 0.04849119 -0.11580268 -0.12904489 -0.08095731 0.057319574 0.17232375 0.0111131715 0.030097708 -0.07598772
18 0.114588045 -0.12681422 -0.15282789 -0.009639285 0.03475021 0.024551142 0.07055842 -0.12987933 0.04895527 -0.038931575 -0.1497508 -0.08478412 0.016131181 -0.15003213 0.0374163 -0.08996238 -0.11022538 0.001591315 0.04726684 0.13198864 -0.04659348 0.09812452 0.12078649 -0.22112449 0.048990704 -0.20751487 -0.022997145 0.17898625 0.050261974 0.07222854 -0.08946995 0.05073622 -0.0030053887 0.036964234 0.027554488 -0.048365872 -0.1406332 0.094132975 -0.25421864 0.06375009 0.12206753 -0.030940916 -0.09246919 -0.04490026 -0.0750902 -0.079661466 0.12351673 -0.22571552 0.06342068 -0.18126741 0.088711664 -0.0708086 0.123750925 -0.11854954 -0.044512283 0.026555253 -0.04943171 -0.11789039 0.024774324 -0.12536222 -0.008345018 -0.07772245 0.0509231 -0.072618045 0.1579518 -0.031372722 0.024514219 -0.049928796 0.013199092 -0.008266212 -0.017485617 0.07366023 0.06563945 0.045980018 0.089804634 0.15095189 0.037393365 -0.0817549 0.2306137 -0.053645995 -0.087474026 0.023434412 0.06657618 -0.02759418 0.15491688 -0.017950878 0.037038445 0.0682455 0.023694765 0.17647344 0.08397139 -0.02944963 -0.10488901 -0.11361297 0.044296265 0.055274352 0.25655884 -0.035568617 0.18659104 0.035798382 -0.1995059 0.034673117 0.09190808 -0.061640587 -0.1156632 0.1692459 0.072861426 0.10782981 -0.054502316 -0.10459019 -0.022706246 -0.11289788 0.0044824346 -0.07397419 0.08263015 0.19292524 0.1728938 -0.22968908 -0.12113594 0.04872261 -0.1102609 -0.13297099 -0.08298279 0.058129318 0.1713157 0.015789533 0.02642385 -0.071872324
19 0.11717334 -0.13010775 -0.1548522 -0.0030028068 0.034929134 0.028392399 0.0795287 -0.12973262 0.0603955 -0.03538201 -0.15825804 -0.09037323 0.015287631 -0.16125624 0.042818334 -0.10247806 -0.11494993 0.004407507 0.05049664 0.14616254 -0.049241077 0.10659123 0.1261605 -0.23964104 0.062085804 -0.2265731 -0.031194238 0.19187821 0.05086978 0.07520577 -0.096032426 0.04841306 -0.0013721568 0.047865007 0.033979 -0.051697023 -0.15265445 0.1038772 -0.27275866 0.06722148 0.12684534 -0.040380467 -0.1021707 -0.046296272 -0.07889424 -0.08841409 0.13256893 -0.24240051 0.07238855 -0.19469605 0.09612314 -0.07910531 0.12783815 -0.11441335 -0.04521669 0.0241837 -0.051845886 -0.12344945 0.028938698 -0.13316812 -0.004590433 -0.07488245 0.050880726 -0.0825121 0.16592166 -0.03245054 0.026152922 -0.051633403 0.01667128 -0.015245549 -0.015943987 0.0768683 0.06975021 0.044214882 0.09473092 0.15870297 0.037009735 -0.091539025 0.24274331 -0.05347138 -0.091142744 0.02421401 0.072984286 -0.022830946 0.16988888 -0.023129087 0.043711886 0.0707863 0.014766109 0.19371025 0.0888836 -0.034384873 -0.11159289 -0.12774587 0.04171394 0.061652657 0.2703191 -0.03987544 0.20613284 0.040600944 -0.21004012 0.03525134 0.09283441 -0.064404875 -0.12236933 0.17763945 0.0739249 0.121231474 -0.06555513 -0.11119109 -0.01603766 -0.12222693 0.014647217 -0.07204962 0.091139056 0.20829995 0.18531376 -0.24197313 -0.12970929 0.047771815 -0.12024988 -0.14004667 -0.085790925 0.060607005 0.18096317 0.01470808 0.03301938 -0.085782744
15 0.11534623 -0.12360138 -0.15154265 -0.00402868 0.036396842 0.033221144 0.07168877 -0.12950851 0.052632757 -0.036005463 -0.14754444 -0.08621212 0.013855889 -0.15028378 0.04183672 -0.09990209 -0.11114483 0.0030764127 0.045487646 0.13659124 -0.051392656 0.099178694 0.11913129 -0.22217609 0.05753161 -0.21248798 -0.023089735 0.18088304 0.052832633 0.072099045 -0.093154885 0.049788877 0.0008995932 0.044460557 0.036121584 -0.050484687 -0.13998492 0.09865249 -0.2548372 0.06780963 0.12108246 -0.031485 -0.0949043 -0.04359984 -0.07453997 -0.08274382 0.12585808 -0.22723196 0.069739304 -0.18467781 0.086981244 -0.07689012 0.122385055 -0.10812558 -0.04268402 0.020661203 -0.04810874 -0.115012385 0.025346028 -0.12341168 -0.009915959 -0.07639796 0.05227555 -0.07951749 0.15930374 -0.025400424 0.027867716 -0.05315238 0.01231969 -0.011940582 -0.019397879 0.06962121 0.06878111 0.046078153 0.084055565 0.15353206 0.031128868 -0.08268503 0.23059253 -0.05054087 -0.09174083 0.024517268 0.06782185 -0.024730714 0.15795477 -0.018516023 0.034856375 0.06937225 0.019254947 0.17558818 0.08518101 -0.029285194 -0.101034775 -0.11978788 0.0400688 0.05523799 0.25581294 -0.032554675 0.18693471 0.0374832 -0.1951234 0.032155044 0.088844314 -0.058823355 -0.114034384 0.16843496 0.06913086 0.10982347 -0.06157782 -0.10452236 -0.014859005 -0.11346034 0.013550454 -0.06685004 0.08202364 0.19580801 0.17496464 -0.2302066 -0.12164296 0.04961848 -0.11274293 -0.13538341 -0.08019158 0.05710935 0.16648205 0.016183406 0.028853284 -0.073241174
17 0.12242619 -0.1374387 -0.16236345 -0.009243279 0.03320882 0.025496956 0.074598484 -0.13867047 0.054533493 -0.040581178 -0.15054996 -0.087650016 0.014061244 -0.15377101 0.042518277 -0.09763854 -0.112236515 -0.0035029957 0.041077897 0.1357108 -0.05274138 0.10496953 0.12016933 -0.2325625 0.05492392 -0.21728252 -0.026482116 0.1879576 0.04889403 0.07202624 -0.10007719 0.056886602 -0.009982954 0.038834933 0.033558346 -0.049260106 -0.14553513 0.099964395 -0.27012223 0.060696553 0.13557738 -0.035523523 -0.101260215 -0.049405385 -0.08441196 -0.08915078 0.12542614 -0.23404129 0.075494014 -0.19168985 0.08363277 -0.080229156 0.1324899 -0.12437162 -0.0449993 0.033858974 -0.049936667 -0.13572021 0.029086566 -0.13434756 -0.0067362688 -0.081510365 0.061962638 -0.08258268 0.16191995 -0.038007088 0.020421375 -0.05431306 0.019630881 -0.011139403 -0.016486114 0.07572935 0.07784942 0.048441753 0.094426915 0.17114176 0.046087183 -0.08703471 0.2399826 -0.050886653 -0.09902959 0.019595345 0.07113512 -0.02625603 0.15976746 -0.019600064 0.03975357 0.064984776 0.020783907 0.18516022 0.095815785 -0.035249412 -0.10693499 -0.124466576 0.042685553 0.058055356 0.27075654 -0.040348537 0.19531256 0.03786923 -0.2089971 0.03227721 0.100325465 -0.054864228 -0.12806624 0.1748496 0.07350837 0.11325341 -0.059643943 -0.10614252 -0.023951529 -0.117224604 0.006974439 -0.076589726 0.08499955 0.20786789 0.18325213 -0.23894753 -0.1240831 0.05063851 -0.113964036 -0.1353037 -0.08796446 0.06935369 0.1763279 0.013467168 0.026471535 -0.07113407
23 0.11288753 -0.12470608 -0.15031864 -0.007231214 0.03262896 0.024529293 0.076789506 -0.12967694 0.05771122 -0.037037265 -0.15016873 -0.08613967 0.014794378 -0.1538697 0.038737256 -0.098276466 -0.104471475 0.0030364995 0.043889254 0.13367428 -0.049195413 0.10112214 0.12020823 -0.22787699 0.057079166 -0.20926422 -0.02404723 0.1857853 0.04843516 0.06941358 -0.09236562 0.049095068 -0.0031311153 0.038343363 0.036185306 -0.050295636 -0.14295456 0.09384164 -0.25963968 0.06519832 0.12345746 -0.03881171 -0.09527973 -0.04760668 -0.076672256 -0.08082134 0.12420956 -0.2224375 0.06534514 -0.18679997 0.08719208 -0.07614397 0.12649266 -0.11156966 -0.03874371 0.023384186 -0.053198796 -0.123394325 0.023376193 -0.121928334 -0.003961861 -0.07301402 0.05488037 -0.07916676 0.15791707 -0.028788889 0.020477569 -0.051671132 0.014195671 -0.00935911 -0.018377656 0.07394613 0.068464465 0.04331619 0.090820804 0.15153313 0.03371853 -0.08908316 0.23041174 -0.046643127 -0.08799346 0.020662272 0.07120485 -0.020570202 0.15637657 -0.01910125 0.038030405 0.06288706 0.021472154 0.18193288 0.08410988 -0.03433834 -0.10226365 -0.12021432 0.041819476 0.058585268 0.25440434 -0.038521983 0.19322772 0.035860546 -0.19647183 0.031456456 0.087217286 -0.058912624 -0.117259935 0.16623661 0.06948662 0.11359057 -0.059049454 -0.099819936 -0.017946823 -0.11110416 0.011882605 -0.068016484 0.085929714 0.19609356 0.17711239 -0.23047201 -0.11952762 0.045216545 -0.11290018 -0.12928642 -0.08348174 0.05749956 0.16932295 0.01652682 0.032369226 -0.07843837
21 0.11505346 -0.12998755 -0.1567304 -0.0077852895 0.03759881 0.030700311 0.074559316 -0.13002676 0.06040302 -0.033522524 -0.15601811 -0.08841084 0.010989221 -0.15468271 0.040232405 -0.10029286 -0.11447824 0.0032343408 0.043557644 0.14049233 -0.0523567 0.104208335 0.120708525 -0.22808869 0.055679064 -0.21567796 -0.02446421 0.1918748 0.0501931 0.0712843 -0.09716491 0.051964525 -0.0030042084 0.04665598 0.03840289 -0.04520757 -0.14303531 0.09676451 -0.2686347 0.069359824 0.122236624 -0.033387028 -0.098265946 -0.049674116 -0.07822107 -0.08948022 0.12460601 -0.23059201 0.07236507 -0.19236453 0.093877144 -0.081051655 0.1302001 -0.11789063 -0.039961766 0.021058993 -0.05330714 -0.122447565 0.027684305 -0.13094522 -0.0074832216 -0.07314972 0.05140398 -0.07711933 0.1587536 -0.03188264 0.027384391 -0.052003536 0.017897293 -0.017078692 -0.019473791 0.07533339 0.06997274 0.04777562 0.08676554 0.1562432 0.03717989 -0.08931141 0.2408716 -0.048082642 -0.094869696 0.020272862 0.07545546 -0.021623092 0.16593373 -0.02396286 0.038537964 0.068991356 0.016935376 0.18359949 0.08647652 -0.03431605 -0.10754358 -0.12472326 0.046503697 0.058454625 0.2613004 -0.039502893 0.1954234 0.03812211 -0.20149498 0.03249593 0.092121825 -0.06407867 -0.122434534 0.17526713 0.07102806 0.11702487 -0.05999732 -0.10207645 -0.0200814 -0.11835607 0.010227667 -0.07714801 0.08810907 0.19940221 0.17673105 -0.23568468 -0.12853369 0.05126362 -0.11961207 -0.1330613 -0.07987019 0.058402 0.17656831 0.011457585 0.028632676 -0.077861175
13 0.120692685 -0.13396488 -0.16316977 -0.011336427 0.035883296 0.029514734 0.0776023 -0.13988836 0.053271268 -0.04215938 -0.15422665 -0.0853367 0.010762154 -0.15410091 0.042299617 -0.09689636 -0.11359111 -0.0024335599 0.044132225 0.14139591 -0.054580677 0.11038645 0.12080367 -0.2386189 0.051663462 -0.22613725 -0.027439864 0.19527411 0.049286846 0.07271015 -0.09751895 0.056572128 -0.0052543636 0.0441561 0.03679585 -0.053894848 -0.14309879 0.10806209 -0.27404234 0.07125175 0.13141534 -0.032997463 -0.10228736 -0.046518907 -0.07841349 -0.09257252 0.13348468 -0.2411246 0.07221836 -0.19861488 0.09120459 -0.0788246 0.13425247 -0.124959305 -0.045475967 0.02598739 -0.05108595 -0.13279484 0.026055636 -0.13388938 -0.006328622 -0.0784378 0.056648407 -0.07866806 0.16484596 -0.033784878 0.022173345 -0.05681786 0.022468772 -0.0102241235 -0.0136374105 0.081199706 0.07678988 0.045775365 0.09003741 0.1663622 0.037152126 -0.08765948 0.24056931 -0.051873833 -0.10047802 0.02533651 0.07752639 -0.029891321 0.16446848 -0.024762709 0.03804302 0.06925559 0.023941634 0.18856312 0.091470644 -0.031357776 -0.112738274 -0.12465114 0.042527057 0.05895003 0.27539864 -0.03465187 0.20186783 0.04035008 -0.21209523 0.032145392 0.09401948 -0.058318872 -0.12337264 0.1796915 0.071177065 0.11752118 -0.06543006 -0.11218575 -0.02059531 -0.11882665 0.0060999347 -0.07546073 0.08868653 0.2082267 0.18405135 -0.2435776 -0.12948947 0.04817741 -0.11940214 -0.13739099 -0.08576878 0.06497921 0.18419318 0.013956247 0.030650409 -0.075472295
16 0.10736473 -0.11827659 -0.14248112 -0.0031636823 0.037339695 0.025158852 0.072706595 -0.12064863 0.055688854 -0.03427316 -0.14855249 -0.08345832 0.0154928975 -0.14924054 0.03924778 -0.093549 -0.10272864 0.0053344793 0.045414146 0.13406318 -0.047051907 0.101241596 0.11449119 -0.22142586 0.055771437 -0.20785816 -0.026226295 0.17605703 0.04695702 0.07160435 -0.090424255 0.045303766 1.0338386e-05 0.04417893 0.034706462 -0.043107472 -0.14145629 0.09106341 -0.25400293 0.06635196 0.11832857 -0.035076708 -0.09252473 -0.04485155 -0.07039781 -0.08292228 0.116665564 -0.21825816 0.06971574 -0.18250583 0.08837128 -0.07768753 0.11848783 -0.11119451 -0.040085446 0.025351249 -0.04771342 -0.11682125 0.022947203 -0.12516952 -0.008687062 -0.06774287 0.05240759 -0.07367717 0.1516472 -0.028171115 0.02768012 -0.049663935 0.01229265 -0.01691149 -0.016188586 0.073031664 0.07000915 0.041779734 0.08630935 0.15147075 0.03454197 -0.08370697 0.22274444 -0.051613916 -0.08815738 0.024429582 0.067388825 -0.025957728 0.15205336 -0.017519055 0.03971485 0.06560385 0.017323455 0.17618766 0.086186476 -0.029937096 -0.10102524 -0.11980472 0.039961614 0.059265036 0.24754973 -0.03203031 0.18588218 0.03507824 -0.18974948 0.033104707 0.08565378 -0.054035246 -0.11497686 0.16031587 0.06361881 0.111177444 -0.055305652 -0.09895961 -0.015285613 -0.112737454 0.009372719 -0.06673401 0.08404938 0.19217649 0.17184283 -0.22686812 -0.12293015 0.04796976 -0.11151705 -0.13085982 -0.07675885 0.05589174 0.16839291 0.012090981 0.02905707 -0.07360024
22 0.11833922 -0.12921096 -0.16168968 -0.00773132 0.03737691 0.026136763 0.07487233 -0.13527887 0.056818157 -0.03502478 -0.14827235 -0.08493699 0.014789181 -0.15149978 0.040818967 -0.09774393 -0.1078039 -0.005161426 0.04139804 0.13951162 -0.054027688 0.106241986 0.123354435 -0.23282132 0.05231954 -0.21503861 -0.02641971 0.18593845 0.051490717 0.07242608 -0.09993236 0.053276528 -0.005549959 0.040075243 0.03393062 -0.049767863 -0.14064854 0.0993387 -0.26408866 0.06867095 0.12817495 -0.035007246 -0.09898964 -0.04759246 -0.077294156 -0.09068256 0.12423759 -0.23501265 0.06879354 -0.19347666 0.090872765 -0.07559557 0.13204098 -0.12358121 -0.04432031 0.028179886 -0.052112184 -0.12767804 0.03037938 -0.12847495 -0.009914188 -0.0779702 0.051624235 -0.081494875 0.16225414 -0.028922452 0.024422994 -0.05366794 0.0153924115 -0.010579294 -0.015867302 0.074618526 0.07382433 0.043875847 0.09180725 0.16056126 0.042078353 -0.089869834 0.24012354 -0.0521278 -0.09228838 0.020749973 0.073847204 -0.02488219 0.1600763 -0.02378908 0.04267947 0.0700803 0.020747509 0.18540247 0.08831857 -0.031058023 -0.107308425 -0.12018085 0.041812472 0.055748865 0.26574785 -0.03483369 0.19428675 0.032574873 -0.20455262 0.03582974 0.0961767 -0.059032902 -0.12320247 0.17737174 0.07510521 0.11192536 -0.061125707 -0.11072572 -0.021036502 -0.116173655 0.008719664 -0.074046016 0.08455002 0.20378438 0.1801933 -0.24137746 -0.12720929 0.052396707 -0.11346065 -0.13825908 -0.0834458 0.059427284 0.17749722 0.014276832 0.031195648 -0.076519825
10 0.112725854 -0.1218325 -0.15213042 -0.009141967 0.031495325 0.02641777 0.07571222 -0.1249223 0.056471854 -0.03374358 -0.15249193 -0.08152564 0.013729011 -0.14958975 0.03624092 -0.09661126 -0.11162028 0.0017853703 0.045111515 0.1301459 -0.048126195 0.09952904 0.11818749 -0.22168116 0.052053906 -0.21322447 -0.03006102 0.18443523 0.05372531 0.07163205 -0.09371823 0.05087268 -0.0032567799 0.043122523 0.032134067 -0.043786958 -0.14336914 0.098135404 -0.25333115 0.063415416 0.120006755 -0.03628676 -0.09362878 -0.04974138 -0.07869079 -0.08357349 0.12506421 -0.22405475 0.070093036 -0.18608747 0.08703206 -0.07230419 0.12648077 -0.114168026 -0.042891547 0.026150914 -0.048687942 -0.1190239 0.02734468 -0.12308695 -0.007147271 -0.07307735 0.049157497 -0.07670373 0.15987256 -0.026154326 0.025432179 -0.05619335 0.014084866 -0.016091092 -0.01692082 0.075993 0.06692302 0.041687954 0.084078535 0.1567877 0.032165196 -0.08277715 0.232682 -0.049495187 -0.0943365 0.024403444 0.06867669 -0.025927259 0.15555556 -0.024864182 0.036733314 0.06465669 0.017976787 0.18321353 0.08941451 -0.029033253 -0.099837065 -0.11433822 0.039221395 0.05685178 0.25753555 -0.034381874 0.19062464 0.033377465 -0.19762999 0.029076373 0.09050223 -0.059706047 -0.11744504 0.16472572 0.065923765 0.1099903 -0.057781223 -0.10033964 -0.015244992 -0.11522943 0.009879167 -0.072912544 0.08502806 0.19763416 0.17444661 -0.23352334 -0.11858701 0.05008417 -0.11411662 -0.13256252 -0.08288257 0.061626416 0.17422716 0.013305414 0.030514723 -0.07655074
12 0.11037364 -0.11798617 -0.1459997 -0.010208617 0.036206886 0.02229152 0.06845116 -0.12471056 0.048009627 -0.038504202 -0.1448955 -0.082060985 0.016229708 -0.14775792 0.036919292 -0.08884685 -0.10668503 -0.0028338295 0.041290637 0.1306535 -0.046752773 0.095614895 0.11238851 -0.21942657 0.05308322 -0.20414265 -0.02856859 0.17416625 0.047821898 0.06933693 -0.08860093 0.05004204 -0.0026296712 0.041608535 0.032493036 -0.04917267 -0.13869281 0.09886627 -0.24873735 0.06046189 0.118557066 -0.036765326 -0.08886145 -0.042310115 -0.07527717 -0.07970785 0.12283197 -0.21837968 0.06945812 -0.17940116 0.08197542 -0.06879563 0.12136979 -0.11396674 -0.038775254 0.029796122 -0.044488 -0.117331065 0.02704543 -0.119045414 -0.0056996117 -0.07173985 0.048622776 -0.07138294 0.14943987 -0.028560065 0.02091237 -0.04901865 0.01936855 -0.007568635 -0.016023079 0.0745613 0.06449301 0.042317938 0.08884882 0.15162857 0.038175188 -0.08104716 0.22293651 -0.05131608 -0.09115041 0.017250499 0.072487295 -0.025173422 0.1482448 -0.01786752 0.037447296 0.066986635 0.018659852 0.17693743 0.087007925 -0.032966774 -0.10346372 -0.11617919 0.037481133 0.05420304 0.25145882 -0.038770664 0.18443018 0.032199193 -0.18917087 0.032184564 0.08763345 -0.057438586 -0.11572965 0.16632141 0.067118146 0.10524097 -0.060141232 -0.10153862 -0.019665204 -0.11021313 0.007876853 -0.06913194 0.08174153 0.18995327 0.17134285 -0.2248272 -0.114285104 0.04542738 -0.11271319 -0.12860166 -0.07489846 0.05556305 0.16661488 0.015588502 0.027287755 -0.07556024
