56 128
34-1 0.11507653 -0.13113229 -0.14365806 0.021768529 0.054456126 0.106930435 0.1246453 -0.13836575 0.09522571 -0.012657452 -0.23102789 -0.14623111 0.016859405 -0.21159258 0.06121379 -0.18284842 -0.1623219 0.059087392 0.082429826 0.2316283 -0.070988685 0.1255259 0.19300655 -0.27006787 0.12225076 -0.31277877 -0.036924742 0.24816018 0.061265815 0.09980878 -0.10712944 0.037527196 0.05528699 0.103536375 0.08637922 -0.06045016 -0.24012955 0.108991615 -0.35037905 0.13926531 0.11221776 -0.06260073 -0.11535894 -0.023976523 -0.07585379 -0.13196509 0.17075054 -0.32692724 0.08977165 -0.25000358 0.18826868 -0.12576075 0.15727852 -0.09086094 -0.036660478 -0.044981975 -0.08353412 -0.1218773 0.021252837 -0.18390416 -0.008886174 -0.08272251 0.05027825 -0.12092745 0.25738373 0.0054745106 0.10648949 -0.052611478 -0.021528315 -0.06606543 -0.041010637 0.083633296 0.07238263 0.046594508 0.09612652 0.14574727 -0.004441739 -0.12988855 0.334343 -0.07205063 -0.08933838 0.07301577 0.08402033 -0.0033924489 0.26425162 -0.028545352 0.06316316 0.11469732 0.00035686887 0.25028464 0.09030868 -0.041149914 -0.111046165 -0.18413454 0.09473807 0.093064584 0.32833067 -0.03642344 0.30615225 0.044906843 -0.26560634 0.05832739 0.08499172 -0.116022676 -0.103826605 0.21307586 0.06967345 0.19851883 -0.07997539 -0.112062685 0.012761986 -0.20363607 0.03631597 -0.08091442 0.08839607 0.28092545 0.24696559 -0.29982206 -0.19588397 0.07551616 -0.18196794 -0.20485198 -0.06733868 0.031420365 0.23519345 0.041414827 0.066997275 -0.15976219
1-1 0.19322844 -0.18195008 -0.3013475 -0.012813414 0.02940197 -0.048981 0.06639606 -0.22058944 0.0060696653 -0.10662091 -0.14747538 -0.07348678 0.007282441 -0.14682193 0.050803818 -0.0039200895 -0.09143428 -0.09170211 0.046838365 0.10358041 -0.042331696 0.15434936 0.09448785 -0.29532978 -0.0016059551 -0.20031226 -0.043858096 0.22262557 0.07814953 0.08379154 -0.14194049 0.12189052 -0.058505118 -0.005196238 -0.021475421 -0.073988765 -0.09511359 0.17002273 -0.33159208 0.02159512 0.20352088 -0.025135223 -0.11021135 -0.10421928 -0.098699786 -0.061348926 0.14485109 -0.27781007 0.07580243 -0.22329393 -0.0105886385 -0.062897354 0.16626407 -0.24710225 -0.07667345 0.13855986 -0.06989968 -0.20407479 0.06798065 -0.13058244 -0.0028721003 -0.115884624 0.0827994 -0.051900577 0.15527765 -0.10981852 -0.07304153 -0.09787769 0.07009478 0.05853629 -0.018299608 0.112887576 0.10976624 0.08149389 0.1383978 0.26906028 0.15404607 -0.07159518 0.2641114 -0.080889866 -0.16654724 -0.053727467 0.1148826 -0.091533124 0.123284586 -0.010047158 0.058457438 0.052941382 0.07676124 0.22726695 0.1480023 -0.037523154 -0.1765492 -0.10518794 0.018688075 0.053643946 0.36116195 -0.08098399 0.17035286 0.050029885 -0.23741584 0.016842907 0.15416086 -0.01860544 -0.19648473 0.24071796 0.13378064 0.10328897 -0.0656589 -0.16828986 -0.116515025 -0.09118486 -0.03147693 -0.08470153 0.14200059 0.2150737 0.19358759 -0.29455325 -0.11898862 0.032294676 -0.1365215 -0.138046 -0.13540937 0.12397795 0.20004754 -0.016916195 0.024459586 -0.012616247
33-1 0.10674187 -0.13087033 -0.13806668 0.009814213 0.0694354 0.102266096 0.12172237 -0.14601852 0.09396009 -0.0064111194 -0.22268468 -0.13672076 0.012939099 -0.22677617 0.058552675 -0.18440865 -0.15845378 0.05298558 0.08317172 0.21970002 -0.07106337 0.121293984 0.18222149 -0.28660166 0.124903575 -0.30406123 -0.03355295 0.23720779 0.049712453 0.09629671 -0.10385877 0.03691793 0.03951952 0.08959247 0.084338635 -0.06687583 -0.22994 0.10564334 -0.35210937 0.13069111 0.12333141 -0.060850956 -0.11776941 -0.02605529 -0.07683237 -0.1291822 0.17019925 -0.31782627 0.08883487 -0.25496858 0.18344343 -0.12565506 0.1463851 -0.091502614 -0.036773965 -0.036386296 -0.08550863 -0.121016294 0.03133661 -0.182619 -0.012621731 -0.07306344 0.04987921 -0.119791664 0.24635608 -0.0012957085 0.09968022 -0.055890083 -0.017879553 -0.047452036 -0.04021461 0.088777885 0.073217474 0.04627902 0.113528915 0.14573622 -0.00044317736 -0.12778087 0.3234989 -0.06464867 -0.07940531 0.062881656 0.0928213 0.0052957116 0.25843105 -0.019844277 0.05504057 0.10815124 -0.0065017533 0.2443479 0.08864665 -0.04310694 -0.12957829 -0.18911703 0.09082638 0.09729341 0.32441646 -0.041638948 0.2963271 0.058739603 -0.25906187 0.074382365 0.09144836 -0.10125367 -0.105708666 0.21449623 0.07032462 0.19404696 -0.07873145 -0.1191199 0.021290066 -0.18662809 0.03768659 -0.06961702 0.09217263 0.2793657 0.24246092 -0.29453114 -0.2078683 0.07452642 -0.17319548 -0.19225861 -0.08004788 0.021741437 0.23488174 0.03584931 0.06372749 -0.14781946
34-4 0.08516954 -0.051251717 -0.110431924 0.068352126 -0.0030480486 0.16148737 0.14177674 -0.061045937 0.08872886 0.025331002 -0.25577664 -0.16108176 0.025424885 -0.14665249 0.04965853 -0.20099637 -0.15234679 0.12245 0.105929956 0.2706232 -0.05685334 0.12131917 0.22243518 -0.1628028 0.12825257 -0.32378066 -0.051382523 0.2670371 0.09686901 0.12785968 -0.091172956 0.026952395 0.14573404 0.15946154 0.11573363 -0.041866496 -0.2829134 0.102300264 -0.30609274 0.19213624 0.030930296 -0.08536281 -0.07614415 0.017931111 -0.029408116 -0.13760832 0.16269566 -0.35619125 0.07760586 -0.20954032 0.22003175 -0.122733384 0.16397971 -0.030085653 -0.026417708 -0.12580149 -0.082757026 -0.07716189 -0.016560545 -0.18103021 0.0021804674 -0.08547964 0.0066544986 -0.111682184 0.32495958 0.07938525 0.17319106 -0.041316073 -0.07454662 -0.14961654 -0.0655996 0.060242776 0.044139203 0.034678597 0.0070466897 0.091976196 -0.07109884 -0.13302414 0.34735796 -0.09407622 -0.09112193 0.13178183 0.05436072 -0.027627023 0.28296566 -0.02742908 0.085645616 0.13324092 -0.0012154247 0.2568943 0.056298044 -0.0075300327 -0.030972317 -0.14896624 0.14031951 0.082126625 0.30646715 -0.0009196732 0.35167953 -0.0033965367 -0.27239034 0.024565078 0.035134267 -0.16799337 -0.03528606 0.17306739 0.04260363 0.23151803 -0.05981971 -0.06268682 0.022242064 -0.2796335 0.05349586 -0.09666937 0.040924884 0.2748928 0.23592669 -0.28204054 -0.15461034 0.08174703 -0.20992334 -0.23622616 0.0053140894 0.0142837595 0.23631598 0.055435058 0.10209438 -0.24067257
34-2 0.11616798 -0.07519622 -0.14301154 0.08768235 0.014669128 0.1515788 0.15002526 -0.11154511 0.079646796 -0.015920885 -0.24916899 -0.17523439 0.027993305 -0.14908229 0.06982776 -0.18232945 -0.14236212 0.08554281 0.0985256 0.27897704 -0.05934158 0.14053923 0.23119068 -0.2042346 0.11934275 -0.33268687 -0.048626006 0.27286622 0.093879335 0.11628177 -0.10704251 0.047181442 0.111355625 0.15006594 0.09344329 -0.03913 -0.2562388 0.11852674 -0.34580046 0.18617779 0.05513735 -0.08061581 -0.08946205 0.005254721 -0.027616998 -0.14570953 0.1570099 -0.37337288 0.07921865 -0.21123312 0.19797173 -0.11205659 0.16000563 -0.052818332 -0.020425547 -0.111919485 -0.10426774 -0.099601194 -0.0022702888 -0.1842704 0.004150197 -0.09530365 0.04174176 -0.11077652 0.33129525 0.041039683 0.14549388 -0.05623397 -0.03606582 -0.11883074 -0.06502289 0.07250115 0.061927557 0.044358544 0.036689304 0.10059516 -0.016285857 -0.13916996 0.35963562 -0.096382745 -0.08990839 0.10894082 0.07308471 -0.029624982 0.29694882 -0.014283585 0.09398023 0.14289188 0.01916262 0.26445997 0.07972276 -0.026984854 -0.06587874 -0.1629618 0.14348425 0.08615469 0.33066246 -0.008265292 0.34151003 -0.010854064 -0.28363827 0.03812111 0.055709507 -0.16686311 -0.06476383 0.22041737 0.05796923 0.23850307 -0.057305522 -0.07501674 -0.024026683 -0.27737266 0.037724145 -0.09550752 0.07145664 0.2756199 0.25178045 -0.2993896 -0.17076573 0.0792504 -0.19879667 -0.23272406 -0.016294867 0.006305246 0.234475 0.04121831 0.0969321 -0.21873046
1-4 0.22484037 -0.24657758 -0.34218112 -0.021696236 0.032081798 -0.12512928 0.05278109 -0.26263732 0.0016818851 -0.16728006 -0.16679958 -0.07857133 0.015582406 -0.14732708 0.059186444 0.055228904 -0.114235915 -0.15026 0.032867823 0.059891935 -0.040213067 0.13435388 0.07394087 -0.33220565 -0.017832657 -0.19878177 -0.0738591 0.21232706 0.09276355 0.0861875 -0.15508007 0.13626784 -0.10230151 -0.013834999 -0.03968205 -0.06496069 -0.07005212 0.20091054 -0.34540713 -0.034403738 0.24508026 -0.0254368 -0.10920463 -0.1582887 -0.14166042 -0.04442844 0.14951894 -0.25085577 0.10919846 -0.23427434 -0.07561372 -0.021933604 0.1418206 -0.31099483 -0.08734719 0.233878 -0.054924797 -0.25413337 0.115369834 -0.11501015 0.035516463 -0.11783223 0.105589665 -0.03405563 0.10312747 -0.14995326 -0.122584075 -0.10748108 0.108169265 0.08970822 -0.0021047182 0.14375705 0.13231021 0.10781199 0.15976721 0.33045807 0.24144164 -0.06643653 0.2578956 -0.090427935 -0.21218477 -0.0928653 0.13299511 -0.13048393 0.082055435 -0.03242815 0.031925365 0.050141986 0.0731495 0.24096008 0.20200087 -0.06367325 -0.19887611 -0.09486356 -0.0317966 0.03570867 0.41839316 -0.11435005 0.13308841 0.049843144 -0.22078134 -0.021097524 0.1994297 -0.009776214 -0.26948842 0.26424548 0.12649074 0.076290965 -0.11386871 -0.17103341 -0.17474411 -0.04000387 -0.03716402 -0.08848163 0.1853334 0.20169948 0.19312444 -0.30050248 -0.10783128 0.02206067 -0.13107932 -0.14361618 -0.16672532 0.17238225 0.18550952 -0.04197226 0.0064191907 0.045701183
1-2 0.2260754 -0.2748459 -0.31490052 -0.033512946 0.020962909 -0.12274388 0.05362832 -0.25009865 0.012399234 -0.15619586 -0.12757705 -0.06898463 0.005749505 -0.13348557 0.045909677 0.037668288 -0.10118633 -0.124806486 -0.0059261713 0.061009813 -0.044971496 0.121955924 0.062178697 -0.28612044 -0.01846277 -0.20142066 -0.052366637 0.22448373 0.07233334 0.07998261 -0.15833281 0.119430006 -0.12229361 -0.031120276 -0.010519349 -0.049499422 -0.05492747 0.17098618 -0.32819578 -0.034695603 0.2625122 0.002187693 -0.13569503 -0.16729362 -0.15084031 -0.061454125 0.124841474 -0.21953253 0.09663121 -0.23324113 -0.060967043 -0.043428347 0.15407084 -0.29915342 -0.1007912 0.2259865 -0.030918043 -0.27597693 0.096916884 -0.14800332 0.012331895 -0.13426052 0.14235596 -0.059412375 0.111676924 -0.17137042 -0.13478066 -0.10784138 0.115077935 0.07000516 0.012019991 0.12538798 0.13117555 0.11333974 0.13293667 0.34553 0.22159223 -0.05470823 0.24487339 -0.04496592 -0.18842587 -0.06917821 0.10259772 -0.11883495 0.07353198 -0.041232184 0.040745664 0.03894346 0.06413994 0.21012335 0.19960462 -0.058015253 -0.16779318 -0.11560511 -0.007642219 0.021852111 0.39008132 -0.09401428 0.11989841 0.029908637 -0.24386095 -0.025502753 0.21597758 0.0023274194 -0.28648973 0.25476095 0.109874554 0.057768285 -0.09485068 -0.15691099 -0.1575573 -0.035083637 -0.03686041 -0.11077595 0.17438482 0.2268165 0.18011183 -0.3011451 -0.0970852 0.008641719 -0.087084524 -0.11353999 -0.21360053 0.2015626 0.15419832 -0.038642623 -0.009116978 0.042569928
34-3 0.0962024 -0.07949277 -0.123351805 0.06808823 0.027146399 0.14691158 0.13714142 -0.09394461 0.068210915 0.0049859015 -0.23312815 -0.1650451 0.016683578 -0.14951207 0.06637746 -0.16110426 -0.15016194 0.09240314 0.10514528 0.25604832 -0.07112468 0.12743352 0.2104543 -0.18648836 0.13056847 -0.30403823 -0.03403945 0.25404432 0.076201506 0.11125141 -0.09574983 0.038499087 0.11704522 0.13795802 0.10560748 -0.04488441 -0.250913 0.100731075 -0.32567042 0.18069412 0.052987885 -0.06365852 -0.08020433 0.011513242 -0.035493318 -0.13582127 0.1478241 -0.34583393 0.065772586 -0.20914899 0.20586732 -0.12688087 0.15074462 -0.061510403 -0.035315614 -0.09586168 -0.08608324 -0.10091147 0.0018035911 -0.18355614 0.004830824 -0.09263119 0.031500593 -0.116422296 0.30105725 0.03770249 0.13631561 -0.035168406 -0.042834602 -0.10382255 -0.055107187 0.063532084 0.05481336 0.04606181 0.036339138 0.10068361 -0.017381195 -0.12339117 0.33401507 -0.095275834 -0.08226097 0.1042082 0.05101059 -0.021650571 0.27430364 -0.013491954 0.08719677 0.13036527 0.016736142 0.24298139 0.06438153 -0.021377726 -0.07183952 -0.16162196 0.12867193 0.09092394 0.31488606 -0.022169804 0.3220213 0.00756935 -0.2699224 0.047745943 0.049156323 -0.14545389 -0.045611307 0.18773276 0.058698606 0.22274964 -0.05732459 -0.07095299 -0.005925149 -0.24741757 0.032151494 -0.08188049 0.049590092 0.26417926 0.22083224 -0.26892465 -0.17104663 0.06759904 -0.19342607 -0.22237569 -0.0025491992 0.00977104 0.21483149 0.042668108 0.087630354 -0.19821852
10-2 0.07861294 -0.046313435 -0.10356117 0.06658763 -0.0065618996 0.1638107 0.14928636 -0.05320264 0.09789742 0.031221624 -0.26678538 -0.16036314 0.028611759 -0.14703962 0.046450898 -0.2106266 -0.16226062 0.12900236 0.10960111 0.26632226 -0.057036463 0.11484951 0.22821946 -0.15789704 0.13255283 -0.33396485 -0.056841664 0.27049077 0.1014383 0.1308298 -0.090302005 0.023333613 0.14729248 0.16649881 0.11697033 -0.03054812 -0.29377702 0.10040449 -0.30128655 0.19404316 0.02185773 -0.08951319 -0.07368219 0.012007796 -0.035528976 -0.14002678 0.16566917 -0.3532103 0.082993776 -0.21087968 0.22380355 -0.117378265 0.16150235 -0.019509535 -0.025230525 -0.13166264 -0.0818529 -0.06830996 -0.014230906 -0.17852348 0.00042099852 -0.07937368 -0.00054821 -0.1153199 0.33550152 0.089829855 0.18600033 -0.045763582 -0.080361195 -0.15974236 -0.06602602 0.067543775 0.036326833 0.026321521 -0.0018715442 0.08547807 -0.08166599 -0.12678319 0.3523323 -0.09094113 -0.09162086 0.14314339 0.048741315 -0.022825314 0.28816453 -0.034621768 0.07940314 0.13336399 -0.006872191 0.26012304 0.06357908 -0.0069573275 -0.02510221 -0.14346956 0.13798225 0.08220308 0.3047021 0.005804999 0.35342413 -0.009388181 -0.26880533 0.022027826 0.0333252 -0.1747201 -0.034942504 0.16700572 0.029911973 0.2351699 -0.058829837 -0.052205037 0.031797852 -0.2866865 0.056410894 -0.09822007 0.046695255 0.27843058 0.24165823 -0.2850144 -0.15564984 0.089024864 -0.20800799 -0.2389588 0.001324926 0.01251583 0.24283294 0.054949354 0.10858493 -0.24604008
2-2 0.1714587 -0.143969 -0.2622592 -0.0075657573 0.032828983 0.0033518686 0.08522023 -0.1934542 0.01617142 -0.06214003 -0.14629626 -0.07867671 0.0012856474 -0.15944834 0.050202247 -0.0630785 -0.09060774 -0.045701288 0.05033763 0.14096761 -0.044653434 0.1622021 0.11854043 -0.27649486 0.023260247 -0.22617021 -0.039056826 0.23539054 0.070419274 0.082784764 -0.13777722 0.10427726 -0.028469605 0.013844887 0.0030725398 -0.07705882 -0.1343276 0.15608482 -0.33653682 0.06286806 0.17616765 -0.036230307 -0.11224362 -0.07176601 -0.083495095 -0.08282781 0.15547352 -0.29708442 0.0664837 -0.227249 0.043323364 -0.094749354 0.18364914 -0.20148252 -0.066936664 0.07577031 -0.07677871 -0.1697385 0.04334217 -0.14756031 -0.025116326 -0.11300449 0.069367014 -0.07155565 0.20127514 -0.0846948 -0.027833406 -0.093118966 0.04845829 0.03209867 -0.030401904 0.102717474 0.08866336 0.06672199 0.12864082 0.23003545 0.09677392 -0.076855406 0.28401062 -0.07195621 -0.13725743 -0.021667905 0.105801724 -0.0556438 0.16349705 -0.0023035593 0.078342475 0.060868055 0.069756195 0.23473804 0.12476206 -0.030257352 -0.1634724 -0.12244634 0.051871978 0.07030246 0.33716822 -0.06680201 0.20830995 0.045284737 -0.2533465 0.044775147 0.12368735 -0.0341619 -0.15440176 0.22624202 0.12767835 0.13068452 -0.04580794 -0.16103457 -0.06802968 -0.13504186 -0.01793381 -0.083075196 0.12541446 0.2434812 0.2075346 -0.30577412 -0.13491563 0.039238412 -0.15253891 -0.14109312 -0.11931983 0.091745764 0.21878009 0.008422318 0.0443863 -0.06298748
3-1 0.15635353 -0.13706087 -0.21920636 -0.011081085 0.03611537 0.03798755 0.08786738 -0.16180664 0.05575412 -0.03934936 -0.179036 -0.09847602 0.014522652 -0.18926549 0.046746965 -0.115444005 -0.11902947 -0.0030602477 0.06381482 0.18063381 -0.05748963 0.15007612 0.14374687 -0.2916815 0.051764514 -0.2549709 -0.028126804 0.2432305 0.06849731 0.09620106 -0.12545691 0.07901988 0.0076739183 0.042912483 0.030821536 -0.08099602 -0.17161752 0.13501798 -0.32524657 0.08916179 0.15789601 -0.044680834 -0.12083297 -0.045383837 -0.076783136 -0.09544691 0.15951298 -0.30877784 0.073907405 -0.23000601 0.105833575 -0.104032315 0.17788216 -0.15655799 -0.055664055 0.029459773 -0.06835276 -0.14810051 0.019247359 -0.15665928 -0.016115317 -0.105531976 0.055459227 -0.08133953 0.19805534 -0.03449585 0.019065127 -0.067402355 0.013942048 -0.007051318 -0.029063825 0.08492899 0.090182155 0.05527098 0.11803434 0.2005277 0.034420524 -0.111814745 0.28461605 -0.07571429 -0.12624983 0.016263552 0.10061324 -0.043709006 0.1928503 -0.0115438355 0.060500167 0.07665929 0.040751524 0.2337402 0.09290351 -0.023693336 -0.13539992 -0.14180313 0.06392258 0.07236634 0.31786853 -0.045407314 0.24961889 0.056941677 -0.25831276 0.042809453 0.10851168 -0.067360215 -0.13688578 0.21491937 0.11377892 0.13468234 -0.059762005 -0.15150921 -0.025723431 -0.14931197 0.00717112 -0.09312352 0.09229044 0.24306144 0.21870892 -0.29780123 -0.13770202 0.062441587 -0.15537946 -0.16036412 -0.086634286 0.07601137 0.22788025 0.017987175 0.033688433 -0.10051384
20-2 0.12437686 -0.074877046 -0.15386021 0.08342404 0.01975952 0.13918595 0.14877923 -0.12265878 0.08085052 -0.0265086 -0.24646778 -0.17041773 0.030172428 -0.15419191 0.07054801 -0.17510474 -0.13838814 0.07255907 0.09625024 0.27466872 -0.05917665 0.14697552 0.22981879 -0.22274183 0.110467546 -0.33154535 -0.04530298 0.27350917 0.09661248 0.11706241 -0.114581585 0.056069948 0.0932701 0.14255019 0.07911001 -0.035660654 -0.24322324 0.12385167 -0.3501203 0.17882511 0.06626641 -0.079592176 -0.093925074 -0.0023547402 -0.028353339 -0.14312607 0.15387112 -0.37114358 0.07881117 -0.20916466 0.18416953 -0.10180913 0.158575 -0.06284167 -0.018424902 -0.10161101 -0.10687412 -0.104689784 0.0024303205 -0.17894778 0.001890131 -0.0962732 0.048189428 -0.10590108 0.3260557 0.03297735 0.13192895 -0.063995585 -0.021198502 -0.10418341 -0.060599484 0.0809612 0.0633907 0.042285386 0.047434 0.104850665 -0.002140985 -0.13571063 0.35269102 -0.09544453 -0.09301754 0.09889651 0.08197239 -0.031378683 0.2895032 -0.007811284 0.087629884 0.13716565 0.025246702 0.26282144 0.08572033 -0.02774118 -0.079377495 -0.15858293 0.1398716 0.084211834 0.33041948 -0.0078712255 0.32981122 -0.011579594 -0.28192258 0.04132615 0.065615475 -0.16130653 -0.078973 0.22999088 0.06386822 0.22755845 -0.0516445 -0.07829305 -0.034899544 -0.2678757 0.030020189 -0.099710695 0.08162924 0.26922578 0.25531796 -0.30431992 -0.16377702 0.08217869 -0.18719949 -0.22374406 -0.027976677 0.0055305953 0.2384911 0.030234965 0.09057524 -0.20650296
14-2 0.106257394 -0.08765855 -0.13819438 0.055534244 0.030591981 0.11834071 0.13004081 -0.10225553 0.058790017 -0.006752959 -0.21609478 -0.15199926 0.010467739 -0.1459664 0.06385022 -0.12978038 -0.14406912 0.07044002 0.09916391 0.22780575 -0.07053538 0.12507059 0.18972902 -0.18746173 0.1176243 -0.2835174 -0.031963978 0.2474841 0.07436027 0.10856922 -0.10247827 0.049499888 0.09406936 0.120352015 0.09366001 -0.040870782 -0.22734743 0.10701541 -0.3189482 0.16149828 0.06821422 -0.053459577 -0.08043008 -0.0063483166 -0.045324698 -0.12226848 0.14057213 -0.3273712 0.06008445 -0.20523751 0.17725909 -0.117409736 0.14700253 -0.08407363 -0.042146493 -0.061330743 -0.077233754 -0.11173098 0.013689081 -0.17279236 0.0043163393 -0.09534844 0.03835076 -0.10810276 0.27942204 0.019432025 0.10636315 -0.03995724 -0.02460606 -0.076866426 -0.04604117 0.07126583 0.052706227 0.0474482 0.045928583 0.11771886 0.00941175 -0.10441814 0.31100354 -0.092232555 -0.09234936 0.08487279 0.051364664 -0.028331365 0.24658906 -0.01036518 0.07984041 0.113552436 0.025895443 0.23383176 0.07649428 -0.020239862 -0.085957326 -0.14978257 0.11549238 0.08620827 0.313051 -0.03198729 0.29311728 0.012189974 -0.25849622 0.0449576 0.06508631 -0.1244796 -0.06271536 0.18513148 0.06353981 0.19851708 -0.05247541 -0.07268476 -0.018554252 -0.21897501 0.01877604 -0.08045565 0.05936015 0.2556585 0.2103525 -0.2661993 -0.15783349 0.061121356 -0.17810373 -0.20238495 -0.019277377 0.023916807 0.20553882 0.028742101 0.077162944 -0.16633087
7-1 0.26685545 -0.3397965 -0.36349335 -0.051774144 0.015235181 -0.18643983 0.04899167 -0.29801747 -0.006330085 -0.20198017 -0.10218336 -0.058503162 -0.00047917338 -0.123353474 0.041621726 0.084904104 -0.09413267 -0.16603722 -0.03957308 0.027956845 -0.047108352 0.11892973 0.032032058 -0.29244533 -0.041705616 -0.19867255 -0.056281663 0.23896366 0.07018864 0.07854888 -0.17615779 0.14327072 -0.17806178 -0.06431411 -0.012938982 -0.049093813 -0.017166318 0.19268532 -0.34511796 -0.07737128 0.3165883 0.029310148 -0.15591413 -0.21925116 -0.18201734 -0.05627846 0.121491514 -0.1979018 0.1018589 -0.25540835 -0.11422583 -0.03198789 0.16404463 -0.36561978 -0.12487788 0.3058943 -0.013041401 -0.3426608 0.11858758 -0.16462258 0.010381644 -0.15993449 0.18697353 -0.061337784 0.09443664 -0.23507331 -0.20077889 -0.12473084 0.16193874 0.105313614 0.031155813 0.14540476 0.14624281 0.14071295 0.14055455 0.41892695 0.2875069 -0.031174975 0.24157874 -0.026441874 -0.21711141 -0.098136894 0.10513064 -0.15258783 0.029301018 -0.053436447 0.04385678 0.023567034 0.08136486 0.20368566 0.24453634 -0.06724471 -0.18764462 -0.12611338 -0.02387466 0.0049674176 0.4305595 -0.10742319 0.08217427 0.01788986 -0.26277167 -0.04778352 0.26750663 0.032534372 -0.3580564 0.2866091 0.11511795 0.030404491 -0.103474684 -0.17191592 -0.20259495 0.0012764029 -0.05773637 -0.1322607 0.21052143 0.24511485 0.1783311 -0.3211919 -0.08664803 -0.014894515 -0.060297523 -0.0915494 -0.28033975 0.26330748 0.13544208 -0.059562415 -0.025547089 0.09238785
6-1 0.27081352 -0.34768596 -0.36935362 -0.05744319 0.014080847 -0.1970945 0.045723453 -0.30167127 -0.010167936 -0.21081166 -0.0981103 -0.05731173 -0.004432857 -0.122625366 0.039817445 0.09764466 -0.09590434 -0.17076294 -0.049305905 0.025126642 -0.043928783 0.11561492 0.02439854 -0.29468238 -0.04868403 -0.19627692 -0.053870115 0.2363612 0.06733735 0.08098754 -0.18242817 0.14568473 -0.18438421 -0.07439941 -0.020839134 -0.040677264 -0.0061335093 0.19332696 -0.34525064 -0.08378352 0.3282544 0.030628847 -0.15991358 -0.22717059 -0.18692811 -0.054290075 0.11406716 -0.19453105 0.104289904 -0.25361702 -0.1305704 -0.028808666 0.16396245 -0.3752568 -0.12463328 0.31817216 -0.007720244 -0.35079905 0.1257097 -0.16311714 0.011190466 -0.16414616 0.19399102 -0.057087295 0.08847149 -0.24611406 -0.2106329 -0.12847458 0.16760266 0.10289172 0.028814316 0.14367409 0.15193228 0.14095919 0.14731008 0.42841154 0.30114254 -0.028279066 0.23304594 -0.028097266 -0.22293581 -0.10177615 0.10457773 -0.15384544 0.023789654 -0.05005151 0.04458336 0.01652329 0.08145748 0.20235772 0.25133246 -0.07428367 -0.18702553 -0.12225319 -0.02519833 -0.0042253323 0.430149 -0.11801961 0.071261175 0.015437168 -0.26335973 -0.044721782 0.27717972 0.03677203 -0.36780196 0.29135245 0.113434635 0.02153356 -0.10319836 -0.17562516 -0.20917536 0.009074194 -0.058152106 -0.13182262 0.21584427 0.24326883 0.17495364 -0.32891548 -0.07974627 -0.021217208 -0.050761458 -0.087812796 -0.29265553 0.26857308 0.12806416 -0.057785004 -0.03233772 0.09623617
12-1 0.21288799 -0.24202433 -0.32410073 -0.027294759 0.035674836 -0.14500996 0.0394122 -0.25717774 -0.012428966 -0.18024911 -0.15278345 -0.07258564 0.020271348 -0.13158663 0.054624137 0.08139576 -0.10852401 -0.16145845 0.021442555 0.038977973 -0.03489711 0.11224447 0.05463356 -0.30846438 -0.019027893 -0.17484623 -0.07572802 0.18442991 0.08288247 0.08065841 -0.14164446 0.13110141 -0.108961344 -0.017670725 -0.040779132 -0.06018304 -0.05464487 0.19681044 -0.31929243 -0.05142109 0.23569414 -0.02237945 -0.0938436 -0.15849951 -0.1436306 -0.032314084 0.13851823 -0.2172817 0.11079666 -0.21648726 -0.099366285 -0.0019211553 0.12216803 -0.3095353 -0.081869885 0.250645 -0.040738933 -0.25050232 0.12305038 -0.09825466 0.03997537 -0.10775205 0.10275486 -0.022723751 0.07986228 -0.15510258 -0.13231671 -0.09868174 0.119187325 0.10281481 0.004322456 0.14776604 0.121245764 0.10470807 0.1557371 0.32143122 0.2586442 -0.047682837 0.23051168 -0.08622437 -0.20687112 -0.10244427 0.12902056 -0.13195229 0.05353728 -0.029258277 0.023259573 0.04821769 0.069899686 0.21995907 0.20909739 -0.0719316 -0.19601515 -0.086105034 -0.0452122 0.023558438 0.4010026 -0.118954144 0.10255489 0.038080793 -0.19217914 -0.025822835 0.19811931 -0.0026757699 -0.2721443 0.25714305 0.112590574 0.060692504 -0.1179474 -0.15790015 -0.1856571 -0.02190755 -0.04382152 -0.07909028 0.18579616 0.17982309 0.17839122 -0.2733622 -0.09244702 0.010450423 -0.115467995 -0.12924953 -0.1623472 0.16826387 0.15965152 -0.042844895 0.0016198562 0.059434596
3-4 0.14862485 -0.11002846 -0.20193182 -0.036386445 0.014287759 0.06507903 0.084498234 -0.111361615 0.09193504 0.008875717 -0.20971227 -0.09711576 0.01745608 -0.22682388 0.022570962 -0.18682687 -0.13826938 0.054432448 0.073627196 0.2285082 -0.06303865 0.16249104 0.17068234 -0.308416 0.064954504 -0.30196252 -0.030260181 0.28038093 0.093272194 0.13229914 -0.12834725 0.06664113 0.049185816 0.065560535 0.060275603 -0.094939984 -0.22607194 0.12956305 -0.313853 0.12005372 0.15273525 -0.070476644 -0.1285492 -0.020161718 -0.07332701 -0.11100695 0.18931468 -0.33776525 0.080364175 -0.24072328 0.15845455 -0.12524405 0.20560077 -0.12195225 -0.046710834 -0.012178731 -0.048268404 -0.129164 -0.016658846 -0.17042267 -0.018476477 -0.10553725 0.0242274 -0.0869192 0.21331145 0.027420847 0.063978925 -0.057453707 -0.027322294 -0.0597669 -0.033253513 0.068202995 0.0811099 0.048433505 0.098038726 0.19827533 -0.05504802 -0.1423465 0.29531 -0.08097772 -0.13098207 0.04768684 0.10889562 -0.042552497 0.20063083 -0.018241901 0.05733373 0.07523949 0.010321184 0.24702428 0.05071856 0.001430305 -0.09614198 -0.14043976 0.08589425 0.07116507 0.30210146 -0.027932128 0.30164328 0.06509938 -0.27564225 0.032205056 0.08799602 -0.0854992 -0.114227995 0.18268098 0.11066005 0.12716264 -0.06433289 -0.15490423 0.04010314 -0.17302048 0.03504301 -0.12465601 0.053129148 0.26246276 0.2294756 -0.31731337 -0.11270419 0.08009471 -0.17604277 -0.17985414 -0.06323436 0.076273866 0.26471668 0.031362537 0.03291295 -0.16685364
1-3 0.17469884 -0.19402473 -0.25004503 -0.010600095 0.033334408 -0.045092296 0.06982239 -0.20826374 0.038864248 -0.106716946 -0.15995592 -0.08391376 0.009755939 -0.15683843 0.056797605 -0.02827852 -0.11976266 -0.075804085 0.03918251 0.09371861 -0.051702853 0.12451258 0.10761174 -0.29584548 0.019371744 -0.21849267 -0.04937096 0.20286861 0.07319085 0.07341803 -0.12502457 0.09621247 -0.06152163 0.018307341 -0.001900497 -0.051812988 -0.10771404 0.14939289 -0.31131968 0.013232355 0.18661496 -0.02313158 -0.11640571 -0.1154297 -0.118577994 -0.07645705 0.1415235 -0.24333192 0.0945067 -0.2205623 0.014479492 -0.04821006 0.13923486 -0.20802435 -0.06513203 0.12758408 -0.057370637 -0.19149923 0.07313224 -0.12347534 0.021670181 -0.09806593 0.08537997 -0.06925748 0.13092281 -0.096214965 -0.049316198 -0.08262619 0.0661706 0.040256035 -0.0057347664 0.10893002 0.111716926 0.07504994 0.124301665 0.24241431 0.14685485 -0.08570349 0.25587678 -0.07216796 -0.15455975 -0.027799943 0.09524942 -0.07853926 0.13387872 -0.035014905 0.03267925 0.055516414 0.04666732 0.21449137 0.1514152 -0.05702697 -0.15221252 -0.112081245 -0.002234335 0.051694985 0.3475246 -0.073909305 0.1658113 0.047612574 -0.21748133 0.00831446 0.14865476 -0.034069244 -0.1985125 0.2225967 0.09366458 0.10042101 -0.08642739 -0.13082372 -0.09386348 -0.073868506 -0.017248435 -0.07742822 0.14231813 0.2091395 0.18544075 -0.27233753 -0.13163812 0.038962167 -0.11638265 -0.1440909 -0.13139676 0.12265764 0.17950952 -0.019512575 0.010528319 -0.003867274
10-1 0.13666491 -0.11001818 -0.18872066 -0.02716382 0.012091634 0.064067714 0.091382585 -0.10777897 0.09184541 0.0026895963 -0.21588452 -0.098508514 0.019870976 -0.20798387 0.02261026 -0.17501642 -0.14541815 0.055093348 0.07345344 0.21408425 -0.060044136 0.14519195 0.16967724 -0.2816777 0.069065444 -0.29880324 -0.03605326 0.2705713 0.09353759 0.12931083 -0.122894816 0.060506396 0.04929141 0.07364509 0.06125701 -0.076665275 -0.22470461 0.123484425 -0.30324015 0.116110384 0.13706544 -0.06708981 -0.118743636 -0.029370358 -0.07718696 -0.10961813 0.17993295 -0.32091215 0.08307668 -0.23561709 0.15124252 -0.11153265 0.19120961 -0.11574718 -0.047792193 -0.0132000465 -0.049156953 -0.12596966 -0.0063844034 -0.16272499 -0.015904069 -0.09747029 0.023861285 -0.089105025 0.22012623 0.030088665 0.07235324 -0.060722835 -0.028546503 -0.06846354 -0.031870693 0.07400785 0.07259866 0.04303811 0.07974213 0.1882077 -0.04618406 -0.12722723 0.29309282 -0.07466036 -0.12617694 0.057855252 0.0932481 -0.042693853 0.1959094 -0.027426409 0.05014348 0.07693765 0.006889282 0.23775046 0.062797524 -0.0010718936 -0.082829595 -0.13170908 0.07960549 0.066245645 0.2975725 -0.02204371 0.28529513 0.048718788 -0.26188433 0.023454376 0.08760834 -0.09108207 -0.11176843 0.1754232 0.09001882 0.13143076 -0.0636846 -0.13249637 0.03209713 -0.17407672 0.033625584 -0.11706539 0.058808655 0.25412652 0.22153276 -0.30190548 -0.11260465 0.077457294 -0.16733499 -0.17916729 -0.06648465 0.074539825 0.24950762 0.029726086 0.04094714 -0.15945862
3-2 0.16656546 -0.124167174 -0.21597737 -0.05759362 0.034669537 0.078982 0.08146203 -0.12660937 0.10935787 0.018876823 -0.22594847 -0.10022943 0.015175014 -0.27975318 0.022414483 -0.22443871 -0.15457751 0.065252975 0.07466002 0.26755184 -0.07297683 0.1899777 0.19051668 -0.37870058 0.07184015 -0.33384445 -0.020643443 0.30232912 0.09620915 0.14506692 -0.14565517 0.07031901 0.04642796 0.06405016 0.06254896 -0.12315519 -0.24600968 0.134065 -0.35377616 0.13413677 0.1895571 -0.079124495 -0.15213667 -0.0025175167 -0.076992415 -0.12692846 0.2107711 -0.37167028 0.08293517 -0.27726132 0.19512223 -0.15233074 0.23261252 -0.14122339 -0.048343435 -0.018792715 -0.052421644 -0.15066312 -0.027735816 -0.18996993 -0.025744533 -0.117170386 0.034998823 -0.09964493 0.21923468 0.035968866 0.06871937 -0.05791981 -0.025266996 -0.057962846 -0.029540662 0.064488746 0.1023033 0.05948859 0.13701083 0.23177901 -0.07383806 -0.18385884 0.3261388 -0.08705385 -0.13863923 0.044503808 0.13853483 -0.038893506 0.22689328 -0.013772794 0.060103267 0.08313401 0.0060234293 0.27721107 0.03272723 0.008130811 -0.11811631 -0.1763505 0.09692114 0.08956753 0.3402983 -0.035235547 0.34736377 0.09204549 -0.32252905 0.052266154 0.10472834 -0.08741046 -0.12740587 0.20894226 0.14815941 0.12964919 -0.07539062 -0.19822091 0.06392489 -0.18150575 0.044793688 -0.14354907 0.03995481 0.290633 0.25132546 -0.35348487 -0.12485069 0.08858967 -0.199386 -0.19753973 -0.068049446 0.07479422 0.30224168 0.039240833 0.02346004 -0.18660627
32-3 0.1606493 -0.17694621 -0.22220178 -0.015922876 0.03706709 -0.02998527 0.071895465 -0.19950701 0.05122937 -0.096248604 -0.15655151 -0.082315885 0.008389794 -0.16737932 0.057809908 -0.051253244 -0.12526093 -0.05889239 0.03695125 0.09657457 -0.05738418 0.11987995 0.11620153 -0.2964118 0.029801773 -0.22405787 -0.04271494 0.19185868 0.06502574 0.06740681 -0.111174814 0.08582488 -0.055119473 0.02874877 0.007238362 -0.05067044 -0.11930642 0.13725519 -0.29676145 0.020198502 0.1685834 -0.019868905 -0.12075863 -0.10669806 -0.117485814 -0.08558343 0.14423868 -0.23373692 0.09470401 -0.21983731 0.038130745 -0.04870842 0.13902384 -0.17770304 -0.054157034 0.10339551 -0.053832136 -0.17135818 0.06246382 -0.11931638 0.021664025 -0.08960017 0.07561048 -0.07982588 0.1296231 -0.083154954 -0.02895229 -0.07197312 0.060192686 0.035084642 -0.0018638829 0.10463426 0.10714575 0.060996883 0.12118284 0.2159245 0.12551352 -0.092817895 0.25391692 -0.07142715 -0.14352164 -0.009448026 0.08682779 -0.06591504 0.14737757 -0.03880822 0.02731592 0.053730477 0.03942818 0.2073877 0.14244942 -0.0632197 -0.14377736 -0.12015323 -0.0031739017 0.05556604 0.33002204 -0.065239415 0.17409852 0.05075993 -0.21329023 0.019858873 0.13488947 -0.03874134 -0.1833691 0.21604 0.08297298 0.104678296 -0.08202903 -0.11976812 -0.06701569 -0.07721695 -0.016312681 -0.07176636 0.1330737 0.21112579 0.18603925 -0.26332024 -0.14100413 0.044265356 -0.109462924 -0.14423111 -0.12066295 0.11031177 0.17918561 -0.0134861525 0.0049945945 -0.010291325
11-1 0.22587366 -0.2850692 -0.3051575 -0.04382667 0.020245388 -0.14152363 0.043010987 -0.25261927 0.007999016 -0.16737877 -0.1022145 -0.05617174 0.004879396 -0.12557171 0.04148925 0.054729193 -0.0900249 -0.13311386 -0.028468234 0.044117015 -0.040640175 0.114680156 0.047843784 -0.26501125 -0.028592592 -0.18589933 -0.048126224 0.21680558 0.06382224 0.07330775 -0.15418577 0.11455407 -0.14166515 -0.044041526 -0.0057556066 -0.040978603 -0.03398466 0.16557395 -0.31049144 -0.0512828 0.27101314 0.018321428 -0.1431169 -0.17742363 -0.15957876 -0.056676306 0.110973254 -0.18799816 0.09073173 -0.22717759 -0.07526965 -0.0335338 0.1554612 -0.3008072 -0.10682544 0.24312967 -0.014470799 -0.28220493 0.09742051 -0.14880955 0.004415401 -0.13543062 0.15330398 -0.06320354 0.09452482 -0.1874433 -0.15626264 -0.10827912 0.12858108 0.08137836 0.025017088 0.12382297 0.12852617 0.11153783 0.12412671 0.35155985 0.23483004 -0.039602164 0.22761104 -0.027635137 -0.1853743 -0.068623595 0.09595528 -0.12009554 0.05363928 -0.04230384 0.03683687 0.03006833 0.06478306 0.19211537 0.20897183 -0.061330568 -0.16148143 -0.116272144 -0.013550328 0.00866357 0.37731254 -0.09137775 0.0972052 0.021238986 -0.2362832 -0.029247886 0.2282707 0.018695414 -0.30055648 0.25462523 0.10144525 0.039189234 -0.09006122 -0.14851521 -0.16205463 -0.016684817 -0.04795763 -0.11041757 0.17429762 0.22605625 0.16605863 -0.29129127 -0.08824949 -0.0018508753 -0.060171936 -0.093641885 -0.23483843 0.21670552 0.12881155 -0.037323155 -0.023133319 0.06186694
4-1 0.163871 -0.1532103 -0.25671378 -0.015955938 0.0337714 -0.004235424 0.07731139 -0.19028616 0.027063929 -0.0697851 -0.15927865 -0.08177042 0.012883954 -0.16223344 0.045803618 -0.056139033 -0.10467905 -0.04649074 0.057298716 0.13610116 -0.054182954 0.15252629 0.11710824 -0.28812206 0.02923002 -0.22205842 -0.030071005 0.23127614 0.068552315 0.08432458 -0.12533662 0.099475734 -0.025372487 0.017181046 0.00091442687 -0.07488028 -0.13700986 0.14692794 -0.3268607 0.055171102 0.1743107 -0.031750765 -0.111321315 -0.07655175 -0.088419355 -0.0783398 0.15031287 -0.2892884 0.07339583 -0.22590314 0.045160707 -0.08617071 0.17092228 -0.1987065 -0.06659993 0.078333065 -0.07239872 -0.17429978 0.04262994 -0.14242609 -0.01694362 -0.105648056 0.06293154 -0.07198731 0.18169163 -0.07565343 -0.025261166 -0.08664565 0.039076623 0.02237756 -0.023688082 0.100714624 0.097039 0.06110679 0.12182278 0.23091051 0.08745987 -0.0833933 0.27609077 -0.07362288 -0.14093946 -0.016527437 0.09901555 -0.06340292 0.15553753 -0.013721377 0.058766842 0.060472194 0.06109771 0.22262639 0.12363997 -0.03400078 -0.15341708 -0.12450217 0.037452642 0.06283595 0.33020455 -0.058758646 0.20411536 0.048840962 -0.24322477 0.033706978 0.12437867 -0.04043692 -0.15816036 0.22732496 0.12189027 0.124673836 -0.0550269 -0.15893249 -0.068883486 -0.12403101 -0.017205097 -0.08658116 0.11697592 0.22550748 0.20908234 -0.2912483 -0.12954777 0.045098998 -0.14510588 -0.15070921 -0.11096689 0.096289 0.21017396 0.0043001715 0.03321806 -0.060387354
5-1 0.23341027 -0.2884865 -0.31655455 -0.047344495 0.02229122 -0.1382807 0.043373212 -0.2556525 0.011498133 -0.16943228 -0.11247801 -0.058596246 0.00043831381 -0.12784818 0.041545276 0.048283964 -0.100255705 -0.13288459 -0.025768002 0.04433435 -0.04523679 0.11674846 0.050805222 -0.28464895 -0.02734551 -0.19726813 -0.05028097 0.22002415 0.065096706 0.080124594 -0.1620081 0.11577381 -0.14100242 -0.039512463 -0.009735789 -0.05131481 -0.037164908 0.16541198 -0.3170872 -0.04650314 0.27317718 0.013687778 -0.14292097 -0.17910887 -0.16372284 -0.06453378 0.122316316 -0.19785868 0.10053622 -0.23010688 -0.07762118 -0.040923152 0.15628141 -0.3089357 -0.10499479 0.24327831 -0.01590599 -0.2886151 0.09832614 -0.14439681 0.014110216 -0.13585393 0.15572761 -0.05710043 0.09645409 -0.18851478 -0.15277666 -0.108931646 0.13207142 0.08203069 0.023587681 0.12774795 0.13408305 0.117980435 0.13356169 0.35970944 0.23647283 -0.046142384 0.22824524 -0.03252157 -0.18533668 -0.075148776 0.0952266 -0.12636834 0.05670702 -0.047557507 0.03647703 0.034600597 0.061170314 0.20145707 0.2112238 -0.06605779 -0.16457269 -0.11539318 -0.012232506 0.012740068 0.38666376 -0.09590708 0.09751111 0.024401274 -0.24249518 -0.03181368 0.2274605 0.013506611 -0.30541286 0.25511903 0.10599136 0.040243957 -0.09410306 -0.15178384 -0.16327527 -0.017351389 -0.045743365 -0.1137763 0.1810337 0.22951756 0.17000468 -0.29994085 -0.086898774 -0.0032667122 -0.07047665 -0.09998798 -0.23411632 0.2187912 0.13741706 -0.045501884 -0.02278162 0.055807423
3-3 0.18401717 -0.15022404 -0.20286909 -0.051857304 0.054288995 0.081072986 0.090737194 -0.14793083 0.12660009 0.0048733857 -0.22538735 -0.108535826 0.032805193 -0.28885734 0.04002862 -0.2354242 -0.16487364 0.041980807 0.06679626 0.25695798 -0.070000835 0.16988222 0.18249159 -0.39542857 0.06617512 -0.3210677 -0.015528803 0.2950648 0.06802427 0.11392602 -0.15295686 0.053273614 0.034056306 0.06027671 0.049304247 -0.12714685 -0.24082537 0.13140757 -0.35219973 0.119752824 0.18974453 -0.06375222 -0.1794006 -0.009268978 -0.0890768 -0.11566885 0.19333118 -0.36084008 0.08891531 -0.2731208 0.21028438 -0.14725992 0.23037961 -0.13732356 -0.0625961 -0.015450139 -0.0587912 -0.12984174 -0.033720307 -0.17768832 -0.029666888 -0.123419575 0.04884316 -0.09211016 0.18654464 0.02276252 0.059327483 -0.048063237 -0.026837349 -0.038914714 -0.02582959 0.06077533 0.11981987 0.044564225 0.15778808 0.22300905 -0.07846383 -0.1978184 0.31048933 -0.07344738 -0.13738354 0.057477467 0.11735342 -0.020604348 0.25428563 -0.02796569 0.041562725 0.09033507 0.016569111 0.27641138 0.045991227 0.0012767429 -0.11802189 -0.19049397 0.07392608 0.09135721 0.30977687 -0.016501255 0.34357 0.10875261 -0.31089172 0.05141645 0.105806775 -0.108651325 -0.13621151 0.21199505 0.14156319 0.115649305 -0.07218901 -0.19410503 0.06292626 -0.17048734 0.056650728 -0.124255545 0.04443203 0.2718752 0.26643488 -0.35135463 -0.13547018 0.11249869 -0.18526056 -0.17239021 -0.061787732 0.089857966 0.2904393 0.054880567 -0.002613957 -0.14957769
29-1 0.15658918 -0.13538846 -0.2073498 -0.045382172 0.043618884 0.07464913 0.08924084 -0.13930087 0.1052021 -0.00028748452 -0.23360951 -0.105807245 0.014948623 -0.26462916 0.027841654 -0.20251574 -0.16282035 0.057468757 0.07139206 0.25329044 -0.07084088 0.17558374 0.19063337 -0.36286628 0.07945989 -0.33212322 -0.027076013 0.28668663 0.09503911 0.13880552 -0.14195134 0.067333795 0.03432674 0.07138542 0.059555005 -0.10426561 -0.23990677 0.13059336 -0.36181858 0.1274354 0.18641604 -0.07527352 -0.14213328 -0.01514842 -0.08407758 -0.13004121 0.20265536 -0.35665947 0.08619139 -0.27929756 0.18057348 -0.13795835 0.21250218 -0.14735928 -0.047547396 -0.011978472 -0.059609186 -0.16194826 -0.0064445045 -0.18505484 -0.022531139 -0.10636934 0.047839455 -0.106075704 0.23021403 0.025248135 0.071126305 -0.06769102 -0.011903842 -0.05849151 -0.025711546 0.07606491 0.097714834 0.062016457 0.13058943 0.23278204 -0.04122693 -0.1687127 0.33391002 -0.08016953 -0.13253146 0.04365545 0.13227071 -0.038856108 0.2248363 -0.021574046 0.056368906 0.089189865 0.0039529107 0.27298096 0.05351078 -0.0020704945 -0.118583605 -0.17888147 0.090968005 0.090308554 0.35885757 -0.039770197 0.33016303 0.074653365 -0.31655896 0.049931616 0.11577661 -0.08777765 -0.13611129 0.22021653 0.13491172 0.14248769 -0.08141144 -0.18460724 0.04207775 -0.18153411 0.038244713 -0.13605921 0.057361607 0.29295126 0.24985275 -0.34776658 -0.13877842 0.07858731 -0.19706649 -0.20536011 -0.08539557 0.07007022 0.2912547 0.034457244 0.035496112 -0.17539953
2-1 0.16675276 -0.13193993 -0.23119469 -0.0016109535 0.055917483 0.050674997 0.11649349 -0.19683896 0.03424736 -0.030539872 -0.15678473 -0.09638032 -0.010626577 -0.20172133 0.05824319 -0.13363886 -0.10571165 -0.025492756 0.04595749 0.17325863 -0.049249057 0.17718719 0.15192497 -0.29636738 0.056692805 -0.2732319 -0.056437686 0.25402865 0.06379894 0.066522285 -0.14276256 0.09047753 -0.024537053 0.03803792 0.025733951 -0.07685148 -0.1802547 0.15697673 -0.38240463 0.09384201 0.17176427 -0.061854318 -0.12421184 -0.061147522 -0.09491169 -0.112066284 0.18259531 -0.32734993 0.07541603 -0.25546262 0.09378605 -0.13046762 0.20445512 -0.17087556 -0.05448979 0.039442107 -0.09730746 -0.14654805 0.040596504 -0.1723825 -0.045511197 -0.10298413 0.07634281 -0.10118211 0.24838887 -0.08495692 0.009281215 -0.099475026 0.045292184 0.026776116 -0.0457676 0.107761316 0.08240422 0.063460484 0.15649179 0.2101934 0.06889139 -0.092564344 0.33459058 -0.065923095 -0.11652927 -0.0065359175 0.11539056 -0.004521619 0.22663215 -0.0048386483 0.10007955 0.079422705 0.06074184 0.27574432 0.13605754 -0.04204054 -0.18370283 -0.15934576 0.07251575 0.10292722 0.34877446 -0.07123479 0.26076308 0.052061003 -0.27501163 0.08494152 0.11264805 -0.04968591 -0.1405716 0.23750877 0.13013993 0.1750797 -0.04102288 -0.16535987 -0.026721958 -0.18153377 -0.0027535183 -0.07728039 0.14810449 0.29723775 0.24966161 -0.35172543 -0.18832673 0.052185643 -0.1842777 -0.15412436 -0.124722496 0.0580425 0.25048733 0.03477197 0.071626484 -0.0954073
32-2 0.11093179 -0.15594697 -0.12334237 -0.017095735 0.06565679 0.05717985 0.098724365 -0.15802333 0.10213358 -0.03155971 -0.19041985 -0.109285995 0.023425912 -0.22379692 0.05923891 -0.17243934 -0.16781618 0.01534134 0.059160043 0.14821373 -0.081842154 0.10786537 0.17672223 -0.3154841 0.09115032 -0.28775316 -0.021389617 0.19658983 0.039643068 0.052320994 -0.079972744 0.039295457 -0.022892768 0.067970835 0.04551555 -0.036169734 -0.19913861 0.090875566 -0.30919743 0.074834585 0.124673985 -0.03971647 -0.13335422 -0.05965042 -0.12391496 -0.13988397 0.16299306 -0.25228003 0.10616301 -0.23822145 0.16263732 -0.08012132 0.1383149 -0.07691723 -0.033556763 -0.007083941 -0.06031007 -0.11834838 0.026989974 -0.1433678 0.005900062 -0.06697287 0.05846607 -0.13761345 0.17995694 -0.020275144 0.06152564 -0.049420662 0.023898063 -0.0154673075 -0.0036834474 0.09272543 0.09034114 0.02568285 0.1126965 0.13861805 0.017534774 -0.12997137 0.29977053 -0.05390082 -0.079372436 0.06403695 0.059287168 0.017192507 0.23924555 -0.044135988 0.02037647 0.08789324 0.0044216583 0.20724046 0.107217565 -0.07522117 -0.13225062 -0.15990922 0.009461445 0.09465251 0.29776165 -0.027431801 0.23823306 0.050705045 -0.23346387 0.07394201 0.08756128 -0.08716346 -0.12622721 0.19592449 0.04471767 0.14914066 -0.07995534 -0.097042724 0.031351596 -0.13118228 0.014585509 -0.070549846 0.11329499 0.24449298 0.2215328 -0.27101514 -0.19832696 0.079598784 -0.11005389 -0.17519794 -0.08992372 0.039869536 0.21310048 0.023887808 0.020130202 -0.08657332
31-2 0.14945029 -0.10998231 -0.20488794 -0.0060948073 0.053019878 0.062577285 0.111514986 -0.16870852 0.03719519 -0.018048974 -0.14573744 -0.09379895 -0.015113504 -0.19448966 0.043265145 -0.13079223 -0.09789752 -0.018832918 0.044705853 0.16908254 -0.053238805 0.1701331 0.14134856 -0.27072307 0.063803405 -0.25354776 -0.05185753 0.23765449 0.058528952 0.05983989 -0.12256783 0.08292565 -0.013952257 0.042420886 0.034515496 -0.069150634 -0.17109638 0.14025502 -0.35147288 0.10027299 0.15540248 -0.065540746 -0.11093553 -0.049711373 -0.08355515 -0.103254735 0.17166297 -0.31700027 0.06385336 -0.23503046 0.096690655 -0.13071264 0.19125824 -0.14323905 -0.04043763 0.02812568 -0.09213368 -0.12487565 0.033588227 -0.1690478 -0.051423255 -0.08318336 0.067773305 -0.09663886 0.2340249 -0.07207483 0.018161872 -0.085820206 0.032635733 0.021679621 -0.04868262 0.09276604 0.07455273 0.054014493 0.15119284 0.18135531 0.044251237 -0.083956115 0.30911672 -0.0678432 -0.10201099 -0.0080411695 0.11234632 0.0075431284 0.2151615 -0.005752136 0.09764981 0.07937736 0.05111903 0.259873 0.12233369 -0.033116587 -0.1761296 -0.153462 0.079403184 0.09727547 0.31184402 -0.064494 0.25941867 0.054849092 -0.24912806 0.08818883 0.0994198 -0.04470298 -0.12260391 0.22293796 0.12936535 0.173371 -0.03314987 -0.15970379 -0.01360742 -0.1803796 -0.0052076634 -0.07379043 0.13676815 0.28121343 0.24266647 -0.33321056 -0.18857597 0.053429548 -0.17366163 -0.14816302 -0.11160374 0.03756527 0.23659147 0.031865347 0.07414199 -0.09920304
25-1 0.10875274 -0.17121063 -0.1014513 -0.020456951 0.07819494 0.06564663 0.09409385 -0.15878545 0.10584015 -0.029672572 -0.19028221 -0.108614884 0.029474137 -0.23666061 0.051796537 -0.18973571 -0.1791009 0.013195129 0.057967484 0.1446567 -0.07755131 0.09964934 0.18063025 -0.3258836 0.089696266 -0.29042327 -0.01434323 0.19092017 0.023321044 0.039954048 -0.074684344 0.033234376 -0.035508838 0.060367636 0.03948291 -0.031435072 -0.19803303 0.07658409 -0.31366777 0.06579637 0.12275328 -0.04343853 -0.13980201 -0.05198786 -0.13525604 -0.14577638 0.15661208 -0.2411648 0.1118258 -0.24032836 0.17960683 -0.07522531 0.13658938 -0.06595178 -0.034704432 -0.0156797 -0.05995701 -0.119647294 0.017894402 -0.13540266 0.0010029724 -0.06545564 0.06785371 -0.146193 0.17016713 -0.010762978 0.06154955 -0.040481403 0.025598666 -0.013465495 0.0043616337 0.08627244 0.09774847 0.017892584 0.120334655 0.13215177 0.0019222018 -0.14117253 0.30099317 -0.040125232 -0.061934628 0.07563758 0.050216183 0.03779007 0.25077516 -0.042917423 0.010104486 0.09829171 0.0009958491 0.19856086 0.10633617 -0.077904634 -0.13680139 -0.16514029 -0.0067089293 0.10496709 0.2870198 -0.014482626 0.23169246 0.050552975 -0.23757017 0.08393121 0.09180794 -0.09515889 -0.12530017 0.18894054 0.037624538 0.14141299 -0.07683776 -0.092712246 0.04607657 -0.1313696 0.01758809 -0.073013134 0.11407181 0.24265094 0.22646666 -0.26894534 -0.20764902 0.09088804 -0.098157376 -0.17300119 -0.0896411 0.02809505 0.2091865 0.035703413 0.017006427 -0.08256024
26-1 0.101747945 -0.17741293 -0.111047015 -0.024682349 0.07631704 0.05454417 0.097713284 -0.15721266 0.11120317 -0.02665317 -0.19825515 -0.11426862 0.036065664 -0.23551695 0.060474265 -0.18385752 -0.17803137 0.015375359 0.065193795 0.14171554 -0.09369108 0.099122055 0.18250448 -0.33420804 0.09978469 -0.29714924 -0.0121394545 0.1942022 0.03401642 0.042614665 -0.0723812 0.03048382 -0.03824567 0.062811546 0.043645345 -0.026367646 -0.20536686 0.08050886 -0.31424186 0.07079619 0.13542776 -0.037882257 -0.13682863 -0.064813234 -0.13962668 -0.1526742 0.16500466 -0.24744627 0.11529198 -0.24499926 0.1744145 -0.07929137 0.12797433 -0.07076485 -0.03872126 -0.009304119 -0.05727996 -0.12227094 0.030473527 -0.15226778 0.006248878 -0.060727604 0.06496071 -0.15273556 0.18078542 -0.022089763 0.06141313 -0.05445099 0.030583011 -0.015731342 0.0015098063 0.09895872 0.09244061 0.026933713 0.11362224 0.14284112 0.011001393 -0.13393334 0.31051958 -0.044238374 -0.0672438 0.06600708 0.05251091 0.03541004 0.25037608 -0.048452478 0.011626089 0.09654318 -0.0014171352 0.20073597 0.10797013 -0.08594522 -0.14334416 -0.16425133 -0.005533593 0.10342484 0.30645907 -0.022908544 0.23855647 0.04965888 -0.23879637 0.08423068 0.08615951 -0.09153179 -0.1331963 0.20084412 0.0336583 0.15246685 -0.09240323 -0.10189227 0.038487215 -0.12464057 0.019818144 -0.072234266 0.12314491 0.24445912 0.22587804 -0.27473173 -0.21239139 0.082281925 -0.096722394 -0.1810304 -0.10008941 0.03314658 0.22118174 0.021425625 0.015220453 -0.09084059
24-2 0.065357864 -0.19617999 -0.082080655 -0.037651896 0.10195923 0.109945916 0.124803916 -0.11973349 0.15861686 0.034548245 -0.2562832 -0.13761963 0.06877943 -0.2628735 0.08032459 -0.26302874 -0.2241416 0.073650666 0.0857769 0.20244285 -0.13683604 0.07863334 0.22475474 -0.35589543 0.16368122 -0.35691267 0.0032141006 0.20296554 0.02853011 0.059536267 -0.07175362 -0.018199362 -0.0046413536 0.082719505 0.07585781 -0.019178757 -0.27956975 0.061712313 -0.34308746 0.14129068 0.14133975 -0.058920644 -0.1383217 -0.012681849 -0.13952364 -0.19413136 0.19217823 -0.28430143 0.124441855 -0.25531176 0.2718643 -0.12679549 0.095608644 -0.041194037 -0.03673366 -0.071763545 -0.053000335 -0.10561537 0.038817942 -0.2184843 -0.01063611 -0.06105553 0.049224634 -0.19598942 0.23218954 0.01231764 0.12899166 -0.05337304 -0.002203971 -0.07655685 -0.0017324971 0.12245634 0.06454824 0.01646848 0.117027596 0.10827815 -0.06787113 -0.1381867 0.36325595 -0.0246862 -0.02785846 0.099471204 0.06736347 0.094950244 0.3132682 -0.05944615 0.00015756395 0.13780662 -0.05173263 0.23479602 0.07752992 -0.078576334 -0.16447407 -0.21270658 0.031488247 0.107637614 0.31639364 -0.020716012 0.29988736 0.0434557 -0.2659303 0.11367343 0.052848827 -0.1326174 -0.12172153 0.19137971 0.02062537 0.18295397 -0.13451761 -0.11228002 0.09458679 -0.15804082 0.06146061 -0.10010683 0.09831803 0.27307227 0.26463804 -0.28885844 -0.23611403 0.119141266 -0.12036801 -0.2304438 -0.10808601 -0.0048170635 0.28569853 0.032931615 0.041429676 -0.18477768
32-1 0.12719752 -0.13762258 -0.16350912 0.0022757768 0.0551557 0.07342874 0.11069817 -0.15705052 0.09080168 -0.02916378 -0.20860909 -0.124131985 0.012744656 -0.21441615 0.060833182 -0.15960112 -0.15455098 0.030492004 0.070981614 0.19687407 -0.07214499 0.13018943 0.17613053 -0.29518253 0.09872035 -0.29328406 -0.032790463 0.23281671 0.060159937 0.08974452 -0.107891634 0.05132745 0.021047097 0.081659995 0.06304928 -0.061619174 -0.2119513 0.11534392 -0.3371704 0.1093561 0.13021965 -0.049439978 -0.124499686 -0.04462606 -0.08877401 -0.12361353 0.1693346 -0.3041865 0.090005845 -0.24723609 0.15745927 -0.10848242 0.15783074 -0.10856134 -0.038136754 -0.01080114 -0.07583843 -0.12918971 0.028520077 -0.1660645 -0.0044425093 -0.08324491 0.0534424 -0.11499814 0.22133763 -0.016011627 0.07326158 -0.057614993 0.0012411769 -0.03350191 -0.02780901 0.09041672 0.08267553 0.044144362 0.11226991 0.16121174 0.02177486 -0.12521252 0.31418338 -0.0725918 -0.10247388 0.052818708 0.08766155 -0.013777772 0.23907152 -0.030407034 0.050377294 0.09325353 0.010549715 0.23991935 0.09977096 -0.047972094 -0.12647 -0.17180453 0.06702146 0.08772296 0.32507342 -0.04272265 0.27599967 0.055445373 -0.25487438 0.05857394 0.09673785 -0.091632016 -0.12337221 0.21545944 0.07775023 0.17147756 -0.076497324 -0.11952036 0.005833545 -0.16714345 0.02059774 -0.07853688 0.09867427 0.26686105 0.23528564 -0.29514655 -0.18678501 0.07245159 -0.16026017 -0.1870834 -0.08350197 0.04900186 0.23022573 0.026274916 0.04470899 -0.11919193
14-1 0.15768494 -0.14894304 -0.22596805 -0.0045898748 0.037623886 0.009021644 0.08566074 -0.1734219 0.032443542 -0.062083773 -0.15848596 -0.092587896 0.0056969337 -0.15907928 0.049625482 -0.062094074 -0.10869696 -0.030483097 0.054114725 0.14029393 -0.053763114 0.13661931 0.1198185 -0.258412 0.04189593 -0.22452298 -0.033051234 0.2221916 0.064984314 0.08393315 -0.12414782 0.08799081 -0.016878102 0.030634573 0.021507747 -0.060925975 -0.13773875 0.13685463 -0.31398436 0.06551336 0.15931283 -0.03147904 -0.10577315 -0.06878114 -0.08586817 -0.08311507 0.14016615 -0.27551657 0.06741271 -0.21459505 0.061616346 -0.08529918 0.15789457 -0.17830056 -0.061550062 0.066609584 -0.06347675 -0.16343617 0.044032313 -0.14355078 -0.00957496 -0.10314698 0.06979646 -0.07578407 0.18596639 -0.06583462 -0.0117292395 -0.074141674 0.040155526 0.017023124 -0.021971261 0.09515033 0.0844359 0.06274198 0.112914845 0.21022016 0.08865092 -0.07959447 0.26595485 -0.07088497 -0.12816978 -0.0041039875 0.08904717 -0.052290693 0.16144508 -0.011113118 0.06011046 0.066553734 0.052080788 0.21777923 0.11812604 -0.03196361 -0.14486967 -0.12538412 0.04931214 0.06547564 0.32200855 -0.06027019 0.20521902 0.041417148 -0.23765077 0.035936788 0.12192294 -0.047767993 -0.14955688 0.2117276 0.104875386 0.12340377 -0.055850286 -0.1343788 -0.061116718 -0.12457289 -0.012105119 -0.08246953 0.11078375 0.22955008 0.19729908 -0.28120545 -0.13160443 0.04291896 -0.13707155 -0.14421816 -0.10417965 0.08558581 0.19784313 0.0023679389 0.034848224 -0.06242899
28-3 0.1397515 -0.16846372 -0.118028425 -0.015829742 0.089220926 0.0877514 0.106409706 -0.16652061 0.11605917 -0.02826717 -0.2104334 -0.114719294 0.038909033 -0.24786308 0.053131722 -0.20317325 -0.1853211 0.013729037 0.053999502 0.18530746 -0.05739305 0.10760122 0.1771017 -0.33667415 0.0797379 -0.28580016 -0.01754292 0.21959569 0.02173329 0.0483993 -0.11336102 0.027445603 -0.009027999 0.06721156 0.029432511 -0.062916264 -0.20999666 0.08820481 -0.3342553 0.081622705 0.13737445 -0.046431452 -0.15800782 -0.029651819 -0.115671135 -0.11932262 0.14418562 -0.2737994 0.09629122 -0.2470689 0.1976868 -0.09700074 0.16377506 -0.09433775 -0.05406707 -0.024063272 -0.075547785 -0.11049273 -0.002978582 -0.13151717 -0.025344288 -0.08427338 0.07603234 -0.1156537 0.16937011 0.0042752544 0.06626268 -0.040081237 0.0007999485 -0.022048635 -0.008207479 0.06787593 0.109623425 0.017013505 0.14202787 0.15798874 -0.028985618 -0.16415282 0.29439327 -0.035453364 -0.080762506 0.08136313 0.05658327 0.028809823 0.26627403 -0.04477743 0.012906946 0.10483989 0.015922582 0.22468036 0.09203939 -0.037597686 -0.11327566 -0.18506645 0.018553358 0.10446069 0.27183917 0.001467754 0.26244694 0.06844997 -0.25325936 0.06798036 0.104055926 -0.11840226 -0.12067378 0.19504742 0.076976225 0.12805635 -0.058666192 -0.11963987 0.04354479 -0.1546262 0.040810436 -0.07779143 0.08396643 0.24000582 0.24900529 -0.2928412 -0.1843387 0.109493434 -0.1375492 -0.15841837 -0.072790176 0.048275076 0.22318548 0.063683935 0.012076151 -0.08680178
28-1 0.17838381 -0.16356052 -0.18830751 -0.033268932 0.07118418 0.08700349 0.10943112 -0.16861427 0.12742497 -0.014256861 -0.23621973 -0.11985409 0.03735574 -0.2775735 0.054075584 -0.22276607 -0.17895734 0.029564895 0.064175054 0.24114688 -0.06666247 0.15176573 0.18590628 -0.38172624 0.07626412 -0.3185722 -0.022622071 0.28025246 0.057470497 0.094388306 -0.15141469 0.044677436 0.02247078 0.07155231 0.04297676 -0.10766105 -0.24025334 0.12692024 -0.36437666 0.113847986 0.1790886 -0.05670577 -0.1762397 -0.022002803 -0.09983961 -0.11684103 0.18068747 -0.34718943 0.092682034 -0.27569377 0.20652859 -0.13580596 0.21304445 -0.13683003 -0.06620258 -0.01565712 -0.07377492 -0.12758406 -0.014963693 -0.16936222 -0.031094529 -0.11390103 0.06398301 -0.100355975 0.19392793 0.0096748425 0.0648818 -0.054283213 -0.016887512 -0.03434555 -0.024336785 0.07000418 0.11636883 0.037876982 0.15518089 0.21056998 -0.051180497 -0.18411644 0.31556603 -0.06150321 -0.12639073 0.06502324 0.09826561 -0.008495349 0.2683906 -0.03966126 0.035239004 0.09932227 0.021003982 0.2731779 0.071752645 -0.010800925 -0.11647288 -0.19675659 0.062337622 0.09685123 0.3134569 -0.013600967 0.32713637 0.09432005 -0.29891336 0.053744882 0.11078136 -0.11842355 -0.13701385 0.22071388 0.12520538 0.13146093 -0.069864854 -0.17380176 0.04443648 -0.17513604 0.053655285 -0.10579329 0.06353505 0.27060467 0.2714777 -0.34470066 -0.1584295 0.111425295 -0.18298168 -0.17251714 -0.07215148 0.08355458 0.27602783 0.05937564 0.0071824403 -0.12892035
24-1 0.11649367 -0.15494578 -0.1489027 -0.004290524 0.0642123 0.080717765 0.11214112 -0.14358932 0.10231636 -0.015347847 -0.22043101 -0.1272076 0.027824828 -0.21627675 0.062483497 -0.17643943 -0.16881846 0.039622843 0.07204387 0.20461985 -0.08156981 0.11560121 0.18246685 -0.29872912 0.110341154 -0.30426922 -0.026370991 0.23049939 0.0532832 0.0888345 -0.10748753 0.03399938 0.019824293 0.07886879 0.06546883 -0.05356458 -0.22415005 0.104595676 -0.34048083 0.11946606 0.13644816 -0.054393735 -0.124784924 -0.031806257 -0.09564137 -0.13375221 0.16929178 -0.30113277 0.09493472 -0.24469864 0.18054774 -0.11546365 0.14260295 -0.10390425 -0.042006303 -0.021089023 -0.069301784 -0.12990132 0.030810824 -0.18080464 -0.009865255 -0.084132515 0.05642112 -0.12582019 0.22440794 -0.008309736 0.08233378 -0.05689625 -0.0023359666 -0.048853256 -0.02306171 0.09628813 0.0760777 0.041397803 0.11216654 0.15554456 3.4556142e-05 -0.12406143 0.32113987 -0.0571442 -0.08576684 0.06062244 0.08646119 0.0077731023 0.24939449 -0.03490041 0.04083416 0.107075624 -0.004651227 0.24076162 0.09315582 -0.046136778 -0.13138159 -0.18053597 0.06706354 0.08668074 0.320283 -0.03776339 0.27829185 0.047770504 -0.25769228 0.062891565 0.09090735 -0.103661515 -0.12633646 0.20622006 0.06829471 0.16717736 -0.09002675 -0.11939374 0.018528104 -0.16704908 0.033198245 -0.08943254 0.09321112 0.2645781 0.24059893 -0.2925634 -0.18508284 0.0830611 -0.15536276 -0.19385514 -0.09016439 0.04024066 0.23972955 0.030001264 0.04758074 -0.13902915
26-2 0.09078409 -0.1889503 -0.11728801 -0.030316103 0.084097855 0.08363973 0.117307976 -0.13735667 0.13390128 0.008471429 -0.24196775 -0.13522033 0.05588283 -0.25229526 0.07061158 -0.22526115 -0.19997601 0.051337957 0.0838514 0.19299223 -0.119287014 0.100161 0.20919923 -0.35074922 0.1371801 -0.3413016 -0.0071149934 0.22226596 0.04419548 0.06655553 -0.082870364 0.011316996 -0.0093518505 0.07727877 0.06655411 -0.030326406 -0.25665355 0.08291595 -0.34691307 0.12082148 0.15166432 -0.054150034 -0.13629423 -0.03779073 -0.13443469 -0.17531756 0.18857217 -0.2950933 0.1192404 -0.26109725 0.22427617 -0.11646257 0.122421116 -0.071142636 -0.04397002 -0.039929833 -0.05814695 -0.12401734 0.03540198 -0.20454046 -0.0065038847 -0.068061724 0.056580722 -0.17244384 0.2311193 -0.0045968625 0.09853575 -0.06387108 0.009554932 -0.055963565 -0.009348068 0.11572387 0.0765675 0.03280221 0.113503344 0.14588985 -0.031585064 -0.13697022 0.3542083 -0.041483477 -0.059233364 0.07755938 0.0713889 0.055875182 0.28697294 -0.050900277 0.018165547 0.12273783 -0.02358143 0.23433496 0.091232024 -0.07484681 -0.15713905 -0.19347453 0.031736422 0.106098056 0.3357212 -0.026643869 0.29288143 0.045959365 -0.27076656 0.09546837 0.0726561 -0.11655375 -0.13314876 0.21117637 0.03912808 0.18035628 -0.11927188 -0.12495759 0.058226608 -0.15769437 0.0458097 -0.09704014 0.11169982 0.27378115 0.25814277 -0.3041527 -0.22227442 0.09797825 -0.12692551 -0.21741605 -0.107619785 0.020183368 0.2736013 0.025431164 0.037115693 -0.16064225
25-2 0.13830732 -0.17604388 -0.119207524 -0.014210663 0.086599 0.08743942 0.104040734 -0.16986537 0.10925414 -0.030938346 -0.2103108 -0.117159404 0.03328965 -0.25204208 0.04824627 -0.20537756 -0.18966313 0.014171034 0.058468442 0.18517084 -0.05939171 0.11310981 0.18582793 -0.34088486 0.083050355 -0.3005894 -0.019548336 0.22478704 0.022047712 0.052844547 -0.10732319 0.036336746 -0.015179069 0.06513588 0.035403386 -0.05747673 -0.21243376 0.08962066 -0.3483259 0.08018292 0.1358921 -0.05306237 -0.15619372 -0.0329104 -0.12404652 -0.13176058 0.15395956 -0.2796811 0.10470085 -0.2564984 0.19916955 -0.09422081 0.16725764 -0.092452236 -0.049284928 -0.022379287 -0.07509203 -0.12561038 0.0006467152 -0.13812202 -0.019693624 -0.08615848 0.078726426 -0.12848657 0.1816824 0.003474657 0.06603932 -0.038099397 0.0075311637 -0.021169301 -0.0054151183 0.07365476 0.11094301 0.019592836 0.14128648 0.15740909 -0.019962834 -0.1634071 0.31146234 -0.038995177 -0.0769562 0.08373742 0.060752127 0.030701531 0.27109692 -0.039336067 0.017525144 0.11107107 0.012717351 0.22752449 0.10148048 -0.04862131 -0.12817955 -0.18569389 0.016274005 0.11025703 0.29093504 -0.0038626196 0.26319453 0.06300352 -0.26426876 0.07547928 0.11007357 -0.1158976 -0.12685762 0.19995838 0.07013872 0.13799807 -0.06299565 -0.11506121 0.043901376 -0.16122381 0.032129537 -0.08432101 0.0969151 0.25596648 0.25338122 -0.29910463 -0.19874497 0.10843001 -0.13394359 -0.17127898 -0.080168374 0.040409964 0.22582664 0.060831197 0.021264892 -0.09237749
17-1 0.23132192 -0.29223427 -0.3147607 -0.042176586 0.01750464 -0.13487156 0.04867984 -0.25927952 0.009092778 -0.16600965 -0.11180597 -0.06517722 0.0035738675 -0.1274539 0.04428729 0.04401337 -0.09840482 -0.12979627 -0.023889553 0.050655123 -0.047119442 0.115369715 0.05232666 -0.27620327 -0.020254847 -0.19679852 -0.04716973 0.22030762 0.06228403 0.077807225 -0.16091 0.122109614 -0.13899978 -0.041646425 -0.0059176325 -0.046546876 -0.04628183 0.16535276 -0.32498118 -0.04863852 0.27659568 0.0117594665 -0.14369525 -0.1760564 -0.1624259 -0.06396987 0.116262846 -0.20468706 0.100696035 -0.2331559 -0.07599552 -0.0435176 0.15754183 -0.3063216 -0.104500614 0.24210902 -0.020434666 -0.2943653 0.09861676 -0.1549251 0.008595421 -0.14051534 0.15898523 -0.065601796 0.10620278 -0.18860206 -0.14646883 -0.10600589 0.12551506 0.07587471 0.018917684 0.12492313 0.13667761 0.11681933 0.13250707 0.3616974 0.2372044 -0.0451623 0.23683071 -0.03445346 -0.19132231 -0.0702165 0.094365805 -0.12055511 0.06114513 -0.040909242 0.03921595 0.030585954 0.06467291 0.19749032 0.2126381 -0.064737186 -0.16386518 -0.12164643 -0.008291287 0.014030251 0.3903217 -0.09521939 0.106603384 0.025579482 -0.24775451 -0.028277254 0.23117073 0.015127588 -0.303965 0.25746524 0.105729885 0.0488197 -0.09125167 -0.1518516 -0.16405728 -0.027283518 -0.04408456 -0.11551891 0.17531268 0.2347671 0.17953056 -0.2977449 -0.09260487 0.0028184687 -0.06887753 -0.10215789 -0.23195466 0.21946609 0.1407988 -0.03973957 -0.018443577 0.05823194
8-1 0.16248828 -0.1563149 -0.24350792 -0.013315692 0.031001888 0.00505667 0.07960437 -0.180857 0.03465914 -0.06963151 -0.16458176 -0.08400601 0.0130194435 -0.16554356 0.043768007 -0.06562967 -0.11114287 -0.034873694 0.051414512 0.1381116 -0.04852249 0.13913228 0.11851406 -0.2787072 0.0342672 -0.22754608 -0.03296849 0.2225781 0.067562 0.08991425 -0.12411475 0.09275298 -0.02379255 0.021139992 0.012387411 -0.071138434 -0.13637269 0.14203191 -0.31793854 0.055719238 0.17533065 -0.031867415 -0.115683034 -0.07072291 -0.0910087 -0.083202876 0.15124457 -0.28485164 0.07600737 -0.22662361 0.05426843 -0.082618 0.16818805 -0.18422137 -0.062351454 0.07569295 -0.062767714 -0.17126788 0.042200167 -0.14724378 -0.014408073 -0.104918525 0.072580546 -0.07697319 0.18285531 -0.065775715 -0.019923067 -0.07958794 0.041970942 0.016891235 -0.023580197 0.09596264 0.09252438 0.06399133 0.12212802 0.2280383 0.085557505 -0.08664007 0.27789947 -0.07116123 -0.13825119 -0.012346535 0.10067496 -0.059379544 0.16285695 -0.011601958 0.061796933 0.06980158 0.049877163 0.22646546 0.11960265 -0.031991076 -0.14879337 -0.13229135 0.043308474 0.0644471 0.33669737 -0.062554 0.20894296 0.04608125 -0.24518959 0.033337384 0.12884317 -0.040374078 -0.16447136 0.22332005 0.11332359 0.123176016 -0.061420415 -0.15082504 -0.058279924 -0.122603446 -0.010514492 -0.08786688 0.11523498 0.23599091 0.20113271 -0.2915792 -0.13641241 0.045173354 -0.14052099 -0.1522356 -0.12096975 0.09623998 0.21203728 0.00079360744 0.03130865 -0.066421166
9-1 0.1538204 -0.16198574 -0.20557764 -0.0066969823 0.050084 0.037017446 0.09185911 -0.17353661 0.07410013 -0.05008413 -0.19253379 -0.10972899 0.012583017 -0.20665173 0.050487895 -0.12356139 -0.13536663 -0.0022567215 0.06528516 0.18128397 -0.06374856 0.1375878 0.14676608 -0.303337 0.07117688 -0.27368167 -0.03486317 0.23820692 0.06701863 0.091407575 -0.1271182 0.07051269 -0.005593895 0.050725732 0.04411229 -0.06907581 -0.18489537 0.13428234 -0.33693925 0.08268242 0.1601558 -0.046329916 -0.1259057 -0.0619288 -0.09640731 -0.103969865 0.1681005 -0.30242586 0.089069106 -0.24687532 0.11434837 -0.10098174 0.16852398 -0.15553206 -0.050558608 0.033392757 -0.07153853 -0.15568677 0.039065022 -0.16080159 -0.009087879 -0.0987459 0.0666124 -0.09658627 0.20610876 -0.042529576 0.03094054 -0.07397793 0.016947877 -0.011633254 -0.025851218 0.09775642 0.08990042 0.054857086 0.12583187 0.20759115 0.050115556 -0.11040132 0.30415618 -0.0686897 -0.117962085 0.01894465 0.10279433 -0.03218181 0.20368399 -0.027071543 0.054311976 0.08628132 0.02289956 0.2402722 0.11395393 -0.043555163 -0.14339685 -0.1566594 0.058783375 0.07725289 0.33554107 -0.05375222 0.25400352 0.056624327 -0.2607025 0.04383707 0.11854066 -0.074622914 -0.15402973 0.2276128 0.09454604 0.14844401 -0.07966034 -0.14579764 -0.025657212 -0.15087484 0.010185777 -0.08519575 0.10874696 0.26118958 0.23267284 -0.30688846 -0.16487725 0.064148694 -0.15367337 -0.16837469 -0.10940556 0.077652305 0.22995901 0.019992849 0.035164308 -0.09797
30-1 0.11368716 -0.13934922 -0.14936945 0.008406257 0.059858687 0.090612136 0.11574915 -0.14408286 0.0942846 -0.021221498 -0.2212003 -0.1390942 0.017880542 -0.21347676 0.058004912 -0.172089 -0.160203 0.04336654 0.07962232 0.21779399 -0.074869104 0.121635705 0.18533722 -0.28097168 0.11342632 -0.30140606 -0.027457578 0.24307269 0.05821889 0.097744904 -0.10947714 0.04291904 0.037424926 0.08534337 0.06811463 -0.05925935 -0.22409244 0.106926374 -0.34612134 0.12736353 0.1290689 -0.055602692 -0.121386774 -0.03638424 -0.07963339 -0.13007936 0.1683546 -0.3148618 0.08797182 -0.24239284 0.17384645 -0.11168275 0.15245059 -0.10122814 -0.037533082 -0.029333713 -0.08018026 -0.13022797 0.022824561 -0.1757572 -0.013354352 -0.08010165 0.053187527 -0.114052564 0.24212372 4.4269036e-06 0.0879953 -0.06139035 -0.0117548 -0.050994802 -0.03242796 0.086488895 0.0703895 0.046517573 0.10477877 0.15431906 0.0036325448 -0.12083183 0.3211229 -0.07079036 -0.095541514 0.058378924 0.0894202 -0.00014041872 0.24625584 -0.027107032 0.055753052 0.10214021 0.0035865835 0.2388204 0.0927585 -0.043444652 -0.11677582 -0.17865372 0.08458569 0.0925795 0.32531184 -0.037152205 0.28683102 0.049961485 -0.2554779 0.057028662 0.09545128 -0.10094777 -0.11823021 0.21265846 0.0699345 0.17632468 -0.08033529 -0.11615206 0.007546593 -0.17823943 0.025954805 -0.086030655 0.095048845 0.26812714 0.24228053 -0.2983118 -0.18267317 0.07659944 -0.1689698 -0.19739945 -0.07597266 0.034150705 0.23352535 0.0315555 0.05504853 -0.14470439
28-2 0.12702736 -0.1431219 -0.15212113 -0.002614477 0.06033612 0.075911246 0.108792275 -0.14639325 0.09367443 -0.021612449 -0.20805454 -0.12170254 0.02453978 -0.21028751 0.057644367 -0.1643343 -0.1554926 0.029593652 0.065944865 0.19802924 -0.06766991 0.11899449 0.16877201 -0.28958988 0.09332225 -0.28289098 -0.028135968 0.23102665 0.052050184 0.08250118 -0.1127798 0.039621398 0.021540567 0.075615875 0.05565581 -0.06277206 -0.20990871 0.107456446 -0.3284577 0.10860917 0.13526928 -0.049156856 -0.12581773 -0.034044664 -0.08769792 -0.116229564 0.1566863 -0.2959648 0.08519434 -0.23732947 0.16448733 -0.1114276 0.15388161 -0.11013513 -0.047202475 -0.014024572 -0.07161813 -0.12260042 0.019562662 -0.16315773 -0.01444998 -0.0854072 0.058303334 -0.10665113 0.20994194 -0.009707414 0.06970717 -0.056166627 -0.0033521473 -0.038109362 -0.026656047 0.08285562 0.08216456 0.041721735 0.113261856 0.16456027 0.000988858 -0.12784748 0.3006428 -0.05866801 -0.09617261 0.055056382 0.08057153 -0.0036974293 0.23799585 -0.03248939 0.044377584 0.0972595 0.0112134805 0.23466788 0.0899491 -0.035331637 -0.11613242 -0.1715567 0.06485638 0.085986085 0.30524373 -0.031358663 0.27270854 0.053918324 -0.2513933 0.054115243 0.09423391 -0.099809624 -0.11991468 0.20446208 0.07997538 0.15533023 -0.07358555 -0.12429047 0.010768189 -0.16410688 0.03220038 -0.08217569 0.086303905 0.2523425 0.23395406 -0.2913642 -0.17044733 0.07822539 -0.15801801 -0.17478798 -0.078525156 0.051043283 0.22807573 0.035653513 0.03870967 -0.12166797
29-2 0.11862235 -0.13297732 -0.15503421 -0.007303686 0.055963993 0.07009122 0.09886372 -0.14396931 0.08633279 -0.022371745 -0.20249067 -0.11187076 0.012149236 -0.2099814 0.04703181 -0.15605646 -0.14821635 0.034514584 0.06409364 0.19508168 -0.064429596 0.12670556 0.16695422 -0.2872504 0.091544986 -0.2823373 -0.030176314 0.2231258 0.062335856 0.09266495 -0.10801911 0.048014674 0.016400378 0.07307724 0.056275994 -0.061607305 -0.2016022 0.106220484 -0.32551268 0.1049514 0.13762183 -0.054396585 -0.114983164 -0.03430588 -0.08335279 -0.118292786 0.16254869 -0.2894758 0.08264792 -0.24005389 0.14888796 -0.106460705 0.15107332 -0.11210451 -0.03697086 -0.011029673 -0.07005319 -0.1328224 0.02516115 -0.15830818 -0.012633686 -0.07638129 0.055313174 -0.10799072 0.21118192 -0.006018212 0.06949574 -0.060396336 0.0020452873 -0.0386607 -0.024535138 0.081590086 0.07620715 0.047164705 0.10839051 0.16683505 0.0102664735 -0.12056051 0.29662198 -0.060880225 -0.09216246 0.043851785 0.09216489 -0.011621686 0.21526754 -0.026201652 0.04709356 0.08904697 0.00415731 0.22532165 0.0833674 -0.034008157 -0.116160154 -0.16253205 0.067135766 0.08405046 0.31231967 -0.03996097 0.2605713 0.049629044 -0.24831197 0.055045452 0.09794036 -0.082164966 -0.11776726 0.2023339 0.08285225 0.15535104 -0.074267805 -0.12600002 0.011007972 -0.1584105 0.024505975 -0.08421656 0.08660292 0.25425708 0.22037329 -0.28413105 -0.16694148 0.06327236 -0.15722215 -0.17901105 -0.08721478 0.041975502 0.22478068 0.027850015 0.047113076 -0.124482684
20-1 0.16069764 -0.1485553 -0.2252797 0.0012701557 0.03637865 0.021144975 0.094643205 -0.17849384 0.048142213 -0.06341222 -0.17568384 -0.10098438 0.013702033 -0.170658 0.052393988 -0.09019508 -0.11713755 -0.023428828 0.054733228 0.16052404 -0.054199446 0.14352068 0.1417269 -0.27966303 0.046797138 -0.25278062 -0.037900664 0.23530681 0.07151868 0.088097945 -0.12719055 0.08566612 -0.015127278 0.043072417 0.021703355 -0.0590689 -0.15622583 0.14053808 -0.33292833 0.07615651 0.16015439 -0.042479374 -0.1160992 -0.06760229 -0.086661324 -0.09772576 0.15172742 -0.29618788 0.079411805 -0.22566539 0.07848349 -0.085040525 0.1649254 -0.16641934 -0.053895593 0.047901653 -0.07341712 -0.16065168 0.039219636 -0.15209942 -0.0108652795 -0.102137774 0.07164689 -0.083202936 0.20364809 -0.056034908 0.0059837843 -0.07981582 0.036572725 0.0023862766 -0.02564274 0.09925199 0.08872056 0.058694493 0.11438517 0.20302695 0.075340465 -0.095100194 0.28726882 -0.0710779 -0.12725785 0.008487942 0.09789495 -0.047329623 0.18583934 -0.015061594 0.05951281 0.07709639 0.04602202 0.23176137 0.12135174 -0.036768757 -0.1424673 -0.13492444 0.05607517 0.068156265 0.33081087 -0.0502672 0.22621268 0.036941554 -0.24898453 0.03789289 0.12117583 -0.064155124 -0.15521903 0.22593723 0.10158653 0.13752337 -0.05933407 -0.1351768 -0.055294704 -0.14411989 -0.004547998 -0.09083334 0.118928626 0.24145564 0.2187088 -0.2986412 -0.14225547 0.055416446 -0.14262885 -0.15823592 -0.10775774 0.07827217 0.21544191 0.0059222733 0.03981681 -0.08095456
31-1 0.12651144 -0.1353086 -0.16339731 0.0024297247 0.05522957 0.074947074 0.11134797 -0.14908087 0.08046557 -0.023102207 -0.19888471 -0.1229825 0.009742302 -0.20691703 0.05194167 -0.1540494 -0.14223464 0.024128275 0.06605713 0.19513236 -0.06811369 0.13157034 0.16575164 -0.27765638 0.09781374 -0.28368294 -0.03723334 0.23319489 0.05765135 0.08430892 -0.10741911 0.052122373 0.017701045 0.074730836 0.06330826 -0.05793813 -0.20355792 0.114935435 -0.33762395 0.11175067 0.13427337 -0.05778425 -0.114940844 -0.041218393 -0.08548303 -0.11764454 0.16536903 -0.30591097 0.08394794 -0.24064541 0.14677848 -0.11619278 0.15687895 -0.111226685 -0.037143648 -0.005261463 -0.077484146 -0.12821916 0.030475961 -0.17315407 -0.017797288 -0.078505754 0.059434447 -0.11057609 0.22704443 -0.02406709 0.06571994 -0.061635382 0.0035901496 -0.029928377 -0.034763966 0.08881292 0.076054126 0.047839034 0.11684288 0.1619508 0.018742513 -0.11139229 0.3101449 -0.06691541 -0.09425397 0.03934592 0.09343277 -0.002563748 0.23212622 -0.024744399 0.061345387 0.097442925 0.01219063 0.24103174 0.10288081 -0.041623954 -0.13546239 -0.16897291 0.07620404 0.087694496 0.31665158 -0.045662053 0.27338037 0.050642055 -0.2487741 0.0631696 0.0963081 -0.08481865 -0.12274504 0.21436362 0.08481161 0.1742369 -0.07062353 -0.1272769 0.001402352 -0.17422453 0.019390812 -0.080020756 0.106545806 0.26790106 0.23821616 -0.30039907 -0.18712619 0.067832 -0.16168821 -0.17924252 -0.09079989 0.039181653 0.22788848 0.027877524 0.057563145 -0.12423505
16-1 0.11490495 -0.13702154 -0.14787501 0.0071237655 0.058968145 0.06869949 0.10568418 -0.14006443 0.08754324 -0.024494808 -0.20608263 -0.12377632 0.019326724 -0.2043665 0.055981833 -0.15154137 -0.14345257 0.036266956 0.071714215 0.19521949 -0.06618271 0.120499864 0.16353662 -0.27510962 0.10202298 -0.27961734 -0.029138591 0.22210203 0.051950965 0.09139357 -0.104268216 0.039915126 0.024991054 0.077596135 0.064959 -0.0537075 -0.20645158 0.10184662 -0.32755598 0.11015572 0.12622696 -0.05073724 -0.11414337 -0.038375486 -0.07994572 -0.11582578 0.1530611 -0.28746882 0.08838291 -0.23795784 0.15327284 -0.11282911 0.14279999 -0.1070581 -0.03979646 -0.009548118 -0.07089532 -0.12688667 0.025749616 -0.16835125 -0.012487021 -0.07501185 0.056549024 -0.10778964 0.2163688 -0.013866593 0.07525999 -0.053853575 -0.0046802135 -0.04133741 -0.028387561 0.088697225 0.07691717 0.04438484 0.10663965 0.15862723 0.016759818 -0.11436617 0.29854098 -0.065342136 -0.090683445 0.05204079 0.08276537 -0.009033175 0.22668599 -0.022773832 0.051810913 0.097007975 0.005924625 0.22749844 0.096617945 -0.04220643 -0.12352052 -0.17069897 0.06925 0.08670831 0.30818942 -0.03704927 0.2631556 0.0494978 -0.24160802 0.05694105 0.092536435 -0.08740629 -0.121920906 0.20249283 0.06964367 0.16840099 -0.07434823 -0.116103314 0.0045889067 -0.16580525 0.024455443 -0.075126864 0.0983681 0.25632614 0.23025769 -0.28486735 -0.18225236 0.06916712 -0.1547315 -0.18053462 -0.082944624 0.04226352 0.22154707 0.026439339 0.05013085 -0.122203566
22-1 0.1612402 -0.15837815 -0.2358384 -0.010593922 0.03744334 0.004281313 0.08175523 -0.1825596 0.040275674 -0.06250537 -0.15990546 -0.0891647 0.011789498 -0.16386941 0.047655508 -0.0746111 -0.1094889 -0.037142202 0.046200544 0.14743547 -0.05566908 0.14104916 0.12744185 -0.27824882 0.036964156 -0.23441923 -0.035065997 0.22551106 0.06668244 0.08711593 -0.13007051 0.08757896 -0.02265534 0.026621412 0.019203385 -0.06765735 -0.1400645 0.13847978 -0.3215253 0.06465584 0.17029679 -0.035188183 -0.1148113 -0.07095652 -0.0901919 -0.09115474 0.14603695 -0.28451398 0.07521186 -0.22820774 0.064208806 -0.08352923 0.16734846 -0.18603158 -0.062392764 0.069795325 -0.065923266 -0.1707545 0.045261145 -0.14687225 -0.014690492 -0.10433925 0.06780446 -0.07968014 0.18610136 -0.06231551 -0.0079382965 -0.07607997 0.035922058 0.01474 -0.020811396 0.096231066 0.093933925 0.061840538 0.11926734 0.21881865 0.0867588 -0.09097327 0.27821842 -0.069368504 -0.12983593 -0.0037621006 0.09786546 -0.052491587 0.16551189 -0.0184896 0.059983637 0.07211071 0.048305042 0.2233192 0.11965489 -0.033623703 -0.14563645 -0.12863614 0.045074534 0.060392473 0.3305342 -0.054310173 0.21061774 0.040240847 -0.24421982 0.03624603 0.12878905 -0.0498276 -0.16202244 0.22386953 0.11017715 0.123531416 -0.06392651 -0.14816985 -0.05897586 -0.12697332 -0.007366501 -0.0878828 0.1139176 0.23636909 0.20850414 -0.2936786 -0.13878536 0.05062875 -0.13665712 -0.15283237 -0.11197719 0.08893937 0.20825501 0.0072345 0.03613405 -0.065585904
19-1 0.125708 -0.14422394 -0.16113779 0.009884107 0.049621567 0.07019699 0.11124258 -0.14498918 0.08940063 -0.02705998 -0.21518457 -0.12917645 0.019691333 -0.20805968 0.05732375 -0.15614146 -0.15322645 0.035661943 0.07538591 0.20600055 -0.06511286 0.12537183 0.17453842 -0.2844777 0.1031904 -0.29609576 -0.036658097 0.23833503 0.060039014 0.09714188 -0.10965587 0.044742294 0.026951475 0.08337046 0.06343037 -0.060474202 -0.21549176 0.11580139 -0.34006926 0.10983113 0.13068844 -0.057047714 -0.12058795 -0.039244816 -0.0858817 -0.11958092 0.1662393 -0.31002358 0.09012924 -0.24404791 0.15603162 -0.10929419 0.1521302 -0.10936269 -0.044716176 -0.010825661 -0.07273588 -0.13305724 0.029149514 -0.17209506 -0.0053779026 -0.083377495 0.053266108 -0.11238345 0.22919635 -0.014266488 0.07276025 -0.0550787 -0.0011375737 -0.043783534 -0.028130056 0.08988669 0.07630349 0.046965115 0.106750324 0.16493888 0.0187311 -0.1217809 0.31368902 -0.068327844 -0.09663691 0.053735316 0.08590106 -0.012873481 0.23858976 -0.02858454 0.055767607 0.10096215 0.0047316966 0.24270819 0.097827785 -0.043222483 -0.1253867 -0.171491 0.07099298 0.08502791 0.32778364 -0.04199544 0.28035498 0.04928414 -0.2599721 0.05206218 0.09845203 -0.09949617 -0.12689047 0.21522927 0.077986985 0.1748031 -0.08231315 -0.12320763 0.00011713403 -0.1761574 0.029421484 -0.08299268 0.10152103 0.26760668 0.23880218 -0.29590678 -0.17945711 0.0676227 -0.16238528 -0.18891649 -0.087054186 0.050001346 0.22988084 0.028158888 0.05390033 -0.13508691
13-1 0.15863784 -0.15949172 -0.2349839 -0.016458042 0.03586049 0.008840016 0.08192631 -0.18372548 0.03726292 -0.06676282 -0.16450383 -0.086491205 0.007943033 -0.1660073 0.048317246 -0.07357388 -0.11382521 -0.03153017 0.051148195 0.14716561 -0.057195712 0.14394575 0.12308095 -0.2832135 0.03637686 -0.24112266 -0.0319912 0.23003694 0.063152686 0.08752166 -0.123951755 0.089643344 -0.02104725 0.02891266 0.020911502 -0.072646104 -0.140696 0.14369634 -0.32524493 0.06745965 0.17098351 -0.03111268 -0.116583034 -0.06673948 -0.08841968 -0.092231385 0.15449703 -0.28703538 0.076528534 -0.23107092 0.06570686 -0.08619647 0.1667271 -0.1834832 -0.06232559 0.06383012 -0.06386213 -0.17272551 0.03934331 -0.15008344 -0.011194441 -0.10236305 0.06880132 -0.07681847 0.18549441 -0.06353526 -0.008713803 -0.07784409 0.040961508 0.014573503 -0.017451052 0.101353824 0.09502586 0.061338052 0.1155927 0.22029224 0.07725217 -0.0878075 0.27442795 -0.06878023 -0.13536972 0.0009863559 0.100869946 -0.056617893 0.16730227 -0.018394107 0.053101674 0.0690682 0.050064027 0.22131844 0.1168305 -0.032645296 -0.15012556 -0.13129918 0.04460699 0.063425355 0.3350798 -0.052981257 0.21526197 0.050066415 -0.24846722 0.03369963 0.122785516 -0.046400357 -0.15749003 0.22217312 0.10554397 0.12733713 -0.067801654 -0.14960481 -0.054367397 -0.12585872 -0.010376644 -0.087557934 0.11360329 0.23609821 0.20762008 -0.28922266 -0.13972053 0.04590243 -0.14021212 -0.15112005 -0.112071544 0.091648124 0.21465844 0.0055702543 0.03426739 -0.06504409
18-1 0.16834545 -0.16975276 -0.24423426 -0.014021601 0.039197657 0.005983897 0.085601576 -0.19123745 0.040651772 -0.070003696 -0.18061596 -0.09850869 0.014512876 -0.18102 0.049289975 -0.07805841 -0.12566614 -0.028522203 0.058980543 0.15484303 -0.055778056 0.14428091 0.13951777 -0.29412878 0.041501228 -0.2521482 -0.033830505 0.23792402 0.07258647 0.09647349 -0.12894714 0.090410426 -0.020266494 0.029320009 0.017283421 -0.07088896 -0.15690802 0.14366846 -0.34005365 0.067906246 0.17774864 -0.03463296 -0.11856039 -0.07383411 -0.09665291 -0.09117241 0.1608232 -0.3004888 0.07829658 -0.23831101 0.07341627 -0.08662351 0.17153132 -0.1930486 -0.0664191 0.06999575 -0.06863218 -0.1750552 0.044236343 -0.1584141 -0.012132792 -0.11112536 0.07139942 -0.08134697 0.20046945 -0.06652706 -0.0032144058 -0.07903119 0.035368588 0.014553973 -0.023458986 0.10509319 0.093185276 0.06885616 0.12659077 0.22649251 0.086577795 -0.092927694 0.2966989 -0.07779738 -0.13542762 0.0016780876 0.09964926 -0.05866531 0.17828366 -0.015760519 0.057212193 0.07756481 0.051298965 0.23500812 0.124167345 -0.03640501 -0.15579528 -0.135751 0.051758293 0.066727996 0.3531916 -0.06002422 0.22512214 0.048172846 -0.2618127 0.03915683 0.13440898 -0.05844473 -0.1678914 0.23517941 0.11474541 0.13307527 -0.06628906 -0.15343136 -0.06147724 -0.1351722 -0.010804983 -0.095794775 0.12117225 0.24813831 0.21997112 -0.30728188 -0.14780322 0.052338053 -0.14608881 -0.16524866 -0.121315576 0.09337913 0.22320464 0.008035982 0.03446201 -0.07057748
27-1 0.12798163 -0.15331975 -0.16092268 0.0045405827 0.054609288 0.07066893 0.11583397 -0.1534358 0.09195935 -0.03261487 -0.21371968 -0.13415906 0.020490441 -0.21047813 0.06402738 -0.15738785 -0.1587714 0.031277984 0.07517865 0.20054929 -0.06767737 0.12055422 0.17590183 -0.29041305 0.100328125 -0.2976719 -0.035492588 0.24004838 0.053257518 0.09047643 -0.107951224 0.04830114 0.021935897 0.078992456 0.06423026 -0.054527 -0.21467035 0.11341 -0.34510124 0.11067492 0.13228934 -0.05035995 -0.11706877 -0.04454893 -0.09188522 -0.121558905 0.16439097 -0.30282813 0.09047558 -0.24730237 0.1592167 -0.114538595 0.14766999 -0.10997897 -0.038107693 -0.009067087 -0.073340446 -0.13696605 0.030835563 -0.17454316 -0.004948277 -0.08820136 0.063605785 -0.11426319 0.22590071 -0.014848209 0.075267345 -0.05927958 0.0022498383 -0.044901688 -0.026508443 0.09369898 0.074031696 0.043880228 0.11009736 0.16579461 0.020738283 -0.11786484 0.3129335 -0.059682757 -0.09450291 0.052268468 0.088590994 -0.008667475 0.24312435 -0.030637886 0.054006662 0.09775497 0.0068120062 0.23445143 0.105698444 -0.049574014 -0.12214835 -0.1702461 0.076191895 0.087622106 0.32880166 -0.043211833 0.27006432 0.04806363 -0.25090876 0.05161891 0.10213126 -0.09457893 -0.12845951 0.21633296 0.06912399 0.16910475 -0.08222081 -0.12341269 0.0026959998 -0.1679262 0.023018142 -0.085581824 0.1004935 0.26925486 0.2394404 -0.29356474 -0.18424243 0.0717945 -0.16081128 -0.18396112 -0.09269872 0.046641763 0.22952764 0.024747787 0.052170824 -0.12761967
21-1 0.11779235 -0.1403533 -0.15609166 0.0023483834 0.053805195 0.07202619 0.103642054 -0.14129585 0.089171395 -0.021569408 -0.20677109 -0.12324104 0.014419755 -0.20076916 0.05302752 -0.15449774 -0.14904113 0.034814913 0.06652732 0.19510476 -0.067598335 0.11959673 0.16475408 -0.26890382 0.09678379 -0.27846652 -0.02811427 0.23058598 0.055688225 0.08923364 -0.10663519 0.04515067 0.02297687 0.07877654 0.06650304 -0.0529463 -0.20197853 0.10396993 -0.32796887 0.10969916 0.12371554 -0.049286436 -0.11447873 -0.041132778 -0.08392475 -0.11858471 0.15595095 -0.2894701 0.088153854 -0.23757862 0.15257242 -0.11085175 0.15020415 -0.10763139 -0.037149824 -0.015108472 -0.07290968 -0.12655973 0.027568057 -0.16701397 -0.010667674 -0.077045 0.051736448 -0.106337026 0.21670482 -0.013956498 0.07394103 -0.054534357 -0.0003487879 -0.043429844 -0.031084731 0.08692393 0.0732758 0.048183814 0.09980244 0.15669915 0.015496565 -0.11608542 0.30526838 -0.05981668 -0.09478666 0.04766791 0.087619975 -0.006055487 0.23067132 -0.028700193 0.049282476 0.0963722 0.0046805977 0.22672525 0.09242605 -0.043471977 -0.12146551 -0.16673276 0.07383721 0.081638746 0.30922958 -0.041368954 0.26379523 0.048214406 -0.24419016 0.052177913 0.09418679 -0.094967045 -0.123442195 0.20765328 0.07330949 0.16772586 -0.075281985 -0.11340201 0.0010012663 -0.16747592 0.025028775 -0.08461919 0.09775111 0.25407276 0.22625962 -0.28350097 -0.17804271 0.06994237 -0.15768836 -0.17694403 -0.08157192 0.043388464 0.22214411 0.025239019 0.04903535 -0.12505308
15-1 0.13256474 -0.146485 -0.1746304 0.0053291833 0.05221394 0.0660249 0.10296774 -0.15584865 0.07703282 -0.033805124 -0.20254757 -0.12337323 0.01678834 -0.19935909 0.057631288 -0.14564797 -0.14761318 0.024672521 0.06917627 0.19389576 -0.06840476 0.12402917 0.16428411 -0.2769519 0.09452304 -0.28272113 -0.029522154 0.23311982 0.06361693 0.09577761 -0.11315417 0.053305514 0.02100333 0.07260974 0.061485168 -0.0629347 -0.19830208 0.118422754 -0.33220437 0.10647161 0.13758469 -0.04616814 -0.11693675 -0.04394381 -0.08549455 -0.11257791 0.16330425 -0.30075574 0.08810715 -0.23988901 0.13661312 -0.10864909 0.15147188 -0.118410505 -0.04649393 -0.00033528288 -0.07005775 -0.13455999 0.031150967 -0.16654038 -0.012924965 -0.08963213 0.059234794 -0.10829965 0.22265846 -0.018990915 0.06299412 -0.0622904 0.0011424823 -0.031175304 -0.031642593 0.087938264 0.07853025 0.053474694 0.10367769 0.17330855 0.025277715 -0.10903267 0.30485758 -0.066635296 -0.10388653 0.044364683 0.08643306 -0.01930355 0.22222288 -0.022392172 0.04971659 0.09709415 0.014308348 0.22895166 0.101290576 -0.03940438 -0.12534021 -0.16437538 0.068323664 0.07786704 0.32372895 -0.04081719 0.25825894 0.048856188 -0.24931 0.049678303 0.10214139 -0.08677557 -0.12912454 0.21432672 0.080292754 0.16195773 -0.079355575 -0.12548281 -0.0072323773 -0.16318561 0.023906192 -0.07931033 0.09998471 0.25946113 0.23110826 -0.29228783 -0.17270745 0.06709386 -0.15579545 -0.18295468 -0.09176307 0.053805627 0.21889205 0.026137196 0.04900661 -0.11564342
23-1 0.1166566 -0.13795803 -0.15194097 0.010311809 0.05146359 0.07297811 0.11335225 -0.14527006 0.08663733 -0.026616845 -0.20956014 -0.13062045 0.017449653 -0.20164175 0.05672478 -0.15365463 -0.14528176 0.038284495 0.07259226 0.1984714 -0.068047665 0.11952382 0.17284977 -0.27081233 0.10730469 -0.2832279 -0.029295012 0.23340449 0.05561873 0.091697946 -0.10469497 0.043649096 0.029025093 0.07801959 0.07127683 -0.057537526 -0.21068572 0.104701675 -0.33434734 0.114628665 0.12452843 -0.055909157 -0.11216814 -0.039334144 -0.08236234 -0.115557656 0.1592349 -0.29482996 0.08245131 -0.23850398 0.1526254 -0.11057497 0.14738363 -0.102674365 -0.036702838 -0.017017854 -0.07771864 -0.13185711 0.027090497 -0.16603722 -0.005313958 -0.07938029 0.057655077 -0.11356946 0.23001434 -0.011491994 0.07336814 -0.05480395 -0.004927576 -0.039152812 -0.032984786 0.08871819 0.07169421 0.046601754 0.10319802 0.15173946 0.017755281 -0.11691566 0.3069821 -0.062338617 -0.0889269 0.051946215 0.083894685 -0.005464093 0.23243694 -0.02286846 0.053239282 0.096473835 0.009759209 0.23274623 0.094560966 -0.04627401 -0.11998756 -0.16947813 0.07666757 0.085382715 0.3157003 -0.04348553 0.2715503 0.044349782 -0.24683775 0.0537715 0.09132413 -0.095351495 -0.118523434 0.20673811 0.07128821 0.17651959 -0.07684702 -0.10954522 -0.0016646651 -0.16983832 0.026712235 -0.07553872 0.09915653 0.26111397 0.2336798 -0.2854505 -0.1791664 0.06434529 -0.15843804 -0.1825549 -0.08496349 0.039862566 0.21895023 0.030249907 0.058938734 -0.1321101
