34 128
34 -0.14315183 -0.023666225 0.019161245 -0.050705466 -0.058303673 -0.099341646 0.028735135 0.00871063 -0.019711772 0.057176225 0.07248438 -0.10411238 -0.014786193 -0.20094256 0.039098695 0.05817044 0.09135574 0.02327365 -0.14231499 0.095279485 0.12757325 -0.10965785 -0.07259952 -0.058824703 0.038369402 0.046308905 -0.108951725 0.13493139 0.12662163 0.09787576 0.05427747 -0.08648212 -0.04389957 0.028556583 0.19741914 0.24727102 -0.01571276 0.27747175 -0.04742246 -0.004002407 0.082233585 0.13224763 0.05530832 -0.073518895 -0.10455338 -0.21849947 -0.06985559 0.15298156 0.034088545 -0.16686486 -0.025229694 0.19533786 0.18821678 -0.19498889 0.20465432 -0.047139004 -0.077137604 -0.015730964 -0.27353477 -0.21446933 -0.15562809 -0.04256621 0.13981467 -0.085494064 0.020472668 -0.09529939 -0.050762527 -0.04132484 0.17491505 0.15075986 -0.16794881 -0.114665784 0.12313435 0.12134693 0.03580475 -0.074314915 0.04737548 -0.0960802 0.02403656 -0.00946879 -0.04584048 0.07504922 -0.08904421 0.01755453 -0.04869106 -0.12978137 -0.0759824 -0.26115513 -0.045476828 0.06582687 0.04747111 0.079187065 0.038191274 -0.06259305 -0.10703068 -0.07493845 -0.109323986 0.12908836 -0.02239198 0.1590252 -0.17206149 -0.053346988 0.013563627 0.041865848 0.07389261 -0.1453147 -0.19115712 -0.1432026 -0.080321506 -0.057897076 -0.08927222 -0.16256495 -0.11435801 -0.08041591 -0.09808138 0.066986695 0.040650103 0.024463197 0.12840804 -0.22117114 0.08963415 0.14348398 -0.25976855 -0.052969538 -0.01780029 0.08419864 -0.11452509 0.121256806
1 -0.047498 0.067321904 -0.05924935 -0.13466564 -0.1422773 -0.0358053 -0.06486987 -0.17226861 0.009133661 0.14311332 0.08321108 -0.10542229 -0.19302332 0.040342145 0.12886797 0.15920962 -0.03425406 0.05671047 0.007501064 0.06866643 -0.0046312157 -0.04856911 -0.100924626 -0.19705749 -0.09062114 0.15560079 0.024148393 0.0033630629 0.046974853 0.0058510755 0.06770313 0.038694154 -0.03673711 0.028506625 0.31041282 0.087385625 -0.10569406 0.29160202 0.07478 -0.007901005 -0.08431966 0.04623246 0.07977297 -0.07100993 0.012634269 0.011476486 0.040214524 0.18611053 -0.031981364 -0.07232242 -0.058526948 0.161887 0.06462287 -0.11737924 0.06912599 0.026790151 -0.13128367 0.14736512 -0.30699944 -0.22610946 -0.13074276 0.07079271 0.10942892 0.063677415 0.08171659 0.022400135 -0.026433028 -0.08471963 0.016648116 0.04349277 -0.10117474 -0.024859823 0.08728084 0.17607862 0.08217685 -0.030408023 0.060085952 -0.1139589 0.0161264 0.106510684 -0.04368044 -0.006854202 -0.11264342 -0.16095094 0.036955766 -0.112613894 -0.14538728 -0.2860697 0.048291784 0.13555604 -0.06091351 0.090387605 -0.116050124 0.021767138 0.004523139 -0.007855262 0.0021596658 -0.050202183 0.06450199 0.048870567 -0.09007742 -0.05300417 -0.05795058 -0.04218366 0.021121355 -0.12324857 -0.15922031 -0.045609895 -0.1425882 0.022949858 -0.062753916 -0.0494908 0.08673415 0.018975455 -0.2986245 0.16960286 -0.01453604 -0.09648103 0.052701592 -0.3532368 0.04600391 -0.009941057 -0.1484009 -0.08085178 0.14921951 0.04020444 -0.30242077 0.061941534
33 -0.1319154 -0.010942217 0.010366177 -0.067046076 -0.075585514 -0.096440405 0.02107102 -0.010955543 -0.0134253185 0.066903375 0.080179 -0.10547482 -0.043894462 -0.17094526 0.05443264 0.070914574 0.07746602 0.026381591 -0.119794205 0.09308299 0.11151881 -0.1053817 -0.08128982 -0.07856277 0.020323124 0.061940737 -0.09427975 0.12394787 0.118121624 0.087744445 0.055088412 -0.07036013 -0.03991929 0.028767403 0.20773442 0.2321658 -0.03044932 0.27661777 -0.033339333 -0.0011549499 0.063658774 0.12087589 0.06335081 -0.078005545 -0.09161354 -0.19049732 -0.05730431 0.15196078 0.027834233 -0.15787478 -0.029016143 0.19079308 0.17930657 -0.18378103 0.18799105 -0.03476391 -0.089251444 0.0020299724 -0.2793489 -0.20985763 -0.15513718 -0.02826736 0.14081597 -0.067164145 0.03531678 -0.08336075 -0.053866044 -0.04914901 0.15843904 0.13742895 -0.16968787 -0.11097479 0.11954338 0.13321696 0.044996183 -0.075145155 0.05548522 -0.10627306 0.02947069 0.011930384 -0.046843372 0.06801462 -0.094093025 -0.002674656 -0.035485074 -0.12913303 -0.08569579 -0.2774032 -0.03840685 0.078405276 0.03111613 0.08103528 0.015774908 -0.05337411 -0.09329888 -0.07227614 -0.095025286 0.11074806 -0.0120395925 0.15576455 -0.16848965 -0.055305276 0.0032820029 0.028917057 0.069392785 -0.14743814 -0.1945822 -0.14084673 -0.094389126 -0.052079547 -0.08710006 -0.15431383 -0.09228206 -0.06895989 -0.12599368 0.08548316 0.029738719 0.010037201 0.12091318 -0.24701306 0.09095188 0.12304689 -0.25677764 -0.059503593 0.0016610271 0.081932895 -0.1434896 0.11399982
3 -0.09767217 0.022111861 -0.018479157 -0.09891023 -0.10105327 -0.06872713 -0.01967945 -0.0864185 -0.0047963723 0.105730765 0.07999562 -0.10392994 -0.10360122 -0.080020614 0.08198553 0.11448543 0.029184334 0.037959214 -0.06689454 0.07898325 0.06613947 -0.08003889 -0.08734058 -0.12473914 -0.03143048 0.09906697 -0.04274039 0.06424071 0.086682126 0.052891266 0.06073646 -0.021043302 -0.044252846 0.028123558 0.2545105 0.16841857 -0.0642649 0.29053506 0.013502718 -0.008261024 -0.00438979 0.09529957 0.0749743 -0.07130374 -0.040615797 -0.102634795 -0.017090272 0.16955766 0.0028270392 -0.122033074 -0.04562963 0.18048403 0.12514727 -0.1539567 0.13645826 -0.009058595 -0.10647847 0.06918002 -0.29201958 -0.22466566 -0.14033382 0.020428449 0.12383092 -0.009190012 0.04861023 -0.035242517 -0.036876906 -0.06871292 0.09551782 0.09670902 -0.13873169 -0.06915402 0.10987065 0.15128046 0.06186394 -0.054746065 0.059743997 -0.103796266 0.025098555 0.048937745 -0.04816141 0.03213494 -0.105259165 -0.07089437 -0.002719629 -0.12152287 -0.1162337 -0.27981833 0.0041592866 0.1002953 -0.008383902 0.08756557 -0.041454818 -0.016893886 -0.056587715 -0.047461893 -0.056310993 0.035751697 0.024874348 0.10661025 -0.13039647 -0.054638643 -0.02224381 0.0018833501 0.051210042 -0.13732415 -0.18136327 -0.09264433 -0.1190262 -0.020236708 -0.07772742 -0.10526585 -0.010125467 -0.027852729 -0.20490551 0.11792484 0.008401745 -0.03995554 0.08950562 -0.29152617 0.07461319 0.066470705 -0.20828211 -0.071593426 0.06439017 0.05893888 -0.21653683 0.09255684
2 -0.07469989 0.046863604 -0.03665313 -0.12159651 -0.11653008 -0.05216204 -0.03872414 -0.12508994 0.0014974658 0.12734734 0.08723806 -0.1062576 -0.15303387 -0.020370893 0.09741313 0.13489202 -0.008125589 0.053111296 -0.03154944 0.067086585 0.030557897 -0.06801577 -0.0930955 -0.15614298 -0.059053235 0.12944613 -0.012710972 0.036543626 0.06542061 0.037824154 0.06314833 0.011651029 -0.038432445 0.026043326 0.28302458 0.12621436 -0.088108234 0.28748193 0.047490425 -0.008370897 -0.03724507 0.06682923 0.07929481 -0.07452335 -0.009964356 -0.053007893 0.005582603 0.17603484 -0.013590207 -0.10159917 -0.05192021 0.1668709 0.0995865 -0.14177272 0.106562294 0.006131258 -0.12153487 0.11006824 -0.30132315 -0.22388421 -0.13971873 0.04323754 0.11916338 0.030915393 0.066230886 -0.009401241 -0.027587125 -0.07599236 0.06277202 0.07421489 -0.1172281 -0.046997953 0.10248026 0.16869673 0.06900293 -0.04903241 0.06401693 -0.11474443 0.023424936 0.07593175 -0.045815777 0.015913518 -0.10944162 -0.11765132 0.020579593 -0.11833881 -0.13270684 -0.28706375 0.024973195 0.117790446 -0.02949917 0.09259843 -0.08053598 -0.0040289504 -0.03487089 -0.030009035 -0.031169869 -0.00095791905 0.05074223 0.08312606 -0.11626412 -0.056126665 -0.042957295 -0.024819026 0.038504876 -0.13276388 -0.17417766 -0.07280306 -0.13121454 0.005608044 -0.070176475 -0.081271216 0.03327901 -0.007813152 -0.25419334 0.14310007 -0.0032709818 -0.06938794 0.07619741 -0.330551 0.0675502 0.02733209 -0.17779982 -0.081561096 0.10957395 0.04645584 -0.26343614 0.08397007
4 -0.08710276 0.035114404 -0.026656043 -0.11286831 -0.11197433 -0.06430414 -0.024434661 -0.10903908 -0.003069449 0.12069617 0.08780739 -0.10749874 -0.13354921 -0.04819671 0.09484656 0.1266055 0.0060285414 0.05095105 -0.051784094 0.073259644 0.04891856 -0.07604976 -0.09584678 -0.1473076 -0.046882436 0.11871119 -0.025761357 0.052245453 0.07711107 0.045642234 0.062361225 -0.005945954 -0.04430754 0.030058928 0.2784106 0.15245251 -0.07633895 0.29595125 0.0351176 -0.00835947 -0.02474489 0.082537405 0.07764424 -0.07265076 -0.022983702 -0.07572641 -0.00542846 0.17350289 -0.011345851 -0.11548463 -0.052693527 0.17733395 0.11467677 -0.15304802 0.12236703 -0.002195042 -0.11497193 0.09542423 -0.2984458 -0.22800861 -0.1430519 0.029838342 0.12619919 0.014258265 0.060858674 -0.019506617 -0.032195587 -0.07456045 0.07913085 0.08581238 -0.12591209 -0.060266934 0.10639499 0.15818362 0.061356407 -0.05341475 0.059242163 -0.10677693 0.02248665 0.06990296 -0.043455843 0.021575926 -0.10624015 -0.09463462 0.012962962 -0.12165968 -0.119873926 -0.28377983 0.014485383 0.11005106 -0.022184625 0.08425109 -0.06243922 -0.014728698 -0.037368704 -0.03475505 -0.04189463 0.016078023 0.03541539 0.09369254 -0.124339186 -0.05467073 -0.027801618 -0.013327465 0.03866356 -0.13207951 -0.17916766 -0.08569988 -0.12320585 -0.0042530256 -0.074070305 -0.09568143 0.012995084 -0.015327495 -0.2330241 0.13368857 0.0041943314 -0.05916021 0.084285535 -0.31347018 0.0652918 0.047503557 -0.19420958 -0.077524975 0.09376309 0.057944715 -0.24232297 0.08379874
32 -0.12049637 -0.0033094264 0.0076692076 -0.07269497 -0.08037365 -0.08479601 0.0030481303 -0.034493357 -0.0150472205 0.077199675 0.08124199 -0.10220548 -0.051533017 -0.14136903 0.066025995 0.08601102 0.0638255 0.028569583 -0.108814806 0.09178553 0.09733711 -0.09132268 -0.08554742 -0.095449336 0.0067951283 0.07444986 -0.08396059 0.10804584 0.11001542 0.0723107 0.0636669 -0.06305691 -0.04554253 0.03386423 0.22507004 0.21657957 -0.041910447 0.28708804 -0.025868308 -0.009134272 0.04120044 0.11647888 0.06617544 -0.07673532 -0.08182953 -0.16824383 -0.051093176 0.16675639 0.019850062 -0.14596932 -0.035922002 0.18226954 0.16498747 -0.17909774 0.18057111 -0.03309256 -0.09084492 0.022807477 -0.28711602 -0.22270611 -0.15038122 -0.013773211 0.1293496 -0.04946985 0.03840264 -0.06874987 -0.050414544 -0.05723835 0.1439643 0.120564565 -0.15000999 -0.099865854 0.11269843 0.13109304 0.044804804 -0.0670118 0.053972103 -0.10111848 0.027642198 0.020073736 -0.044353276 0.05925101 -0.09615003 -0.02752653 -0.034288637 -0.12506106 -0.0924337 -0.27625167 -0.025607705 0.07516922 0.026255835 0.0837036 0.004621483 -0.04610626 -0.08432149 -0.06277942 -0.08582975 0.07980075 -0.0021667264 0.1367868 -0.1542466 -0.05759111 -6.1023165e-05 0.023449846 0.06413376 -0.1385512 -0.18721987 -0.12474157 -0.09748539 -0.046421643 -0.08369791 -0.13638479 -0.06870023 -0.06331307 -0.14370924 0.09375612 0.030112574 -0.004987959 0.11309552 -0.25341228 0.08362056 0.10821381 -0.23870832 -0.061802037 0.015224052 0.06810006 -0.15872873 0.10585929
24 -0.14325845 -0.01964732 0.020908892 -0.051208146 -0.05435992 -0.095095806 0.029229555 0.011737817 -0.023735989 0.06044505 0.07575874 -0.10392028 -0.01450139 -0.19409326 0.040908378 0.06274092 0.09001556 0.021843832 -0.14394915 0.09477831 0.12719817 -0.10537168 -0.071246974 -0.064732775 0.038290568 0.055470947 -0.108813636 0.13893324 0.12637798 0.089376554 0.058256865 -0.092035525 -0.044366345 0.02912229 0.19894281 0.24842945 -0.015129417 0.2742214 -0.048323717 -0.00067476963 0.07742706 0.13774419 0.062491693 -0.07697566 -0.10848716 -0.22299558 -0.07622273 0.15721855 0.036909282 -0.16325569 -0.028075414 0.18913332 0.19658718 -0.19445625 0.21171613 -0.048612613 -0.08009717 -0.012169218 -0.27082613 -0.21441211 -0.15358882 -0.04303429 0.13776754 -0.08244009 0.019082695 -0.09743253 -0.055785276 -0.04510362 0.17459814 0.14165217 -0.16874519 -0.11986902 0.12163872 0.12043349 0.032318987 -0.07281593 0.04739197 -0.09325498 0.028657978 -0.009471309 -0.04605012 0.07721273 -0.084944606 0.018948194 -0.048504643 -0.1311595 -0.07223555 -0.26318446 -0.04031885 0.05628921 0.047297224 0.07182699 0.04125189 -0.065457724 -0.10579256 -0.07127275 -0.10374677 0.12410681 -0.024594257 0.15898216 -0.16566156 -0.052756142 0.015641168 0.035769425 0.07081056 -0.13806346 -0.18915851 -0.14496736 -0.07937608 -0.060954273 -0.088790484 -0.16036732 -0.11372412 -0.08566209 -0.0956957 0.065191984 0.040743414 0.026253253 0.12157171 -0.21475114 0.092521206 0.14243998 -0.2524907 -0.05634531 -0.021627074 0.08136559 -0.115819454 0.120126344
14 -0.09106997 0.017727708 -0.012722986 -0.09576559 -0.09924771 -0.06779639 -0.018236963 -0.083269455 -0.002329726 0.10550629 0.07777298 -0.104691915 -0.10362135 -0.08027065 0.08115908 0.112595156 0.026394393 0.04118863 -0.06988535 0.07742473 0.064491816 -0.078617275 -0.08607401 -0.121851094 -0.024948573 0.09734026 -0.047354262 0.06621882 0.08513649 0.055623386 0.06265499 -0.021708267 -0.044973154 0.026758615 0.25047842 0.17041136 -0.065536015 0.28313926 0.011809832 -0.009499287 -0.0020088733 0.094590455 0.06673378 -0.076253824 -0.038944744 -0.10784961 -0.01629961 0.164536 -0.00014222838 -0.117640704 -0.042262137 0.1757405 0.12421979 -0.14983243 0.14058837 -0.010099533 -0.10094648 0.06708767 -0.28729594 -0.22003552 -0.14163534 0.017454863 0.12477102 -0.008910192 0.04541977 -0.034904443 -0.041601837 -0.06371638 0.09540205 0.09665707 -0.13395362 -0.06863393 0.1066263 0.14665829 0.05547095 -0.057843328 0.057431493 -0.10602112 0.024441687 0.0483236 -0.043921128 0.03146986 -0.10347038 -0.07347709 -0.009215845 -0.12086273 -0.11405499 -0.27283907 0.0011535115 0.09778789 -0.0030108849 0.08462988 -0.03667309 -0.022182912 -0.058470953 -0.045333847 -0.051290426 0.03964392 0.022343269 0.103993215 -0.13241374 -0.0531971 -0.018239602 -0.0030542426 0.04749777 -0.1303481 -0.17971718 -0.09607567 -0.11418021 -0.019131018 -0.072787754 -0.10848885 -0.017405426 -0.031937875 -0.19964373 0.11590828 0.0090745315 -0.03655646 0.086222425 -0.2866503 0.075153455 0.06567149 -0.20214982 -0.070838414 0.06351099 0.059513986 -0.20966445 0.08913466
7 -0.024912355 0.08211245 -0.07122412 -0.14537863 -0.16684264 -0.020068811 -0.08648992 -0.19840638 0.0215428 0.16563408 0.0979955 -0.11798767 -0.226625 0.08170703 0.16128083 0.1923271 -0.0594002 0.06335888 0.049055487 0.08026529 -0.036055055 -0.03188805 -0.11147904 -0.24430817 -0.11101131 0.19715826 0.045149237 -0.017597724 0.04443106 -0.019158142 0.07819019 0.06519767 -0.036238052 0.032677896 0.3483204 0.07504977 -0.12093045 0.32550436 0.090013996 -0.010935595 -0.10843798 0.032130502 0.07289273 -0.067294374 0.027868597 0.05668544 0.058310285 0.21450812 -0.035998818 -0.06565615 -0.061043035 0.16073437 0.06276673 -0.11652031 0.05919947 0.034460872 -0.15113601 0.18451269 -0.33716226 -0.24476935 -0.14049481 0.102018915 0.115241855 0.08729962 0.104144365 0.02881456 -0.034132857 -0.09383264 -0.00714946 0.021806818 -0.09871544 -0.030089755 0.080597505 0.1989201 0.09341262 -0.02873406 0.06750666 -0.12989107 0.019382035 0.12153767 -0.05169369 -0.019939603 -0.12562096 -0.20938204 0.04877764 -0.117900416 -0.16294235 -0.32420635 0.06556567 0.15494514 -0.07793698 0.09662913 -0.14051321 0.026067663 0.025382034 0.004647681 0.01613187 -0.08198735 0.08393292 0.035887185 -0.09891514 -0.057628285 -0.078201145 -0.0611366 0.011686472 -0.13673471 -0.16230449 -0.03592885 -0.16204245 0.031866647 -0.056996528 -0.03318276 0.122192085 0.018548029 -0.34630454 0.20431735 -0.014953812 -0.11610867 0.05247649 -0.40034533 0.042259768 -0.033237368 -0.15459527 -0.09965676 0.1871539 0.03850332 -0.35304144 0.058784153
6 -0.011184124 0.09868234 -0.0826255 -0.14724831 -0.17456482 -0.0061263274 -0.09899665 -0.22304794 0.029716648 0.17393243 0.100266084 -0.11176982 -0.25189856 0.11118102 0.1701798 0.20376988 -0.079409525 0.07284942 0.07191415 0.07801444 -0.057382505 -0.026405703 -0.11496816 -0.26051238 -0.12272468 0.21216908 0.0691208 -0.035629738 0.03215711 -0.033963248 0.07382078 0.08344249 -0.035488594 0.034555588 0.36035708 0.04776572 -0.13816354 0.32523695 0.10364332 -0.015999787 -0.13350675 0.021079015 0.07355097 -0.0727832 0.03967175 0.08576158 0.076798804 0.22169818 -0.04797015 -0.046004586 -0.061478987 0.1572743 0.048512623 -0.10340105 0.047155432 0.041701686 -0.15625814 0.2036318 -0.3404343 -0.2364165 -0.13554779 0.11916991 0.111893184 0.11064832 0.10753032 0.049324047 -0.030846706 -0.107766315 -0.027665691 0.006231806 -0.08862758 -0.020322656 0.07284494 0.21299869 0.09588293 -0.024181314 0.069944665 -0.13829039 0.017949656 0.13384394 -0.048938602 -0.033725552 -0.13018467 -0.23263039 0.062195472 -0.12123322 -0.17303687 -0.32790887 0.07800264 0.16021736 -0.08894478 0.09483071 -0.16346914 0.0387808 0.04011614 0.011797565 0.026176967 -0.105921604 0.09249295 0.0194377 -0.085003205 -0.055132605 -0.0895799 -0.076369196 0.007202995 -0.13600717 -0.1605615 -0.020785958 -0.16699189 0.042610332 -0.055896703 -0.025439959 0.14359248 0.028237531 -0.3703122 0.21934663 -0.023129854 -0.13188186 0.03978117 -0.419384 0.039310932 -0.052430004 -0.14121653 -0.10463852 0.21202584 0.032848038 -0.38152793 0.051009353
30 -0.15654196 -0.028902976 0.027828703 -0.04526705 -0.05697961 -0.113496944 0.044231147 0.026820173 -0.023412827 0.04598922 0.08002866 -0.10520651 -0.0039060074 -0.22874801 0.042136516 0.05294705 0.106277846 0.01775161 -0.15542488 0.097981595 0.1392038 -0.11993979 -0.079151265 -0.05247477 0.05139686 0.04295431 -0.12802018 0.15203498 0.13851275 0.109584466 0.05519292 -0.10427149 -0.042654164 0.02664401 0.19163498 0.2677174 -0.014833784 0.28467727 -0.056529652 0.00026003274 0.100865066 0.14127213 0.05689011 -0.08026258 -0.1205937 -0.24879448 -0.08802737 0.14946598 0.043644458 -0.18522988 -0.021194639 0.202745 0.21197799 -0.20746468 0.2282515 -0.054923672 -0.080132514 -0.025832329 -0.2777402 -0.21826632 -0.16243273 -0.05804429 0.14999145 -0.09660925 0.024824858 -0.11229602 -0.057195902 -0.038078837 0.19792281 0.16500382 -0.1760297 -0.12864564 0.1317033 0.122829996 0.03246143 -0.08436273 0.051271558 -0.096178584 0.030815713 -0.021107959 -0.04268793 0.081631444 -0.09396799 0.03586342 -0.057918284 -0.13349323 -0.0661217 -0.26559442 -0.05527044 0.05714762 0.057485588 0.07397463 0.05200127 -0.071956165 -0.11276224 -0.0815554 -0.11721833 0.14206368 -0.034214236 0.17395037 -0.18351182 -0.055100746 0.021081477 0.050348766 0.08268807 -0.1464787 -0.2033575 -0.16328305 -0.07289417 -0.071142174 -0.0937661 -0.17788927 -0.13232686 -0.090790175 -0.08764506 0.062123995 0.049086813 0.034071796 0.1349256 -0.21406381 0.09714288 0.16230728 -0.27905595 -0.048940063 -0.035885166 0.08570533 -0.101709165 0.1285935
28 -0.111873455 0.0009347254 -0.0031808764 -0.07076796 -0.07751476 -0.07988094 0.0017352154 -0.04052429 -0.013796147 0.07760808 0.081297085 -0.105766885 -0.06322077 -0.12456966 0.06292036 0.09017817 0.05553018 0.035483103 -0.098857135 0.08848026 0.092034034 -0.08851712 -0.08321316 -0.100986145 -0.0023435003 0.0771247 -0.07429709 0.09172752 0.09674782 0.070557535 0.057792887 -0.052893855 -0.039487503 0.027671227 0.22591616 0.19870862 -0.04098041 0.2781466 -0.008507413 -0.0060673393 0.031713128 0.10992373 0.068016335 -0.06999983 -0.06653518 -0.15362448 -0.041802365 0.15825666 0.016840823 -0.13918655 -0.038395643 0.18111481 0.1526774 -0.17172918 0.16159935 -0.029056415 -0.090080515 0.03164655 -0.28143623 -0.21438335 -0.14681655 -0.0065566776 0.12898885 -0.043155022 0.042035043 -0.062890045 -0.04752524 -0.055324655 0.13248286 0.11489934 -0.14563058 -0.09218353 0.11027012 0.1325657 0.04632571 -0.060880587 0.05184955 -0.10150331 0.021058705 0.024648597 -0.04614551 0.054756746 -0.093594946 -0.033575244 -0.024969539 -0.12535906 -0.09184177 -0.26613793 -0.01871389 0.07772145 0.021281749 0.07552776 -0.005795117 -0.036673795 -0.0763951 -0.052786086 -0.071986124 0.07166263 0.0058386964 0.12832902 -0.14277466 -0.059250817 -0.0069151437 0.015061576 0.057550214 -0.13222025 -0.17747499 -0.116028875 -0.09837835 -0.037809346 -0.080755286 -0.12802224 -0.059382975 -0.055560544 -0.156285 0.09573474 0.026728388 -0.009914348 0.10397699 -0.25677332 0.07684823 0.09747283 -0.2236032 -0.05833875 0.02473035 0.06439275 -0.16678491 0.10346969
9 -0.09549787 0.014798856 -0.01338139 -0.089838855 -0.098300435 -0.06274693 -0.009639003 -0.07155254 -0.007727902 0.09529353 0.0755801 -0.10423715 -0.10119164 -0.08854311 0.08467985 0.10845283 0.031798124 0.037633598 -0.062000114 0.08340933 0.063665636 -0.07311472 -0.083496295 -0.12290349 -0.017488267 0.100143194 -0.043749895 0.072718516 0.08585097 0.051969726 0.06258662 -0.029141879 -0.033914823 0.026685296 0.24037622 0.17071803 -0.056532506 0.28002423 0.008789574 -0.010141997 0.0046174317 0.084769376 0.061236627 -0.07521321 -0.04372281 -0.11098376 -0.018820694 0.16730346 0.005823366 -0.1199187 -0.03731719 0.17513037 0.13080986 -0.15054989 0.14428335 -0.013658911 -0.10473924 0.05815052 -0.28224143 -0.21270241 -0.14231414 0.008453461 0.123317815 -0.016792784 0.051282384 -0.046026055 -0.04262214 -0.060557548 0.098584644 0.10145511 -0.14224565 -0.07315028 0.10609219 0.15191884 0.05711322 -0.057395756 0.053904418 -0.107020475 0.024312947 0.043529652 -0.04064827 0.035060726 -0.10625901 -0.06650262 -0.007427381 -0.12146796 -0.10751105 -0.27919444 0.00028198658 0.09982552 -0.004174121 0.083219014 -0.03183558 -0.022029962 -0.050747614 -0.04686038 -0.054233752 0.048829462 0.017734554 0.10608118 -0.13551155 -0.055642847 -0.017352493 -0.0014336837 0.0509622 -0.132079 -0.18059783 -0.10052557 -0.112202644 -0.017837225 -0.07467656 -0.10813854 -0.021934373 -0.033517074 -0.19492881 0.1222009 0.016269412 -0.034084573 0.09099313 -0.28478873 0.06857096 0.068995826 -0.21142569 -0.06767418 0.06423592 0.066360556 -0.20189899 0.08935474
8 -0.093621306 0.023885638 -0.025150348 -0.10178685 -0.10128128 -0.061152916 -0.018291084 -0.09064574 0.0003598665 0.109185435 0.08092098 -0.10178093 -0.11280299 -0.06661985 0.08426911 0.117388904 0.01912088 0.045921125 -0.053500786 0.0742623 0.051824998 -0.07502019 -0.08394224 -0.13070525 -0.037477154 0.10450222 -0.036134668 0.06113896 0.07804574 0.048551746 0.058287088 -0.0135518 -0.042503223 0.02788067 0.25627062 0.15457895 -0.06964429 0.279892 0.02455357 -0.009069499 -0.0089058615 0.08582306 0.06933733 -0.074972995 -0.028365282 -0.08623141 -0.010318482 0.16368873 -0.0070614414 -0.11636616 -0.041925468 0.17520261 0.11280537 -0.14371917 0.1249136 -0.002154749 -0.10226016 0.0744634 -0.28808713 -0.21916357 -0.1353308 0.019197263 0.115413494 0.0007596489 0.053467147 -0.028103355 -0.034977067 -0.06419487 0.0848159 0.089876674 -0.1254605 -0.060608972 0.104436345 0.14378214 0.061252628 -0.04901846 0.056290127 -0.100775264 0.022134999 0.05506239 -0.04129805 0.026739148 -0.09704901 -0.07440345 -0.0012530084 -0.11586707 -0.11248343 -0.2666525 0.010642681 0.09828648 -0.017122213 0.08219091 -0.0486722 -0.014277245 -0.050512034 -0.039722573 -0.04166924 0.028094755 0.031511538 0.0932227 -0.12033516 -0.054329354 -0.02073131 -0.0099295 0.040109918 -0.12983823 -0.16949055 -0.08978703 -0.11241675 -0.012207067 -0.069215745 -0.09261833 -0.00041461378 -0.01959079 -0.20920688 0.12005133 0.00561956 -0.042958286 0.07789264 -0.2898639 0.06576802 0.055680625 -0.18609676 -0.070572466 0.07772576 0.05407633 -0.21628024 0.08584269
20 -0.09382046 0.02380933 -0.019032188 -0.09985341 -0.100465655 -0.06403453 -0.022621082 -0.09184417 -0.0033022088 0.10241835 0.08406987 -0.10644388 -0.11341877 -0.06584787 0.08249581 0.113716014 0.022657264 0.040516738 -0.058103014 0.07895109 0.05607078 -0.074060515 -0.083722904 -0.13268642 -0.03488509 0.105119266 -0.037696026 0.06370025 0.07887283 0.05157513 0.057303023 -0.015432069 -0.044054903 0.029256452 0.25691858 0.15883704 -0.06580652 0.28707558 0.020535575 -0.0048379204 -0.006086906 0.086534575 0.0700086 -0.07075047 -0.03868649 -0.09401298 -0.011579212 0.16826548 -0.001865269 -0.11504981 -0.04467229 0.17371888 0.120663546 -0.15348198 0.12801233 -0.005318953 -0.10511525 0.07521919 -0.29135138 -0.2208793 -0.14016463 0.0200915 0.12422923 -0.0016470983 0.049275268 -0.03557632 -0.039618917 -0.069078386 0.09481077 0.09638686 -0.13480118 -0.068564445 0.10808798 0.15274012 0.0612135 -0.05290879 0.056344062 -0.109363645 0.025678802 0.057364997 -0.04674645 0.0274592 -0.10329021 -0.08060045 -6.733532e-05 -0.12185724 -0.118746355 -0.28407434 0.008163552 0.104492754 -0.0078019863 0.08607114 -0.043147627 -0.01538633 -0.04757439 -0.04078421 -0.050948728 0.031397037 0.0292863 0.103631586 -0.1312734 -0.05680051 -0.026465748 -0.0026945956 0.046835117 -0.13519382 -0.17882405 -0.0898933 -0.11921816 -0.0126408 -0.07861393 -0.1059767 -0.006435451 -0.025426373 -0.21215504 0.1267612 0.007515476 -0.04685138 0.091734536 -0.29628298 0.07123674 0.05869345 -0.20200992 -0.07403172 0.07045156 0.05897804 -0.2219394 0.09380344
26 -0.1492336 -0.03385976 0.03928169 -0.033747096 -0.040583044 -0.10349856 0.039156634 0.031623077 -0.02153974 0.047668923 0.08041161 -0.11273716 0.009059788 -0.2315847 0.036705483 0.055018645 0.11654061 0.021497589 -0.16513208 0.105260774 0.1438567 -0.12069455 -0.07270151 -0.05176459 0.06177349 0.041325636 -0.13563696 0.15579426 0.13563322 0.096333824 0.061508242 -0.11631713 -0.046056967 0.034698088 0.186951 0.27864704 -0.008804958 0.2828786 -0.06875596 -0.0029887527 0.09953501 0.15361537 0.055461578 -0.08163521 -0.12631105 -0.2575603 -0.09322509 0.16335285 0.046390045 -0.17959839 -0.025460646 0.19565398 0.22094537 -0.20408373 0.23602602 -0.05940486 -0.07730177 -0.029711412 -0.2775458 -0.22398339 -0.16990279 -0.058136135 0.14172485 -0.10466182 0.014867467 -0.112207085 -0.06213005 -0.048010085 0.20488405 0.15480047 -0.18483739 -0.14294083 0.13187793 0.12028938 0.029427782 -0.087981544 0.050889112 -0.10287528 0.026476087 -0.029030403 -0.04977502 0.097072065 -0.08737955 0.038338527 -0.06817252 -0.13742755 -0.06744018 -0.276794 -0.055437926 0.050784398 0.071499914 0.0727182 0.065880395 -0.07498802 -0.12865412 -0.08277359 -0.1266304 0.15314317 -0.040318806 0.17402078 -0.1869806 -0.060100544 0.028131966 0.053125322 0.08026188 -0.14137816 -0.20253003 -0.16510521 -0.07514972 -0.08064633 -0.09274318 -0.17613524 -0.14148216 -0.10529447 -0.0723557 0.059292823 0.046183452 0.042464618 0.13556862 -0.20589676 0.10088138 0.16523987 -0.2807468 -0.054511882 -0.047501624 0.08858102 -0.10049968 0.12593754
5 -0.031532317 0.07476246 -0.06495484 -0.1342444 -0.15268557 -0.020665716 -0.077893294 -0.18950453 0.016178168 0.15063892 0.08773121 -0.107715316 -0.20987685 0.06788013 0.14317933 0.17481107 -0.05479921 0.06570552 0.038695488 0.075505145 -0.027927864 -0.033242255 -0.101975 -0.22126172 -0.102481335 0.18176991 0.038567845 -0.014412758 0.038387187 -0.014632724 0.07015174 0.058710217 -0.034317795 0.030866563 0.32623607 0.0737889 -0.11459777 0.3041936 0.08120432 -0.013910371 -0.10170907 0.038045574 0.07679263 -0.06489821 0.022820784 0.04863177 0.05610159 0.20042478 -0.039728772 -0.055993948 -0.059114188 0.15539233 0.053140655 -0.106876545 0.058857378 0.026969576 -0.13714549 0.16814104 -0.31650978 -0.22658196 -0.1317447 0.090480365 0.10569072 0.07993336 0.091065966 0.031617634 -0.02671152 -0.09287729 -0.0017666756 0.026348177 -0.0938424 -0.028977243 0.076064266 0.18795888 0.08960845 -0.03080374 0.059232585 -0.12190204 0.02030276 0.11623346 -0.048908338 -0.017916135 -0.12166358 -0.19343223 0.04755648 -0.11602926 -0.15239932 -0.3037529 0.063412815 0.14663537 -0.07104548 0.09279703 -0.13314244 0.024926255 0.020505222 0.002832622 0.012442099 -0.07340348 0.0777438 0.035135757 -0.09460192 -0.054609142 -0.06876795 -0.05394157 0.012245642 -0.12449683 -0.15788676 -0.030644147 -0.14872442 0.02846032 -0.059011616 -0.034117687 0.108910255 0.021899616 -0.32789686 0.19119857 -0.013932988 -0.11342962 0.05259144 -0.3731924 0.041584413 -0.02770006 -0.14329603 -0.09423476 0.17274496 0.033716734 -0.3280588 0.0545038
31 -0.10743972 0.011082467 -0.009659441 -0.08477683 -0.09172805 -0.07624369 -0.009560487 -0.06714034 -0.008832129 0.09512322 0.081162274 -0.10688734 -0.08660332 -0.10693611 0.072131895 0.099112175 0.03689194 0.042348266 -0.084377915 0.08013998 0.0790093 -0.08943754 -0.08400457 -0.11409163 -0.016709132 0.09625914 -0.05958424 0.08310703 0.09367647 0.064895816 0.05706986 -0.035218503 -0.03847043 0.031194327 0.24296184 0.18899547 -0.05507808 0.29099965 -0.00028513547 -0.0064096116 0.012467923 0.10384244 0.07120994 -0.07885413 -0.05332895 -0.131517 -0.02817287 0.1677509 0.010064586 -0.1356358 -0.037492473 0.18402135 0.14057858 -0.1652817 0.1575145 -0.016262792 -0.10472133 0.047900196 -0.29073396 -0.2169785 -0.14785612 0.0017176907 0.1269724 -0.02868791 0.040770933 -0.044887878 -0.042636182 -0.06570262 0.11707872 0.10948538 -0.14275338 -0.079630986 0.111539505 0.14995621 0.058119647 -0.06163106 0.054848086 -0.10706684 0.02678493 0.040995244 -0.046622805 0.046275277 -0.10091593 -0.050817072 -0.015679246 -0.12190201 -0.10254393 -0.2850575 -0.004682115 0.095283054 0.005438917 0.08421581 -0.021977074 -0.026131203 -0.06709152 -0.04885373 -0.071351476 0.057151496 0.012696146 0.11606459 -0.14587839 -0.054142497 -0.016737156 0.0054534352 0.055549342 -0.13606173 -0.18598889 -0.11117512 -0.105050296 -0.024990624 -0.07793579 -0.122193374 -0.035568777 -0.040108286 -0.18469204 0.114963695 0.01830113 -0.022917809 0.09586793 -0.2816977 0.08062981 0.081116214 -0.21926802 -0.071728475 0.05061756 0.0698229 -0.1986045 0.10379301
11 -0.030395277 0.074943066 -0.05839861 -0.13538107 -0.15258135 -0.021851681 -0.07236747 -0.18625501 0.021649135 0.15002932 0.09202663 -0.10632485 -0.21143596 0.061154716 0.14437184 0.17594744 -0.051424567 0.061543584 0.03503052 0.074231476 -0.024852213 -0.034837324 -0.10421805 -0.22041853 -0.096433714 0.17362922 0.039808545 -0.010876476 0.044044353 -0.010090834 0.07257212 0.051638998 -0.03203329 0.033239756 0.32150146 0.07615748 -0.11077325 0.30450377 0.08365614 -0.011733395 -0.0958919 0.03823471 0.073081516 -0.067205265 0.023083502 0.034067046 0.052079376 0.19802363 -0.039069533 -0.06604572 -0.05644189 0.15578733 0.060569726 -0.10928648 0.06739238 0.02656803 -0.13484336 0.16558133 -0.31495616 -0.22850768 -0.12780264 0.090831675 0.10599727 0.07653656 0.09110422 0.022104898 -0.033381585 -0.08958268 0.0037178323 0.034813166 -0.09974317 -0.0302458 0.08292525 0.18971272 0.08971317 -0.030595569 0.06019344 -0.127345 0.019900713 0.108172074 -0.046049308 -0.016741104 -0.11988843 -0.1825039 0.044141494 -0.11223647 -0.15181835 -0.30821022 0.055765815 0.14369561 -0.06976407 0.091188826 -0.12417432 0.02594303 0.0149603775 -0.002224023 0.0033094394 -0.061253905 0.07582747 0.04213487 -0.09806814 -0.057207514 -0.06416691 -0.053777415 0.019495413 -0.12650011 -0.16375665 -0.040888816 -0.15112644 0.029702116 -0.05762787 -0.04247762 0.101395614 0.012582959 -0.32521582 0.18918389 -0.017238947 -0.10626365 0.05381397 -0.37866998 0.04252828 -0.024515303 -0.1536584 -0.090881206 0.17336439 0.040851604 -0.32642302 0.057039257
29 -0.113606066 0.008608562 -0.0029569499 -0.081388816 -0.078618884 -0.073606625 0.0015421562 -0.05257092 -0.0078005227 0.086048104 0.0746804 -0.10571069 -0.07202814 -0.11964782 0.061686035 0.09198273 0.04680081 0.032998696 -0.09854431 0.07929105 0.0914807 -0.08784604 -0.07599464 -0.09821132 -0.0023884699 0.08312867 -0.06462234 0.08789054 0.0978906 0.06797782 0.06153551 -0.047103412 -0.038242918 0.022419127 0.22752683 0.19508268 -0.043780405 0.2758618 -0.0060721086 -0.007262186 0.028816363 0.10804297 0.069895625 -0.07379113 -0.063751265 -0.1495653 -0.04332224 0.15964456 0.011090916 -0.13085422 -0.037473675 0.17215832 0.14493576 -0.16539426 0.1629795 -0.019309618 -0.0920477 0.035719883 -0.27147678 -0.21434137 -0.14043778 -0.008328558 0.1252481 -0.03327305 0.033349253 -0.054942984 -0.0414058 -0.056709025 0.122046046 0.11050701 -0.13754071 -0.08667951 0.1152865 0.13439202 0.048282318 -0.061956316 0.050598748 -0.09841003 0.023632329 0.027478665 -0.040910065 0.048493154 -0.094401896 -0.03934018 -0.018958988 -0.12563434 -0.09264284 -0.2676025 -0.00961711 0.07779759 0.017276926 0.082093276 -0.008512091 -0.036750868 -0.0791839 -0.0571858 -0.07199169 0.07165646 0.008648718 0.12156178 -0.13820805 -0.05067281 -0.010375211 0.014735717 0.05598533 -0.13590577 -0.18200417 -0.10804984 -0.09703341 -0.02992568 -0.079567574 -0.12669492 -0.053208984 -0.051177487 -0.1620582 0.095818855 0.022503229 -0.016682284 0.103332475 -0.25646654 0.07694706 0.094420664 -0.21882829 -0.059521515 0.027140819 0.06129572 -0.17600644 0.104793236
25 -0.1317512 -0.013048706 0.022914065 -0.04937315 -0.062487405 -0.094962545 0.019572008 0.001452217 -0.022640482 0.06394901 0.08458975 -0.11174461 -0.024473058 -0.18406278 0.05009233 0.06924646 0.08716635 0.022621425 -0.1351206 0.09677163 0.12376007 -0.11124971 -0.081759766 -0.07321692 0.034642078 0.06542118 -0.105587795 0.1306922 0.11849887 0.082507335 0.056862026 -0.08854268 -0.043214895 0.033033732 0.20633307 0.24063228 -0.025877777 0.28829664 -0.045044262 0.0005639857 0.07121484 0.13486162 0.057010204 -0.07867385 -0.10260554 -0.21546808 -0.07034253 0.1663345 0.03185426 -0.16674162 -0.027304644 0.19385797 0.19406675 -0.19025138 0.20525864 -0.044351935 -0.08468904 0.002261724 -0.28349495 -0.22105756 -0.16231051 -0.029822031 0.13432688 -0.078710385 0.027839117 -0.08546232 -0.057856973 -0.05208432 0.17463398 0.13638674 -0.17139168 -0.121422075 0.123978265 0.13214031 0.039681315 -0.079460256 0.053765967 -0.102598645 0.026819825 -0.0036577075 -0.04912111 0.07939789 -0.08936011 0.0076855067 -0.048944596 -0.13261281 -0.07435885 -0.27835515 -0.036780756 0.061283313 0.04591382 0.07691955 0.03453805 -0.05944242 -0.09892984 -0.06776506 -0.10652669 0.116999194 -0.023006784 0.1544601 -0.16665508 -0.054986395 0.013595497 0.03744417 0.067765936 -0.13809264 -0.19736594 -0.14353581 -0.085283786 -0.05997395 -0.09075615 -0.15514225 -0.10763355 -0.084239885 -0.11349663 0.07341215 0.038958777 0.020801665 0.12072365 -0.23328996 0.0918164 0.1357752 -0.26057255 -0.0630822 -0.010535689 0.080685586 -0.13302419 0.11518041
17 -0.008863656 0.08056256 -0.072343774 -0.13899325 -0.15744165 -0.015203517 -0.09079849 -0.20070165 0.023778975 0.15981036 0.09485675 -0.1063277 -0.23107608 0.0988034 0.15618378 0.18799207 -0.07256588 0.06904796 0.06574676 0.07274841 -0.050729677 -0.02122114 -0.10811726 -0.2393711 -0.110035196 0.18905704 0.059071906 -0.028360263 0.028476255 -0.027453162 0.06687362 0.07614525 -0.03309451 0.029808203 0.32267973 0.050121494 -0.1271136 0.29631343 0.09034967 -0.017007424 -0.1180067 0.02070771 0.070467085 -0.060048103 0.035907004 0.076735504 0.06536891 0.20235568 -0.03863397 -0.044026397 -0.055541154 0.14434636 0.04368749 -0.092178784 0.043234095 0.03396411 -0.13706078 0.17856812 -0.30987024 -0.21837085 -0.123164594 0.10721665 0.10246743 0.09634544 0.10489111 0.036474172 -0.0304776 -0.095560804 -0.021840699 0.0075606555 -0.09096419 -0.021630224 0.06916435 0.19481531 0.08930516 -0.019706715 0.058477256 -0.12712233 0.011327514 0.11552043 -0.04376999 -0.026345275 -0.122861646 -0.2130439 0.056256358 -0.10833278 -0.15872897 -0.30352163 0.07070463 0.14604883 -0.07605612 0.08651716 -0.1466428 0.03822946 0.028351083 0.0039428966 0.025710488 -0.095137194 0.08767923 0.022178587 -0.08293765 -0.054892004 -0.08315723 -0.06597159 0.0014915187 -0.124078 -0.14566535 -0.026689004 -0.15004641 0.035476122 -0.04877114 -0.01948003 0.12971553 0.022882106 -0.34057015 0.20155652 -0.01704333 -0.11953943 0.0410346 -0.38412848 0.031373877 -0.04563874 -0.13220167 -0.09475686 0.19490097 0.028954256 -0.34219944 0.041364834
19 -0.124345176 0.002448737 -0.00088163547 -0.076491036 -0.07952081 -0.08769062 0.002998937 -0.036763996 -0.012259988 0.0826872 0.07979416 -0.107836336 -0.06899721 -0.14204854 0.06647676 0.093414195 0.06523611 0.035669852 -0.10502636 0.086722605 0.09952738 -0.09621979 -0.08328485 -0.094963595 0.0026830703 0.08225397 -0.07678455 0.10307111 0.10241702 0.07348388 0.056703415 -0.05897213 -0.039555613 0.027439957 0.23029706 0.20986947 -0.038408525 0.2912024 -0.01129867 -0.0078618005 0.039323345 0.113539316 0.06806047 -0.07754743 -0.07723928 -0.1702607 -0.048079073 0.1610777 0.019170837 -0.14993748 -0.03660575 0.19157073 0.1661852 -0.17577055 0.17688882 -0.026918817 -0.093132734 0.024811024 -0.28969347 -0.22435108 -0.15414701 -0.014923246 0.13591509 -0.048992768 0.0375935 -0.07112858 -0.052459348 -0.056855805 0.14282808 0.12333519 -0.1634896 -0.0978117 0.12132867 0.13846926 0.05513438 -0.066250674 0.054704536 -0.10974563 0.023074957 0.025480598 -0.048398256 0.060576178 -0.102361046 -0.027122969 -0.02568687 -0.12479648 -0.09497416 -0.28326818 -0.025613278 0.08276805 0.023374602 0.07887773 -0.0051921955 -0.04259421 -0.07707916 -0.061667826 -0.0851015 0.08702227 -0.0032378454 0.13871197 -0.15609053 -0.056721084 0.00051562826 0.019728906 0.06497989 -0.13797559 -0.1916089 -0.12481108 -0.09675063 -0.03916808 -0.08766256 -0.14011389 -0.066471115 -0.060977776 -0.15382633 0.09590039 0.023135206 -0.010119173 0.11174821 -0.26197278 0.087706015 0.10656674 -0.23802544 -0.06706378 0.02881555 0.070196636 -0.1687431 0.10754463
22 -0.085633956 0.032171573 -0.030476961 -0.1045384 -0.10573932 -0.061402917 -0.02534981 -0.10830006 -0.0006886745 0.11445141 0.08091854 -0.104021326 -0.12774785 -0.045451034 0.09530176 0.12306508 0.0101582315 0.048036512 -0.04980371 0.07836359 0.05070841 -0.07451399 -0.09093717 -0.13941477 -0.043646436 0.11205401 -0.030844232 0.04756606 0.075298876 0.039708026 0.065006554 -0.0058196425 -0.043897938 0.025582744 0.26447272 0.14879125 -0.06909877 0.28929865 0.031216713 -0.008957104 -0.023859847 0.080354266 0.07824416 -0.070416495 -0.02977098 -0.07440531 -0.00482254 0.17023179 -0.005747438 -0.108667105 -0.0489394 0.16810073 0.111094214 -0.14824076 0.121737234 0.0012010504 -0.11018002 0.08667788 -0.2929868 -0.2229105 -0.13506031 0.03195 0.12192132 0.010643774 0.058374174 -0.018706495 -0.035104327 -0.0706675 0.07861901 0.08164832 -0.12113092 -0.061546 0.10407682 0.15174629 0.064048015 -0.046839397 0.0594897 -0.11092506 0.02087532 0.06630483 -0.047697134 0.021442458 -0.09937664 -0.09422638 0.010219294 -0.11752547 -0.11754075 -0.28046483 0.017844047 0.11063498 -0.021064239 0.0838407 -0.058676455 -0.011667581 -0.039077483 -0.03562406 -0.03659265 0.0128540825 0.03271453 0.093995854 -0.11743966 -0.051459733 -0.031498145 -0.012840284 0.036460508 -0.12990904 -0.17046432 -0.08489136 -0.12109944 -0.009994847 -0.07206929 -0.09033034 0.012326971 -0.01846658 -0.22819574 0.13125235 0.0044658496 -0.054391533 0.081474654 -0.30543593 0.067251846 0.045252316 -0.19128524 -0.07259722 0.087180875 0.05511266 -0.23081163 0.08832457
18 -0.08654535 0.03152179 -0.026565839 -0.10576435 -0.11104476 -0.06487104 -0.02856174 -0.10750976 0.00012326502 0.11344228 0.07913809 -0.10935419 -0.12593971 -0.055018116 0.09157341 0.12468475 0.015946101 0.048002362 -0.051856257 0.081855275 0.047317103 -0.07139523 -0.09358915 -0.14264706 -0.0420717 0.11588522 -0.034867827 0.05124229 0.08164112 0.047149345 0.059729613 -0.0083530415 -0.04094381 0.03089635 0.27103853 0.15255651 -0.073225915 0.2944597 0.029780595 -0.006425372 -0.021848937 0.08301815 0.07186382 -0.07044362 -0.029402006 -0.080109835 -0.004183518 0.17309739 -0.008466519 -0.109687924 -0.04976682 0.17479841 0.11698736 -0.1462651 0.12514482 -0.0046336562 -0.11362084 0.087279215 -0.30028993 -0.2223163 -0.14038725 0.031094445 0.12480364 0.007229499 0.056374058 -0.024475204 -0.03661997 -0.06893354 0.08078322 0.0829499 -0.1289502 -0.059467018 0.10630614 0.15795252 0.0623883 -0.050215796 0.05574678 -0.10935224 0.024311487 0.065732054 -0.04569924 0.027855396 -0.106959045 -0.08831846 0.0009134433 -0.11695919 -0.121614255 -0.27967158 0.012537973 0.1060091 -0.01802434 0.085038535 -0.051931746 -0.01211558 -0.043730598 -0.03843015 -0.04304296 0.02351908 0.033848956 0.095533654 -0.12619282 -0.055484504 -0.028100325 -0.0062872814 0.042097766 -0.13415267 -0.1723944 -0.08591394 -0.12199312 -0.012425551 -0.07339772 -0.09840842 0.0067678997 -0.020819599 -0.22682765 0.13206147 0.0058044298 -0.04950078 0.08102096 -0.30602252 0.0683317 0.047947112 -0.19519512 -0.07030083 0.08379162 0.059686147 -0.23186523 0.08868595
16 -0.11660534 -0.0020813884 0.0014545292 -0.07236707 -0.07913483 -0.08330147 0.008443425 -0.034529366 -0.00944202 0.075054 0.07296715 -0.09754566 -0.058501612 -0.13436396 0.06239151 0.08558197 0.05878857 0.03212461 -0.10432 0.08565602 0.09123688 -0.091636784 -0.07607069 -0.08879873 0.0025959697 0.07507753 -0.07342133 0.09950645 0.10561113 0.07328291 0.058897782 -0.049587842 -0.037095804 0.022391122 0.21629708 0.20392479 -0.03706223 0.2754702 -0.017530853 -0.0075331144 0.04090926 0.1117047 0.063934274 -0.07181359 -0.070118345 -0.1598475 -0.04429173 0.15499698 0.014613909 -0.13705637 -0.03435276 0.1823157 0.15522088 -0.16628264 0.16937715 -0.028064013 -0.088190846 0.027430605 -0.2721514 -0.2084718 -0.14241646 -0.013315386 0.12717797 -0.04572321 0.03279588 -0.061730556 -0.047131643 -0.05538966 0.13498475 0.118507974 -0.14686693 -0.09008184 0.11105912 0.13535608 0.050010897 -0.065913066 0.051744614 -0.09523661 0.02718925 0.02346383 -0.0403253 0.050217554 -0.09314163 -0.02485708 -0.025598744 -0.12574151 -0.08789998 -0.2684762 -0.020289801 0.082734145 0.018780075 0.084031664 -0.0056419643 -0.0388769 -0.08264433 -0.056835197 -0.07442723 0.076257356 0.0034527588 0.13145159 -0.14746526 -0.053984266 -0.0016887661 0.015956262 0.06324071 -0.13683048 -0.18379511 -0.118860796 -0.09376398 -0.039546646 -0.08181332 -0.13175792 -0.06486364 -0.053324204 -0.14848647 0.09515748 0.025759352 -0.012116764 0.1077339 -0.25153804 0.08234618 0.10152566 -0.22601913 -0.06250258 0.022045175 0.06809876 -0.1598418 0.10789583
27 -0.13264748 -0.014432338 0.0154054705 -0.06673862 -0.07156625 -0.09334652 0.01726071 -0.010724852 -0.019228093 0.0656555 0.07625794 -0.109015524 -0.039218586 -0.17690104 0.05642587 0.07826874 0.08379958 0.027685076 -0.12766558 0.092422076 0.11437836 -0.100800134 -0.08066748 -0.07975779 0.023060888 0.060682878 -0.09719218 0.12714818 0.11898795 0.084511735 0.06306868 -0.077789545 -0.043456167 0.027425222 0.21327049 0.23350151 -0.025172867 0.28585398 -0.032088898 -0.0042393315 0.06632344 0.12665705 0.0625873 -0.08079869 -0.09581144 -0.20316887 -0.06637838 0.15508397 0.030379673 -0.16273159 -0.027745117 0.18832204 0.18580174 -0.19362181 0.20106561 -0.034653 -0.09175221 0.0035376106 -0.27956274 -0.22331296 -0.15463537 -0.036207315 0.14331456 -0.06339375 0.034311015 -0.08961562 -0.048403703 -0.047658425 0.16443416 0.14212811 -0.16077141 -0.10447575 0.12238778 0.13077617 0.046559397 -0.070485614 0.053762034 -0.10133949 0.029574802 0.0042730956 -0.04557789 0.06686148 -0.09437476 -0.0049157343 -0.037703574 -0.1276776 -0.082646385 -0.26964644 -0.036172234 0.07525478 0.033653717 0.07598776 0.022298275 -0.058044877 -0.09979729 -0.06499813 -0.09557443 0.111004606 -0.012502198 0.155762 -0.16396222 -0.058342822 0.0075135515 0.032309063 0.06614699 -0.14579588 -0.19645087 -0.13877614 -0.085955426 -0.04854311 -0.09095995 -0.15291083 -0.0976298 -0.07422292 -0.11945912 0.07849242 0.03253937 0.007056799 0.12009411 -0.23489532 0.0861633 0.1275678 -0.24961977 -0.054942783 -0.0041625043 0.076134056 -0.13587704 0.119567566
15 -0.13413437 -0.018049095 0.012593951 -0.06411311 -0.06993124 -0.094939366 0.023937287 -0.0032538907 -0.021102322 0.06514987 0.08343506 -0.10710837 -0.030212352 -0.18546265 0.05059078 0.07339109 0.08884582 0.028151697 -0.13018414 0.09620067 0.1219835 -0.104298845 -0.0811161 -0.075937666 0.028485922 0.06379486 -0.09986085 0.12782136 0.12488156 0.09206563 0.059532613 -0.07986879 -0.04065869 0.030542107 0.20913815 0.24102876 -0.024637822 0.2914128 -0.03880225 -0.003104367 0.07026807 0.13208562 0.064360425 -0.0824405 -0.095862634 -0.20846903 -0.06882536 0.16271822 0.027052805 -0.16591218 -0.033054687 0.20040162 0.1926199 -0.1962018 0.203136 -0.045004323 -0.089798614 -0.0026373565 -0.28735763 -0.22084904 -0.1554126 -0.03261245 0.13626337 -0.07766628 0.029703103 -0.08665614 -0.05183388 -0.05161833 0.16584826 0.14067055 -0.16999212 -0.11147409 0.12399695 0.13038297 0.04492048 -0.075735554 0.056266516 -0.09877958 0.023350164 -0.0004465148 -0.047015984 0.072400674 -0.09734243 0.005679665 -0.04127992 -0.12915498 -0.078427635 -0.27335715 -0.040002156 0.066048965 0.041526925 0.07836716 0.025219927 -0.059688825 -0.100095905 -0.07453222 -0.09975647 0.112863675 -0.01616727 0.15894377 -0.17075132 -0.061713535 0.011284593 0.03348298 0.06706185 -0.1454677 -0.19643147 -0.14597782 -0.08618526 -0.05228886 -0.09006359 -0.1541336 -0.103372626 -0.07855569 -0.11690466 0.08263095 0.03625655 0.017032156 0.11799194 -0.23940828 0.08806604 0.13527034 -0.2547992 -0.0551141 -0.009736646 0.078777194 -0.1386811 0.11485347
23 -0.121411785 -0.0061680535 0.0025525726 -0.07123264 -0.07191611 -0.08706916 0.011941465 -0.033228055 -0.018797083 0.076541625 0.0754818 -0.1054762 -0.055174973 -0.14514957 0.06063518 0.08092966 0.064285144 0.034761533 -0.11068435 0.086596325 0.10351129 -0.09531702 -0.0774374 -0.08771715 0.007287279 0.06961031 -0.07801133 0.10318076 0.10169204 0.07191239 0.05715172 -0.056315307 -0.044002365 0.02690847 0.22004719 0.20755109 -0.03824133 0.27212116 -0.015180138 -0.006791421 0.03925487 0.11232891 0.067199565 -0.07385655 -0.074449316 -0.1670769 -0.04850722 0.15438831 0.02177095 -0.14676045 -0.037020523 0.18262845 0.15928696 -0.17167784 0.16951635 -0.02931209 -0.091984816 0.018924054 -0.27374482 -0.21011531 -0.14746106 -0.013420208 0.13058698 -0.050991613 0.032730877 -0.06481683 -0.047463458 -0.05588479 0.14008896 0.12440197 -0.15387943 -0.09708707 0.11199514 0.13043134 0.04450249 -0.0650185 0.05111427 -0.10127982 0.022164447 0.016714536 -0.04244118 0.05832081 -0.09252016 -0.018227542 -0.028736228 -0.124679565 -0.089443624 -0.26484516 -0.0203978 0.07692059 0.026923338 0.08091335 0.0068628956 -0.04402312 -0.0842074 -0.059388015 -0.07983663 0.08682374 -0.0054046223 0.1336693 -0.14807013 -0.057287302 0.0024794089 0.019414766 0.058043264 -0.13747235 -0.18403816 -0.121430255 -0.096862905 -0.0423988 -0.08234823 -0.13730636 -0.07100005 -0.056185283 -0.13955787 0.08857201 0.026200294 -0.0018897168 0.11127286 -0.2480524 0.08492165 0.11018912 -0.22781608 -0.05855871 0.01855062 0.074295186 -0.15921266 0.10785297
21 -0.1239383 -0.0025400727 0.007324269 -0.06677095 -0.0719468 -0.08120505 0.0104563935 -0.028360737 -0.01614637 0.07498466 0.07534075 -0.09988178 -0.045881476 -0.15003991 0.056447316 0.081598684 0.06752583 0.029216705 -0.110996194 0.08873884 0.10012495 -0.09250982 -0.07575781 -0.0859304 0.013205606 0.06520655 -0.08164556 0.107461475 0.109783046 0.079747066 0.057084426 -0.06472379 -0.03741096 0.025505519 0.21339792 0.21345307 -0.032444436 0.27551657 -0.025925772 -0.0080078775 0.051934402 0.11406967 0.057568662 -0.07036934 -0.081168845 -0.17229353 -0.049087934 0.15411957 0.018504499 -0.14336933 -0.031197578 0.1849698 0.16094793 -0.1763621 0.1787176 -0.03342428 -0.086188614 0.014204318 -0.27356446 -0.20920582 -0.14996746 -0.016494034 0.13062078 -0.05620783 0.032227002 -0.076288305 -0.046980515 -0.053907637 0.1416206 0.12753183 -0.15572868 -0.10095823 0.1142276 0.13263471 0.045964852 -0.07124812 0.048647854 -0.09915148 0.024830895 0.013153483 -0.044686344 0.059809323 -0.093822226 -0.019636765 -0.03243511 -0.12696935 -0.08754744 -0.2699195 -0.028744575 0.07226055 0.025715748 0.07949958 0.008546823 -0.04426355 -0.08792177 -0.065426625 -0.08745682 0.08817534 -0.0068449187 0.13297655 -0.15416273 -0.056739997 -0.0019409392 0.027079748 0.06646325 -0.13680536 -0.18496686 -0.12798381 -0.09434981 -0.046167593 -0.08330458 -0.13935673 -0.07526707 -0.061119355 -0.13948566 0.09144723 0.027230209 -0.0029495154 0.11169158 -0.24835652 0.08589871 0.11184401 -0.23340568 -0.05838712 0.01115077 0.07168985 -0.1521253 0.10341944
10 -0.10057966 0.014324099 -0.01472398 -0.086934015 -0.09143279 -0.07137101 -0.012986266 -0.07304504 -0.0060846163 0.09928589 0.07811873 -0.10081738 -0.09163089 -0.09541897 0.07683548 0.10369321 0.0360339 0.040151536 -0.07828719 0.08154326 0.07378535 -0.08420653 -0.08613656 -0.119048774 -0.018118963 0.09308827 -0.048522387 0.07871864 0.08958739 0.058173515 0.059410743 -0.029601505 -0.041739024 0.02608028 0.24046296 0.17648101 -0.054450385 0.27796698 0.008945288 -0.00976249 0.01072559 0.09344612 0.06966831 -0.069189295 -0.049832255 -0.12019917 -0.026492266 0.16458654 0.006034646 -0.1277216 -0.03953066 0.17529081 0.13131087 -0.15602688 0.14501579 -0.013039015 -0.09868188 0.05638014 -0.28348222 -0.21551922 -0.14199162 0.009102942 0.124299 -0.018770646 0.04384129 -0.04614371 -0.038740274 -0.06423712 0.10882496 0.10317252 -0.1392357 -0.07245455 0.10566368 0.14153114 0.05846672 -0.056850158 0.053062856 -0.101240315 0.026724564 0.04305987 -0.044488166 0.040625907 -0.09740421 -0.061713215 -0.008720539 -0.11625417 -0.10740123 -0.27304608 -0.000559823 0.09186572 0.00025824655 0.081791855 -0.031055335 -0.026327955 -0.06269197 -0.044663668 -0.062334195 0.050489735 0.020732408 0.112456635 -0.13263308 -0.050812434 -0.016166886 0.0030035928 0.05059069 -0.13516797 -0.17852864 -0.098017186 -0.10462566 -0.019778734 -0.075101264 -0.10766446 -0.029338816 -0.040565975 -0.18687063 0.1083519 0.012832781 -0.03076688 0.094993256 -0.27825403 0.07645726 0.07289698 -0.20996377 -0.062966146 0.05350081 0.061920416 -0.1986567 0.096853614
13 -0.060386755 0.05180654 -0.044187155 -0.12081455 -0.12995565 -0.043253936 -0.04366726 -0.14063811 0.0053092125 0.12754466 0.086371735 -0.11055906 -0.16606764 0.0017785749 0.10968167 0.14767747 -0.015065443 0.0489848 -0.015110692 0.07474285 0.021090936 -0.05604229 -0.09241886 -0.17708328 -0.06971678 0.14444411 0.00015988023 0.025237348 0.05667725 0.022899922 0.06510129 0.021430781 -0.03865904 0.027225995 0.2919168 0.118492186 -0.09159513 0.2968605 0.057336356 -0.009266425 -0.052490804 0.06439841 0.075844504 -0.075012855 -0.0034598955 -0.025210826 0.02285805 0.18408068 -0.019886153 -0.09342212 -0.050856527 0.16442113 0.0872264 -0.13145451 0.09762613 0.011489558 -0.118594445 0.11874383 -0.3019064 -0.22436783 -0.13735768 0.057719517 0.116346925 0.042169668 0.07179244 -0.0005213932 -0.029543469 -0.080079906 0.044269104 0.06580275 -0.1176528 -0.047658447 0.09574591 0.17378443 0.07675642 -0.046371125 0.063545644 -0.119112656 0.022386238 0.08288387 -0.040532917 0.0043917275 -0.11271316 -0.13730197 0.026796581 -0.12105132 -0.1356091 -0.29496288 0.034552906 0.12651566 -0.04239918 0.08452397 -0.09274165 0.006273705 -0.012188815 -0.018629272 -0.02296028 -0.017314544 0.047307454 0.06822042 -0.11265283 -0.051367916 -0.043280724 -0.03114005 0.034677453 -0.13199519 -0.16812858 -0.06493103 -0.13588898 0.0070361122 -0.06913415 -0.0747304 0.051002257 -0.0038564224 -0.2714008 0.15706645 0.00032729938 -0.07845211 0.06794693 -0.34156007 0.060681827 0.021431727 -0.17728977 -0.07797941 0.12722997 0.04764677 -0.27765256 0.07611419
12 -0.07322882 0.04537286 -0.038925957 -0.114849806 -0.12413217 -0.049323887 -0.042477045 -0.12717342 0.0018739279 0.12749228 0.0893517 -0.11235475 -0.15807085 -0.018237613 0.11067417 0.14571227 -0.0087619405 0.05167625 -0.022661127 0.0830811 0.023997588 -0.060018793 -0.098994724 -0.16654487 -0.059116796 0.13779594 -0.0056005563 0.03785734 0.070062146 0.03173153 0.06265316 0.013011571 -0.036881767 0.029439453 0.2926293 0.13097943 -0.08925445 0.3006379 0.045642197 -0.009699581 -0.04072492 0.06949212 0.07166478 -0.07400483 -0.014124422 -0.045466885 0.013043406 0.18921575 -0.012675143 -0.10041272 -0.049647164 0.17252125 0.10422002 -0.13941647 0.11357589 0.004181965 -0.124940656 0.108658485 -0.3095876 -0.23305243 -0.14221178 0.051023766 0.12257995 0.026418298 0.07371899 -0.014567056 -0.03506613 -0.08013391 0.058578562 0.070519194 -0.12744062 -0.052764114 0.096567 0.17145896 0.07615986 -0.044608947 0.062386934 -0.12094688 0.025529932 0.075178996 -0.046285555 0.012270091 -0.11512206 -0.1245471 0.01473785 -0.12076437 -0.13341078 -0.3020211 0.023696786 0.12130241 -0.03198273 0.088418186 -0.0835572 -0.0054796464 -0.025351144 -0.030276015 -0.030782796 -0.0065231817 0.04848123 0.082968645 -0.12279172 -0.060660616 -0.044409204 -0.023419479 0.032587335 -0.13470283 -0.17910357 -0.078854136 -0.13519035 0.00080361916 -0.06945813 -0.08645214 0.031793285 -0.0111593185 -0.2645234 0.15277497 -0.0020134025 -0.07047283 0.074113645 -0.33821073 0.0632845 0.031647723 -0.18772125 -0.07938145 0.11819172 0.05641223 -0.2686828 0.07939528
